tree
version=v4
num_class=1
num_tree_per_iteration=1
label_index=0
max_feature_idx=199
objective=regression
feature_names=Column_0 Column_1 Column_2 Column_3 Column_4 Column_5 Column_6 Column_7 Column_8 Column_9 Column_10 Column_11 Column_12 Column_13 Column_14 Column_15 Column_16 Column_17 Column_18 Column_19 Column_20 Column_21 Column_22 Column_23 Column_24 Column_25 Column_26 Column_27 Column_28 Column_29 Column_30 Column_31 Column_32 Column_33 Column_34 Column_35 Column_36 Column_37 Column_38 Column_39 Column_40 Column_41 Column_42 Column_43 Column_44 Column_45 Column_46 Column_47 Column_48 Column_49 Column_50 Column_51 Column_52 Column_53 Column_54 Column_55 Column_56 Column_57 Column_58 Column_59 Column_60 Column_61 Column_62 Column_63 Column_64 Column_65 Column_66 Column_67 Column_68 Column_69 Column_70 Column_71 Column_72 Column_73 Column_74 Column_75 Column_76 Column_77 Column_78 Column_79 Column_80 Column_81 Column_82 Column_83 Column_84 Column_85 Column_86 Column_87 Column_88 Column_89 Column_90 Column_91 Column_92 Column_93 Column_94 Column_95 Column_96 Column_97 Column_98 Column_99 Column_100 Column_101 Column_102 Column_103 Column_104 Column_105 Column_106 Column_107 Column_108 Column_109 Column_110 Column_111 Column_112 Column_113 Column_114 Column_115 Column_116 Column_117 Column_118 Column_119 Column_120 Column_121 Column_122 Column_123 Column_124 Column_125 Column_126 Column_127 Column_128 Column_129 Column_130 Column_131 Column_132 Column_133 Column_134 Column_135 Column_136 Column_137 Column_138 Column_139 Column_140 Column_141 Column_142 Column_143 Column_144 Column_145 Column_146 Column_147 Column_148 Column_149 Column_150 Column_151 Column_152 Column_153 Column_154 Column_155 Column_156 Column_157 Column_158 Column_159 Column_160 Column_161 Column_162 Column_163 Column_164 Column_165 Column_166 Column_167 Column_168 Column_169 Column_170 Column_171 Column_172 Column_173 Column_174 Column_175 Column_176 Column_177 Column_178 Column_179 Column_180 Column_181 Column_182 Column_183 Column_184 Column_185 Column_186 Column_187 Column_188 Column_189 Column_190 Column_191 Column_192 Column_193 Column_194 Column_195 Column_196 Column_197 Column_198 Column_199
feature_infos=[-13.255051612854004:13.091446876525879] [-3.3213632106781006:3.5149657726287842] [-7.2459368705749512:7.1788010597229004] [-4.1774945259094238:5.0092582702636719] [-4.3780765533447266:4.3615713119506836] none none [-1.3577796220779419:1.8212876319885254] [-0.62645435333251953:15.057610511779785] [-0.63946914672851562:16.964166641235352] [-0.61052918434143066:17.362205505371094] [-0.61453181505203247:13.921485900878906] [-1.293630838394165:5.3650588989257812] [-1.29682457447052:5.014777660369873] [-2.1572566032409668:1.9457682371139526] [-2.138775110244751:1.9466279745101929] [-2.0526919364929199:2.0429902076721191] [-1.739801287651062:5.0080695152282715] [-0.65626424551010132:13.662307739257812] [-2.8333480358123779:2.1651003360748291] [-1.8855655193328857:2.0847256183624268] [-3.6921112537384033:3.6969592571258545] [-0.11697463691234589:15.589809417724609] [-6.3488306999206543:6.1356630325317383] [-0.025469938293099403:60.23321533203125] [-7.0865583419799805:6.4333810806274414] [-0.022418547421693802:67.276405334472656] [-5.3955740928649902:5.830836296081543] [-0.019539797678589821:67.728256225585938] [-4.8608560562133789:4.2457504272460938] [-3.8243246078491211:6.5766472816467285] [-5.8907833099365234:5.8082008361816406] [-6.0042643547058105:12.36681079864502] [-18.197292327880859:17.290275573730469] [-5.5636177062988281:24.623739242553711] [-7.3532834053039551:6.3233962059020996] [-3.2219655513763428:15.691620826721191] [-14.506857872009277:16.219396591186523] [-0.1716187596321106:43.281684875488281] [-7.4460334777832031:6.2695436477661133] [-3.571357250213623:7.3335518836975098] [-7.1940350532531738:6.0599465370178223] [-0.012722327373921871:83.003768920898438] [-4.0792379379272461:4.0815181732177734] [-0.11021484434604645:17.129558563232422] [-6.6689934730529785:5.0746688842773438] [-0.025951452553272247:62.970466613769531] [-7.7597823143005371:7.2577977180480957] [-0.022637138143181801:70.480941772460938] [-6.5654077529907227:7.2024788856506348] [-0.019598180428147316:62.531982421875] [-5.0916604995727539:4.5040626525878906] [-4.0629510879516602:7.3408603668212891] [-6.3515644073486328:6.4054112434387207] [-6.4687814712524414:14.692313194274902] [-10.170802116394043:10.349360466003418] [-6.4245052337646484:30.42262077331543] [-9.0375003814697266:7.4049210548400879] [-3.8372461795806885:23.464927673339844] [-14.506857872009277:16.219396591186523] [-0.1716187596321106:43.281684875488281] [-8.9715299606323242:7.4779462814331055] [-4.2515444755554199:8.4305210113525391] [-8.585667610168457:7.2739057540893555] [-0.011704300530254841:80.197212219238281] [-4.2113327980041504:4.213719367980957] [-0.11203119903802872:16.292631149291992] [-7.0819764137268066:4.6612563133239746] [-0.025937171652913094:79.929763793945312] [-8.9272823333740234:8.0523519515991211] [-0.022842047736048698:62.664939880371094] [-7.7889890670776367:7.9712553024291992] [-0.019612090662121773:58.713485717773438] [-5.1719880104064941:4.8512101173400879] [-4.2200660705566406:8.0864372253417969] [-6.6917948722839355:6.5264606475830078] [-6.8053669929504395:14.983195304870605] [-7.967165470123291:8.1611270904541016] [-7.3483195304870605:33.512985229492188] [-10.737897872924805:8.7743568420410156] [-4.4749279022216797:27.596027374267578] [-14.506857872009277:16.219396591186523] [-0.1716187596321106:43.281684875488281] [-11.289470672607422:9.7575960159301758] [-5.3155536651611328:10.261166572570801] [-10.897522926330566:9.5941457748413086] [-0.011722142808139324:80.49664306640625] [-2.503591775894165:2.4370322227478027] [-2.51263427734375:2.4388577938079834] [-1.6442747116088867:7.2951717376708984] [-1.6546666622161865:7.9702072143554688] [-2.3652417659759521:8.8833637237548828] [-2.3546032905578613:8.8546867370605469] [-6.1530876159667969:4.3505659103393555] [-6.1115427017211914:4.3318567276000977] [-5.8412017822265625:4.1137471199035645] [-5.1237387657165527:5.5562782287597656] [-8.1118001937866211:3.8562874794006348] [-7.501065731048584:3.8065659999847412] [-7.9539375305175781:24.735940933227539] [-8.2615442276000977:22.669036865234375] [-4.0498967170715332:8.6379623413085938] [-5.2889156341552734:8.8469705581665039] [-0.55524498224258423:18.298040390014648] [-0.54847449064254761:17.488807678222656] [-3.7195684909820557:7.6176481246948242] [-3.6652884483337402:8.418792724609375] [-6.9412093162536621:7.1315150260925293] [-6.8720459938049316:7.6372880935668945] [-2.8314006328582764:2.752948522567749] [-2.8465330600738525:2.7636456489562988] [-1.7404382228851318:6.3293142318725586] [-1.7530500888824463:8.4450454711914062] [-2.6456766128540039:9.9244861602783203] [-2.6246519088745117:9.8427305221557617] [-7.7335481643676758:5.4798250198364258] [-7.6824884414672852:5.4517455101013184] [-6.3178820610046387:4.4598402976989746] [-5.5647249221801758:6.0509810447692871] [-8.8423614501953125:4.2094902992248535] [-8.1867876052856445:4.1564950942993164] [-9.3000087738037109:13.245745658874512] [-9.6395549774169922:12.713665962219238] [-5.1058220863342285:10.918892860412598] [-6.7139801979064941:11.231233596801758] [-0.55524498224258423:18.298040390014648] [-0.54847449064254761:17.488807678222656] [-4.8889708518981934:10.027628898620605] [-4.836367130279541:11.092202186584473] [-9.049595832824707:9.2726411819458008] [-8.9569482803344727:9.9101734161376953] [-3.1188633441925049:3.0330514907836914] [-3.1303527355194092:3.041412353515625] [-1.8094229698181152:5.6574792861938477] [-1.8229275941848755:8.7989187240600586] [-2.9307112693786621:10.943525314331055] [-2.8931343555450439:10.812549591064453] [-9.4422111511230469:6.7110581398010254] [-9.3345403671264648:6.6334695816040039] [-6.7247104644775391:4.7730116844177246] [-5.9082450866699219:6.4574666023254395] [-9.4371004104614258:4.5062861442565918] [-8.6974582672119141:4.4295825958251953] [-10.582577705383301:8.6050243377685547] [-10.954825401306152:8.3826208114624023] [-6.1383056640625:13.189457893371582] [-8.0853567123413086:13.562647819519043] [-0.55524498224258423:18.298040390014648] [-0.54847449064254761:17.488807678222656] [-6.2057428359985352:12.738256454467773] [-6.1041483879089355:14.003273963928223] [-11.825081825256348:12.056014060974121] [-11.591518402099609:12.760602951049805] [-4.5958294868469238:4.5944962501525879] [-5.8008437156677246:5.3603172302246094] [-6.4942970275878906:5.3754968643188477] [-5.4209303855895996:5.4399080276489258] [-6.4094014167785645:6.5934796333312988] [-2.9878971576690674:2.9578104019165039] [-2.97371506690979:2.9454803466796875] [-1.639362096786499:5.8056755065917969] [-1.660524845123291:8.391566276550293] [-5.0153303146362305:3.8195235729217529] [-5.0242719650268555:3.8208565711975098] [-5.7305717468261719:2.462963342666626] [-5.7767815589904785:2.9226322174072266] [-0.94259548187255859:7.2805929183959961] [-0.93579959869384766:7.3130621910095215] [-1.6463043689727783:1.6438142061233521] [-0.62593543529510498:15.364140510559082] [-2.971677303314209:11.787676811218262] [-3.8260061740875244:9.3520069122314453] [-1.8811401128768921:2.1111297607421875] [-1.8653736114501953:0.53608566522598267] none none [-2.0857038497924805:1.9690062999725342] [-4.2032537460327148:2.3020293712615967] [-2.6008071899414062:4.1545982360839844] [-0.9488491415977478:4.1318368911743164] [-0.95308065414428711:4.1531624794006348] [-5.38232421875:4.4842238426208496] [-1.0945537090301514:4.9527554512023926] [-1.100780725479126:5.5186419486999512] [-5.0388917922973633:5.043492317199707] [-1.3118307590484619:4.8457226753234863] [-1.3160260915756226:5.5310368537902832] [-4.4804348945617676:4.4859733581542969] [0:1] [0:1] [0:1] [0:1] [0:1] [0:1] none [0:1] none [0:1] [0:1] [0:1]
tree_sizes=5553 5891 5877 5883

Tree=0
num_leaves=64
num_cat=0
split_feature=17 160 112 17 160 112 160 112 134 17 122 160 111 145 17 163 176 18 97 29 176 150 134 165 50 17 29 2 146 100 136 7 159 105 0 138 97 94 109 144 152 62 144 152 160 165 164 2 150 110 136 62 134 52 2 17 152 90 166 69 1 17 116
split_gain=14763.4 6633.23 5596.28 2883.46 2175.1 2094.75 1675.19 1438.03 1409.58 1318.66 1073.84 1002.71 909.895 866.307 932.297 697.067 664.893 663.835 630.764 615.598 595.859 584.561 583.642 542.687 534.794 533.48 528.604 501.607 490.801 470.183 468.272 465.7 465.023 461.169 453.999 444.643 446.27 442.824 425.247 453.102 412.439 572.301 411.932 405.453 403.241 395.784 383.404 382.32 385.674 381.615 548.442 381.613 511.077 361.738 361.492 360.461 539.522 424.931 433.838 349.161 347.418 341.958 592.911
threshold=-0.98179051280021656 0.92699790000915538 0.99962612986564647 -1.4080308675765989 1.9711959362030032 -0.376380905508995 0.22685948759317401 2.8931746482849126 2.3390074968338017 -0.13605724275112149 -0.0087341987527906877 -0.30162304639816279 -0.50409179925918568 -0.29966567456722254 -0.46295428276062006 0.22420938313007358 -0.40281908214092249 -0.43918401002883906 -0.40050894021987909 0.0036430477630347018 -0.5987873077392577 0.17555289715528491 -0.81031173467636097 0.52103832364082348 -0.019597538746893402 -1.6798202991485593 0.81098288297653209 0.027781638316810135 0.78527840971946727 -0.79923278093338002 0.31636834144592291 1.0000000180025095e-35 0.6246914565563203 -1.2698013782501218 0.12817373499274257 1.0681002736091616 0.048086553812026984 -0.4641240388154983 0.84496256709098827 1.3462817668914797 1.1831825971603396 -0.59584203362464894 1.1385473012924197 -0.21208276599645612 -0.59319421648979176 -0.0036370438756421204 -0.30012777447700495 -0.18427494168281552 0.59143537282943737 0.22631482034921649 0.22818297892808917 1.4396197795867922 -0.15223201364278791 -1.0267220139503477 -0.15804572403430936 -1.2022209763526914 -1.2793310284614561 -0.84342733025550831 -0.10674849897623061 -0.90951764583587635 0.66719064116477977 0.24800913035869601 -0.0097894356586039049
decision_type=2 2 2 2 2 2 2 2 2 2 2 2 2 2 2 2 2 2 2 2 2 2 2 2 2 2 2 2 2 2 2 2 2 2 2 2 2 2 2 2 2 2 2 2 2 2 2 2 2 2 2 2 2 2 2 2 2 2 2 2 2 2 2
left_child=3 2 5 11 7 13 15 40 17 16 51 25 47 22 -15 55 24 -4 34 38 59 30 -2 42 -7 -1 -20 -22 54 -23 61 35 -30 -17 -16 36 -10 -27 39 -12 46 -42 -18 -21 -26 -19 -3 48 -11 50 -31 52 -8 -35 -24 -5 -57 58 -58 -14 -37 -6 -63
right_child=1 4 8 6 21 9 10 -9 31 12 19 -13 20 14 18 33 23 45 26 43 27 29 28 -25 44 37 -28 -29 32 49 -32 -33 -34 53 -36 60 -38 -39 -40 -41 41 -43 -44 -45 -46 -47 -48 -49 -50 -51 -52 -53 -54 -55 -56 56 57 -59 -60 -61 -62 62 -64
leaf_value=22.977878675507075 23.104436444523934 23.139816007603294 23.194575668002351 23.060201812372533 23.198846098562836 23.186098943180852 23.067059417138708 23.285939642987213 23.162605283374099 23.15055009195499 23.13521105248952 23.085872518078489 23.186644419450921 23.111739025742985 23.120048867873344 23.16790606477176 23.137908107893892 23.178997786478543 23.147947835712344 23.142171354687196 23.1620715077614 23.186871708054124 23.155836663682543 23.221693355512837 23.096562466548193 23.001347898586783 23.18984321310252 23.185108722528739 23.184157712257068 23.242753844005961 23.164071036532167 23.173790162774413 23.100776880869439 23.152760725126878 23.150007619950543 23.273139807878483 23.248747534707274 23.062503387295028 23.096087569432186 23.218723497493169 23.163914495888566 23.266807435444701 23.208707061782881 23.21973446938328 23.128400732504883 23.144460483709718 23.173334974505895 23.139130969292449 23.207932989861021 23.236285628718608 23.343439717414658 23.15853567484497 23.132700784753521 23.100121704761278 23.115729952888397 23.167392588391081 23.006041853264549 23.097409544016166 23.098904221068345 23.129926608665802 23.211670136043885 23.19920893538389 23.311406424031684
leaf_weight=119 1488 363 819 428 212 105 244 103 126 344 182 742 119 1028 1308 132 746 532 2431 85 2168 85 243 92 583 141 305 1401 242 95 167 146 80 138 698 257 95 442 131 86 101 94 82 211 929 681 1989 2316 152 209 101 109 190 786 1202 81 105 685 80 543 123 84 86
leaf_count=119 1488 363 819 428 212 105 244 103 126 344 182 742 119 1028 1308 132 746 532 2431 85 2168 85 243 92 583 141 305 1401 242 95 167 146 80 138 698 257 95 442 131 86 101 94 82 211 929 681 1989 2316 152 209 101 109 190 786 1202 81 105 685 80 543 123 84 86
internal_value=23.1436 23.1534 23.147 23.0975 23.1905 23.141 23.1116 23.1761 23.1867 23.1508 23.14 23.0615 23.1575 23.1307 23.1376 23.0971 23.1323 23.1737 23.1433 23.1647 23.1663 23.2273 23.1183 23.1526 23.1207 23.0358 23.1526 23.1711 23.1299 23.2511 23.206 23.2219 23.1634 23.1155 23.1305 23.2336 23.1997 23.0477 23.1404 23.162 23.1716 23.2136 23.1449 23.1975 23.1161 23.1596 23.1682 23.1442 23.1682 23.2646 23.2947 23.1084 23.0958 23.108 23.1225 23.0831 23.0934 23.0865 23.0461 23.1401 23.2533 23.2243 23.2561
internal_weight=0 25073 21384 5117 3689 18605 3673 2650 2779 9580 1238 1444 7043 9025 5770 2435 2537 2032 4742 695 4231 1039 3255 920 1617 702 2736 3569 1767 490 549 747 322 1056 2006 601 221 583 399 268 2547 195 828 296 1512 1213 2352 2812 496 405 196 543 434 924 1445 1379 951 870 185 662 380 382 170
internal_count=30190 25073 21384 5117 3689 18605 3673 2650 2779 9580 1238 1444 7043 9025 5770 2435 2537 2032 4742 695 4231 1039 3255 920 1617 702 2736 3569 1767 490 549 747 322 1056 2006 601 221 583 399 268 2547 195 828 296 1512 1213 2352 2812 496 405 196 543 434 924 1445 1379 951 870 185 662 380 382 170
is_linear=0
shrinkage=1


Tree=1
num_leaves=64
num_cat=0
split_feature=19 161 19 112 161 111 111 164 163 111 111 123 19 176 84 111 128 149 112 139 45 19 83 85 20 77 111 19 149 198 112 165 112 111 83 47 161 99 130 19 137 136 112 186 115 77 150 159 165 134 138 150 176 73 111 26 159 48 176 63 96 139 159
split_gain=13668.8 6026.96 4919.03 3109.37 2171.45 2067.35 1763.03 1243.34 1128.84 961.032 838.161 793.814 705.091 693.783 628.372 612.167 566.146 643.684 552.761 541.56 538.026 520.268 518.803 562.618 503.887 498.39 509.985 491.823 491.75 655.536 537.364 481.437 461.657 460.321 449.394 448.599 432.786 428.162 414.024 411.362 475.94 451.671 403.174 391.481 531.773 404.502 385.877 392.495 384.635 384.478 381.073 379.38 416.689 377.043 443.517 369.44 355.07 350.895 396.448 351.586 346.857 335.244 335.207
threshold=0.35209818184375768 -0.16644327342510221 1.560547471046448 2.4962311983108525 0.11507279425859453 1.5496871471405032 1.0910988450050356 0.61431607604026806 0.7940955162048341 -0.023568368516862389 2.2948178052902226 -0.42375579476356501 2.0555742979049687 -0.29878877103328699 -1.3878359794616697 0.96081331372261058 1.0542043447494509 0.84054484963417064 -1.0284486413002012 -0.37446203827857966 0.30751937627792364 -0.024292615242302414 -0.2112292796373367 -0.092092722654342637 -1.2088019251823423 -0.76250076293945301 -0.050230002030730241 -0.8543591797351836 -0.17757933586835858 1.0000000180025095e-35 -0.43803262710571284 -0.11317510530352591 -0.63754424452781666 0.6190876066684724 -0.93655520677566517 -0.22815521806478498 -0.39216533303260798 0.55532994866371166 0.40213721990585333 -0.17607145756483075 0.50687846541404735 -1.1774264574050901 0.33385321497917181 -0.46014329791069025 0.80799901485443126 0.094258610159158721 0.11294114589691163 -0.45237837731838221 0.50647112727165233 -0.32109448313713068 0.57637673616409313 0.30301953852176672 -0.45725703239440912 0.037069052457809455 0.1598542854189873 -0.022418481297791001 0.66992065310478222 -0.02263702359050512 -0.3247352391481399 0.98372536897659313 2.0042860507965092 -0.13387803733348844 0.64611276984214794
decision_type=2 2 2 2 2 2 2 2 2 2 2 2 2 2 2 2 2 2 2 2 2 2 2 2 2 2 2 2 2 2 2 2 2 2 2 2 2 2 2 2 2 2 2 2 2 2 2 2 2 2 2 2 2 2 2 2 2 2 2 2 2 2 2
left_child=1 5 4 6 10 9 13 49 15 11 18 39 36 21 -13 31 53 35 -2 -7 24 28 25 -24 32 -15 -27 -11 29 -3 -30 55 -20 48 -16 61 -4 -38 -23 41 56 -1 -25 -29 45 -45 -33 -48 -10 -8 -26 52 -39 54 -5 -6 -41 58 -22 -59 -36 -18 -17
right_child=2 3 12 16 8 19 7 -9 33 27 -12 14 -14 22 34 62 17 -19 20 -21 57 38 23 42 50 26 -28 43 30 -31 -32 46 -34 -35 60 -37 37 51 -40 40 -42 -43 -44 44 -46 -47 47 -49 -50 -51 -52 -53 -54 -55 -56 -57 -58 59 -60 -61 -62 -63 -64
leaf_value=0.030044735208747436 -0.063016989529132844 0.001159314906299864 -0.095195089307491376 -0.01901098579202536 0.0092560974079569022 0.0091339986470707676 -0.0098080933848877505 0.1165626775164858 0.0029211533659919456 0.020258922362223958 0.032921187778001758 0.070770989234067896 -0.13563708583897749 0.10198140257048653 -0.045590456426084766 0.0071090610651239677 0.015697070654532179 0.18643836390267915 -0.014705964118081722 0.070578997335575933 -0.011291387491402781 -0.018574629247326436 -0.030381813317190132 0.011591295509386673 -0.042276943171116431 0.024106170238541856 0.076818884028969692 -0.018270948825595403 0.071824688499452657 0.040213310845637264 0.023036142204241276 -0.029491470780472876 -0.087576642183069639 0.088623857416509189 -0.0061643334635458529 0.12975879393856427 -0.078458497483837111 -0.044749113693030647 0.020753723283621957 -0.04808665016386509 0.015846034378871804 -0.023981933948680721 0.055792905187811409 -0.02151207471485455 0.04389574360214521 0.019208806523523206 -0.04229740348353566 0.01739421859155393 0.06622591367910266 0.048028735658689044 -0.0083120808689129376 -0.073098284133227762 0.04665325792206361 0.10439594000477583 0.078470321517396358 -0.047706978048442303 -0.11613247238435349 -0.038984295518480289 0.056486130598725759 0.0034139574851308548 0.038188493394674783 0.09529099964048203 0.071839364621713128
leaf_weight=153 635 2027 517 87 126 188 114 246 270 1461 159 96 194 151 253 234 81 82 102 413 359 670 163 422 1333 484 251 838 218 478 2990 378 338 128 4079 165 434 102 376 439 90 1538 332 482 289 403 118 617 127 1105 383 121 80 89 81 546 82 718 99 233 165 116 104
leaf_count=153 635 2027 517 87 126 188 114 246 270 1461 159 96 194 151 253 234 81 82 102 413 359 670 163 422 1333 484 251 838 218 478 2990 378 338 128 4079 165 434 102 376 439 90 1538 332 482 289 403 118 617 127 1105 383 121 80 89 81 546 82 718 99 233 165 116 104
internal_value=0 0.0129149 -0.0320511 0.0289029 -0.0216477 -0.00272157 0.0246315 0.055043 -0.000219373 -0.00585772 -0.034664 -0.0123401 -0.0823869 0.019427 -0.00513267 -0.00996136 0.0899841 0.110505 -0.0372241 0.051368 -0.0326273 0.0150152 0.0359623 0.0201355 -0.0420499 0.0523354 0.0421195 0.00701097 0.0185767 0.00861404 0.0263546 -0.0169725 -0.0706979 0.039164 -0.00675523 0.0932491 -0.0741363 -0.0593488 -0.00443398 -0.0267184 -0.047818 -0.0190904 0.0310629 -0.00260798 0.00857027 -0.00296566 -0.00486217 0.00780254 0.0231914 0.0426171 -0.0346989 -0.0319504 -0.00455222 0.0544915 0.0279898 -0.0370221 -0.0588223 -0.0182051 0.0033618 -0.0285941 -0.0044384 0.0626044 0.0270503
internal_weight=0 21697 8455 10728 7007 10969 10027 1465 2648 10368 4359 6895 1448 8562 4593 2123 701 444 4200 601 3565 6759 1803 917 2156 886 735 3473 5713 2505 3208 1785 440 525 4497 362 1254 737 1046 2302 611 1691 754 2012 1174 885 1113 735 397 1219 1716 303 182 257 168 672 521 1409 458 951 4244 197 338
internal_count=30152 21697 8455 10728 7007 10969 10027 1465 2648 10368 4359 6895 1448 8562 4593 2123 701 444 4200 601 3565 6759 1803 917 2156 886 735 3473 5713 2505 3208 1785 440 525 4497 362 1254 737 1046 2302 611 1691 754 2012 1174 885 1113 735 397 1219 1716 303 182 257 168 672 521 1409 458 951 4244 197 338
is_linear=0
shrinkage=0.03


Tree=2
num_leaves=64
num_cat=0
split_feature=17 161 17 89 160 112 112 111 45 144 163 133 152 133 75 1 17 89 176 159 57 18 162 127 114 79 39 78 29 176 133 140 114 164 38 131 3 101 178 27 10 115 146 73 130 144 101 61 43 155 4 53 132 155 176 112 102 111 34 120 67 8 170
split_gain=14083.6 6337.43 4556.55 3785.99 2394.98 2129.69 1765.58 1078.8 1071.94 1066.04 1000.3 853.338 683.801 682.016 674.483 641.181 604.001 583.146 563.261 563.707 557.848 555.111 551.288 546.452 580.194 541.627 524.09 520.182 515.101 511.552 502.506 499.067 490.539 487.296 509.904 465.177 460.651 453.553 443.832 425.075 421.223 420.609 405.998 438.94 401.257 400.829 398.172 391.488 390.917 510.036 389.982 389.233 381.039 413.904 378.079 378.355 376.521 375.119 371.017 370.47 370.246 365.471 361.097
threshold=-0.61178225278854359 0.74839827418327343 -1.4080308675765989 1.6837915778160097 0.16196694970130923 -0.376380905508995 2.8931746482849126 -0.40837121009826655 0.49308979511260992 0.94666242599487316 0.17613883316516879 -0.46759352087974543 0.48731444776058203 -0.28400076925754542 -0.69459491968154896 0.66719064116477977 0.50442813336849224 2.2678686380386357 -0.51149183511733998 -0.63669446110725392 1.6508003473281863 2.1783769130706792 0.53971022367477428 0.95153599977493297 0.14878769963979724 0.55251970887184154 -0.95370224118232716 -1.0696936249732969 0.68602499365806591 -0.59336370229721058 0.085491530597209944 0.86510422825813305 -0.7417396306991576 0.55724230408668529 -0.17161873728036878 1.7411493062973025 -0.95170646905899037 -1.4600850939750669 0.028071680106222633 -0.40101371705532068 -0.5681135058403014 0.072648476809263243 0.81034851074218761 1.0000000180025095e-35 0.19038071483373645 -0.20841913670301435 -0.96706447005271901 -0.52647435665130604 -1.3849143385887144 -0.75196969509124745 1.0000000180025095e-35 0.028485353104770187 1.5886738300323489 0.33035539090633398 -0.49259452521800989 0.039461201056838043 0.15551487356424334 0.068543959408998503 -0.42855866253376002 -0.20462324470281598 -2.3640456199645992 -0.34279705584049219 -0.082184255123138414
decision_type=2 2 2 2 2 2 2 2 2 2 2 2 2 2 2 2 2 2 2 2 2 2 2 2 2 2 2 2 2 2 2 2 2 2 2 2 2 2 2 2 2 2 2 2 2 2 2 2 2 2 2 2 2 2 2 2 2 2 2 2 2 2 2
left_child=2 3 11 5 10 13 8 26 20 17 27 21 44 32 -11 30 52 18 -6 -20 60 39 -16 25 -25 -18 29 -4 42 -7 58 48 41 34 50 -21 -31 51 -19 -1 -29 59 47 -44 -12 -35 -42 -15 -14 -50 -5 -34 53 -9 -13 -56 -39 -57 -8 -2 -3 -32 -52
right_child=1 6 4 33 9 7 15 16 -10 14 12 54 31 28 22 -17 23 38 19 35 -22 -23 -24 24 -26 -27 -28 40 -30 36 61 -33 37 45 -36 -37 -38 56 -40 -41 46 -43 43 -45 -46 -47 -48 -49 49 -51 62 -53 -54 -55 55 57 -58 -59 -60 -61 -62 -63 -64
leaf_value=-0.047670614366741408 -0.0035737872620791766 0.095632314168072163 -0.08723661488427184 -0.014807291925567309 -0.04192497301874526 -0.020806587524149704 0.12335650095017379 0.020203359374634272 0.08732386939606962 0.096969548146463344 -0.022982025469238936 -0.083816865020293868 0.045476203476009044 -0.045699887030482139 -0.0087300316239747565 0.027521998890296478 0.031763512925214357 0.082975820593251301 -0.037696046728240826 0.014637708175657899 -0.03270296481470971 -0.14436414930277264 0.065702165050627384 0.087256806901514175 0.025777387151320323 -0.0058683803811220327 -0.0060610688594927168 -0.082908730630924424 0.028291086586534203 0.091217649053751487 0.11198451169966525 0.04580383595608379 -0.025699315067340325 0.047926151146833164 0.11647792360032821 -0.051941654092152095 0.022938517163787361 -0.028934156146870154 -0.0048386271533287784 -0.11603592757606812 -0.073701748009465509 0.024318056695054734 0.0018842103422013901 0.053382705632248818 -0.059715083551760563 0.12765745750767121 -0.03388524489690805 -0.0056830421054261202 0.039363018628266216 -0.03648567843707827 0.093763376279232799 -0.11820808154770832 -0.054453391587912819 -0.011153708894450009 -0.067142185670392207 -0.06276489513727386 -0.007582152883366361 0.021331586600577022 0.041392323069702787 -0.054028386666499763 0.034173298543918762 0.18986469060771793 0.037304562397551144
leaf_weight=153 742 91 282 97 496 192 94 1497 375 134 896 405 92 242 242 93 1755 102 338 859 110 241 142 288 266 428 2764 223 519 109 127 178 83 90 91 106 483 1829 105 177 262 405 567 202 382 155 1656 2418 99 409 132 81 80 507 273 80 1253 118 106 159 2884 96 450
leaf_count=153 742 91 282 97 496 192 94 1497 375 134 896 405 92 242 242 93 1755 102 338 859 110 241 142 288 266 428 2764 223 519 109 127 178 83 90 91 106 483 1829 105 177 262 405 567 202 382 155 1656 2418 99 409 132 81 80 507 273 80 1253 118 106 159 2884 96 450
internal_value=0 0.0128954 -0.0327099 0.00527883 -0.0226948 0.00189263 0.047153 0.0126353 0.0394292 0.000675044 -0.0358645 -0.081173 -0.0204697 -0.0086841 0.0390395 0.0989209 0.0218752 -0.00923158 -0.01472 -0.00435944 0.0336037 -0.109719 0.0187965 0.0311413 0.0577532 0.0243841 7.89429e-05 -0.0489249 0.000439953 0.0217275 0.114601 0.00170107 -0.016598 0.0615477 0.049803 0.00731659 0.0355285 -0.0228446 0.0384369 -0.0843724 -0.0438735 -0.00106943 -0.00377531 0.0154209 -0.0339679 0.0984121 -0.0393293 -0.00932638 -0.0113832 -0.0216934 0.0408469 -0.0714521 0.00970332 0.0122686 -0.0625522 -0.044247 -0.0202549 -0.0126462 0.0799729 -0.0124859 0.0360574 0.145595 0.0501287
internal_weight=0 21860 8450 17884 7003 16869 3976 8369 3460 2524 4479 1447 2056 8500 518 516 4821 2006 1799 1303 3085 571 384 2737 554 2183 3548 2423 3948 784 423 778 4552 1015 770 965 592 3246 207 330 2141 1306 3429 769 1278 245 1918 2660 600 508 679 164 2084 2004 876 471 3082 198 200 901 2975 223 582
internal_count=30310 21860 8450 17884 7003 16869 3976 8369 3460 2524 4479 1447 2056 8500 518 516 4821 2006 1799 1303 3085 571 384 2737 554 2183 3548 2423 3948 784 423 778 4552 1015 770 965 592 3246 207 330 2141 1306 3429 769 1278 245 1918 2660 600 508 679 164 2084 2004 876 471 3082 198 200 901 2975 223 582
is_linear=0
shrinkage=0.03


Tree=3
num_leaves=64
num_cat=0
split_feature=19 111 112 18 176 112 133 90 53 19 163 2 18 146 28 20 97 133 35 19 165 158 123 97 149 35 94 107 107 89 140 31 83 123 0 94 142 176 76 69 133 119 41 84 142 190 18 149 154 34 143 146 133 2 35 96 95 37 49 39 111 149 127
split_gain=12519.1 5172.57 4204.81 2280.18 2135.56 1539.57 1127.83 974.9 919.759 918.358 880.578 843.364 805.731 770.955 620.205 613.917 588.001 580.686 574.35 570.576 542.503 490.162 486.478 517.453 481.401 491.234 477.822 476.754 460.521 453.573 480.834 468.978 452.505 460.946 445.111 536.989 440.723 574.105 429.004 427.747 409.052 481.247 446.905 406.72 404.873 393.954 393.915 406.787 391.583 389.845 464.705 404.608 384.988 384.451 368.448 369.447 415.529 368.225 364.565 426.294 472.04 364.385 358.847
threshold=0.90932974219322216 1.0729570984840395 0.99962612986564647 0.73682865500450145 -0.54756629467010487 3.0584570169448857 2.720422744750977 -0.48102138936519617 -0.081721276044845567 -0.024292615242302414 0.18751578778028491 0.093576967716217055 4.6496026515960702 1.4063606262207033 -0.019538636319339272 -0.31850804388523096 0.59028887748718273 -0.25641416013240809 -0.52066257596015919 -0.17607145756483075 0.53419038653373729 0.51008465886116039 -0.62751632928848255 -0.6071048080921172 -0.048209607601165765 -1.4352208971977232 0.62848782539367687 0.43602551519870764 -0.35115355253219599 1.7931878566741946 0.992956042289734 1.5131738185882571 -0.21993038803339002 0.48715788125991827 -0.21810296177864072 0.342860758304596 -0.7360277771949767 -0.52246674895286549 1.0480315089225771 0.068081986159086241 -0.67223030328750599 1.4023140072822573 -0.9193139076232909 -0.57014343142509449 -0.37941630184650416 1.0000000180025095e-35 -0.6001044213771819 -0.81506478786468495 -0.4945347905158996 -0.39000454545021052 1.111250698566437 0.78527840971946727 -0.37614262104034418 -0.17316086590290067 -0.46320758759975428 0.68835368752479564 0.57715719938278209 0.21613877336494627 -1.2746915221214292 0.028245891444385055 -0.88141232728958119 -0.0046985722146928302 1.431989908218384
decision_type=2 2 2 2 2 2 2 2 2 2 2 2 2 2 2 2 2 2 2 2 2 2 2 2 2 2 2 2 2 2 2 2 2 2 2 2 2 2 2 2 2 2 2 2 2 2 2 2 2 2 2 2 2 2 2 2 2 2 2 2 2 2 2
left_child=1 2 4 10 9 15 8 22 -3 26 11 36 17 29 54 32 -7 -5 -8 40 38 46 -6 28 25 -12 -1 -22 -24 31 62 43 33 -4 -20 -36 -2 -38 -21 -16 42 -42 -9 -10 -26 57 -17 -48 -25 51 -51 -46 -39 -28 -13 56 -56 -19 -11 60 -60 -55 -31
right_child=3 6 5 12 7 16 18 19 13 58 24 14 -14 -15 39 21 -18 45 34 20 27 -23 23 48 44 -27 53 -29 -30 30 -32 -33 -34 -35 35 -37 37 52 -40 -41 41 -43 -44 -45 49 -47 47 -49 -50 50 -52 -53 -54 61 55 -57 -58 -59 59 -61 -62 -63 -64
leaf_value=-0.014158396152732041 -0.10733195467699672 0.077008828503350543 -0.00090512706747513879 -0.081124035610308967 -0.021529749906853923 0.065453366849308095 0.12945426953991537 0.033513360655091896 0.079850642407306868 0.013440072205156741 0.035152199359612557 -0.078443011419468356 -0.14716385415163025 0.081432449776768848 0.071793453732100693 0.099794987852173403 0.1401446648199059 -0.064401229528358792 0.097594122260680677 -0.0013981583146125598 0.015664285235574556 0.0083041464689168499 0.0098004653752817028 0.063038915438828516 -0.041816942524657112 -0.036929119213565877 0.054238675024523446 0.10105803492918849 -0.028866411921297935 0.046030532094997974 0.10562997016533966 -0.02912644058356138 -0.036011467705610242 0.075931663114949685 0.0084933830454411961 0.087531111576988507 -0.084896132408808569 -0.05830457473938469 -0.066392466694304625 -0.020043098735606838 0.024533978422518001 -0.040267597229889721 -0.0065164182570742347 0.013607688140371036 0.074096763594045753 0.01407403981744995 -0.0036469027599750157 0.045966438155430001 0.0050419274939146937 -0.028025232595460144 0.047704407743399721 -0.0020158854768078122 0.0042416963754938189 -0.018578226173106754 0.01168975694873603 -0.073873275647641887 -0.055184735996597914 -0.024231373633345876 -0.066169727832150235 -0.057330482353327293 -0.011455349609695801 0.026853481263701292 -0.010632801561518508
leaf_weight=3594 164 395 254 864 1222 321 154 334 91 123 99 133 107 212 97 106 135 753 209 2354 215 451 416 109 121 601 153 81 830 385 92 217 202 97 187 132 271 176 95 86 3675 106 1009 994 166 84 170 1182 2652 224 108 101 178 362 270 99 121 283 188 695 579 283 136
leaf_count=3594 164 395 254 864 1222 321 154 334 91 123 99 133 107 212 97 106 135 753 209 2354 215 451 416 109 121 601 153 81 830 385 92 217 202 97 187 132 271 176 95 86 3675 106 1009 994 166 84 170 1182 2652 224 108 101 178 362 270 99 121 283 188 695 579 283 136
internal_value=0 0.00861721 0.00342892 -0.0428975 -0.00170153 0.0369667 0.0442286 0.00507914 0.0349682 -0.016561 -0.026199 -0.0414965 -0.0669711 0.0271562 -0.019904 0.0275845 0.0875984 -0.0626375 0.0784589 0.0117511 0.000712858 0.0356471 -0.00496076 9.18886e-05 -0.00901238 -0.0267269 -0.00949539 0.0390685 -0.0159546 0.0211421 0.0424201 0.0111193 -0.000243981 0.020336 0.0635579 0.0412252 -0.0635452 -0.0520354 -0.00392321 0.0286315 0.0176637 0.0227155 0.00343839 0.0191732 0.00820723 -0.0483679 0.0441018 0.039726 0.00733485 0.0183226 -0.00337431 0.0453039 -0.026854 0.011501 -0.034168 -0.0221308 -0.00900657 -0.0534345 -0.0361361 -0.0403096 -0.0248772 0.0013518 0.0312344
internal_weight=0 25197 21993 5106 19075 2918 3204 13098 2522 5977 3015 1595 2091 2127 806 2462 456 1984 682 7869 2745 1909 5229 4007 1420 700 4392 296 1246 1915 613 1302 553 351 528 319 789 625 2449 183 5124 3781 1343 1085 720 1120 1458 1352 2761 599 332 267 354 798 623 490 391 1036 1585 1462 767 645 521
internal_count=30303 25197 21993 5106 19075 2918 3204 13098 2522 5977 3015 1595 2091 2127 806 2462 456 1984 682 7869 2745 1909 5229 4007 1420 700 4392 296 1246 1915 613 1302 553 351 528 319 789 625 2449 183 5124 3781 1343 1085 720 1120 1458 1352 2761 599 332 267 354 798 623 490 391 1036 1585 1462 767 645 521
is_linear=0
shrinkage=0.03


end of trees

feature_importances:
Column_111=13
Column_112=13
Column_17=10
Column_176=10
Column_19=9
Column_133=7
Column_160=6
Column_2=5
Column_18=5
Column_149=5
Column_159=5
Column_165=5
Column_97=4
Column_134=4
Column_144=4
Column_146=4
Column_150=4
Column_152=4
Column_161=4
Column_163=4
Column_29=3
Column_35=3
Column_83=3
Column_89=3
Column_94=3
Column_123=3
Column_136=3
Column_164=3
Column_0=2
Column_1=2
Column_20=2
Column_34=2
Column_39=2
Column_45=2
Column_53=2
Column_62=2
Column_69=2
Column_73=2
Column_77=2
Column_84=2
Column_90=2
Column_96=2
Column_101=2
Column_107=2
Column_114=2
Column_115=2
Column_127=2
Column_130=2
Column_138=2
Column_139=2
Column_140=2
Column_142=2
Column_155=2
Column_3=1
Column_4=1
Column_7=1
Column_8=1
Column_10=1
Column_26=1
Column_27=1
Column_28=1
Column_31=1
Column_37=1
Column_38=1
Column_41=1
Column_43=1
Column_47=1
Column_48=1
Column_49=1
Column_50=1
Column_52=1
Column_57=1
Column_61=1
Column_63=1
Column_67=1
Column_75=1
Column_76=1
Column_78=1
Column_79=1
Column_85=1
Column_95=1
Column_99=1
Column_100=1
Column_102=1
Column_105=1
Column_109=1
Column_110=1
Column_116=1
Column_119=1
Column_120=1
Column_122=1
Column_128=1
Column_131=1
Column_132=1
Column_137=1
Column_143=1
Column_145=1
Column_154=1
Column_158=1
Column_162=1
Column_166=1
Column_170=1
Column_178=1
Column_186=1
Column_190=1
Column_198=1

parameters:
[boosting: gbdt]
[objective: regression]
[metric: l1]
[tree_learner: serial]
[device_type: cpu]
[data_sample_strategy: bagging]
[data: ]
[valid: ]
[num_iterations: 4]
[learning_rate: 0.03]
[num_leaves: 64]
[num_threads: 60]
[seed: 42]
[deterministic: 0]
[force_col_wise: 0]
[force_row_wise: 0]
[histogram_pool_size: -1]
[max_depth: 8]
[min_data_in_leaf: 80]
[min_sum_hessian_in_leaf: 0.001]
[bagging_fraction: 0.85]
[pos_bagging_fraction: 1]
[neg_bagging_fraction: 1]
[bagging_freq: 1]
[bagging_seed: 400]
[feature_fraction: 0.7]
[feature_fraction_bynode: 1]
[feature_fraction_seed: 30056]
[extra_trees: 0]
[extra_seed: 12879]
[early_stopping_round: 0]
[first_metric_only: 0]
[max_delta_step: 0]
[lambda_l1: 0.1]
[lambda_l2: 0.1]
[linear_lambda: 0]
[min_gain_to_split: 0]
[drop_rate: 0.1]
[max_drop: 50]
[skip_drop: 0.5]
[xgboost_dart_mode: 0]
[uniform_drop: 0]
[drop_seed: 17869]
[top_rate: 0.2]
[other_rate: 0.1]
[min_data_per_group: 100]
[max_cat_threshold: 32]
[cat_l2: 10]
[cat_smooth: 10]
[max_cat_to_onehot: 4]
[top_k: 20]
[monotone_constraints: ]
[monotone_constraints_method: basic]
[monotone_penalty: 0]
[feature_contri: ]
[forcedsplits_filename: ]
[refit_decay_rate: 0.9]
[cegb_tradeoff: 1]
[cegb_penalty_split: 0]
[cegb_penalty_feature_lazy: ]
[cegb_penalty_feature_coupled: ]
[path_smooth: 0]
[interaction_constraints: ]
[verbosity: -1]
[saved_feature_importance_type: 0]
[use_quantized_grad: 0]
[num_grad_quant_bins: 4]
[quant_train_renew_leaf: 0]
[stochastic_rounding: 1]
[linear_tree: 0]
[max_bin: 255]
[max_bin_by_feature: ]
[min_data_in_bin: 3]
[bin_construct_sample_cnt: 200000]
[data_random_seed: 175]
[is_enable_sparse: 1]
[enable_bundle: 1]
[use_missing: 1]
[zero_as_missing: 0]
[feature_pre_filter: 1]
[pre_partition: 0]
[two_round: 0]
[header: 0]
[label_column: ]
[weight_column: ]
[group_column: ]
[ignore_column: ]
[categorical_feature: ]
[forcedbins_filename: ]
[precise_float_parser: 0]
[parser_config_file: ]
[objective_seed: 16083]
[num_class: 1]
[is_unbalance: 0]
[scale_pos_weight: 1]
[sigmoid: 1]
[boost_from_average: 1]
[reg_sqrt: 0]
[alpha: 0.9]
[fair_c: 1]
[poisson_max_delta_step: 0.7]
[tweedie_variance_power: 1.5]
[lambdarank_truncation_level: 30]
[lambdarank_norm: 1]
[label_gain: ]
[lambdarank_position_bias_regularization: 0]
[eval_at: ]
[multi_error_top_k: 1]
[auc_mu_weights: ]
[num_machines: 1]
[local_listen_port: 12400]
[time_out: 120]
[machine_list_filename: ]
[machines: ]
[gpu_platform_id: -1]
[gpu_device_id: -1]
[gpu_use_dp: 0]
[num_gpu: 1]

end of parameters

pandas_categorical:null
