tree
version=v4
num_class=1
num_tree_per_iteration=1
label_index=0
max_feature_idx=199
objective=regression
feature_names=Column_0 Column_1 Column_2 Column_3 Column_4 Column_5 Column_6 Column_7 Column_8 Column_9 Column_10 Column_11 Column_12 Column_13 Column_14 Column_15 Column_16 Column_17 Column_18 Column_19 Column_20 Column_21 Column_22 Column_23 Column_24 Column_25 Column_26 Column_27 Column_28 Column_29 Column_30 Column_31 Column_32 Column_33 Column_34 Column_35 Column_36 Column_37 Column_38 Column_39 Column_40 Column_41 Column_42 Column_43 Column_44 Column_45 Column_46 Column_47 Column_48 Column_49 Column_50 Column_51 Column_52 Column_53 Column_54 Column_55 Column_56 Column_57 Column_58 Column_59 Column_60 Column_61 Column_62 Column_63 Column_64 Column_65 Column_66 Column_67 Column_68 Column_69 Column_70 Column_71 Column_72 Column_73 Column_74 Column_75 Column_76 Column_77 Column_78 Column_79 Column_80 Column_81 Column_82 Column_83 Column_84 Column_85 Column_86 Column_87 Column_88 Column_89 Column_90 Column_91 Column_92 Column_93 Column_94 Column_95 Column_96 Column_97 Column_98 Column_99 Column_100 Column_101 Column_102 Column_103 Column_104 Column_105 Column_106 Column_107 Column_108 Column_109 Column_110 Column_111 Column_112 Column_113 Column_114 Column_115 Column_116 Column_117 Column_118 Column_119 Column_120 Column_121 Column_122 Column_123 Column_124 Column_125 Column_126 Column_127 Column_128 Column_129 Column_130 Column_131 Column_132 Column_133 Column_134 Column_135 Column_136 Column_137 Column_138 Column_139 Column_140 Column_141 Column_142 Column_143 Column_144 Column_145 Column_146 Column_147 Column_148 Column_149 Column_150 Column_151 Column_152 Column_153 Column_154 Column_155 Column_156 Column_157 Column_158 Column_159 Column_160 Column_161 Column_162 Column_163 Column_164 Column_165 Column_166 Column_167 Column_168 Column_169 Column_170 Column_171 Column_172 Column_173 Column_174 Column_175 Column_176 Column_177 Column_178 Column_179 Column_180 Column_181 Column_182 Column_183 Column_184 Column_185 Column_186 Column_187 Column_188 Column_189 Column_190 Column_191 Column_192 Column_193 Column_194 Column_195 Column_196 Column_197 Column_198 Column_199
feature_infos=[-13.260848045349121:13.097723007202148] [-3.5154502391815186:3.7581846714019775] [-7.2438449859619141:7.3421645164489746] [-3.891068696975708:5.0094537734985352] [-4.3779692649841309:4.3610482215881348] none [-0.47728344798088074:2.0951910018920898] [-1.3582466840744019:1.8197999000549316] [-0.62669253349304199:15.066319465637207] [-0.64099407196044922:22.481843948364258] [-0.61041128635406494:23.1055908203125] [-0.61458367109298706:17.549674987792969] [-1.2932378053665161:5.8257169723510742] [-1.2967890501022339:5.3841142654418945] [-2.1766149997711182:1.9451593160629272] [-2.1581239700317383:1.9464105367660522] [-2.062267541885376:2.0523607730865479] [-1.7395046949386597:2.3502171039581299] [-0.65642809867858887:18.308511734008789] [-1.8021960258483887:2.1645996570587158] [-1.9042648077011108:2.0854699611663818] [-3.6915619373321533:4.1064963340759277] [-0.1170189380645752:17.328533172607422] [-6.3530550003051758:5.3834514617919922] [-0.025479458272457123:64.954238891601562] [-7.0864071846008301:6.4334874153137207] [-0.022426927462220192:72.292457580566406] [-5.3958477973937988:5.0490713119506836] [-0.019547097384929657:58.630439758300781] [-4.8618631362915039:4.2456045150756836] [-3.8250250816345215:6.5764317512512207] [-5.8901066780090332:6.4788227081298828] [-6.003565788269043:15.387424468994141] [-6.5299334526062012:5.7227983474731445] [-5.5390777587890625:24.625457763671875] [-7.3574175834655762:6.3815317153930664] [-3.2231006622314453:15.696072578430176] [-14.502771377563477:16.214632034301758] [-0.17168477177619934:43.265869140625] [-7.9769759178161621:6.2736520767211914] [-3.572887659072876:7.3359451293945312] [-7.8385486602783203:6.0625014305114746] [-0.012727080844342709:91.666481018066406] [-4.3051471710205078:4.307124137878418] [-0.11025651544332504:18.080568313598633] [-6.671393871307373:4.7864141464233398] [-0.025961155071854591:64.723159790039062] [-7.759699821472168:7.2234611511230469] [-0.022645600140094757:70.454612731933594] [-6.5656867027282715:6.815986156463623] [-0.019605504348874092:59.153995513916016] [-5.0926394462585449:4.5038132667541504] [-4.0635585784912109:7.3403730392456055] [-6.3509879112243652:7.1005663871765137] [-6.4681363105773926:16.876583099365234] [-7.1738815307617188:7.5350399017333984] [-6.4252653121948242:30.425745010375977] [-9.0405607223510742:7.4069619178771973] [-3.8381314277648926:23.468923568725586] [-14.502771377563477:16.214632034301758] [-0.17168477177619934:43.265869140625] [-10.319964408874512:7.4811105728149414] [-4.3276519775390625:8.4329862594604492] [-10.057538986206055:7.2743582725524902] [-0.011708674021065235:98.079582214355469] [-4.3083548545837402:4.6042466163635254] [-0.11207357048988342:17.811990737915039] [-7.0824308395385742:4.6508903503417969] [-0.02594686858355999:79.899917602539062] [-8.9258956909179688:7.977755069732666] [-0.022850586101412773:62.641532897949219] [-7.7884373664855957:7.7694387435913086] [-0.019619422033429146:57.209041595458984] [-5.1717829704284668:4.8501291275024414] [-4.2198643684387207:8.0847291946411133] [-6.69097900390625:6.8777265548706055] [-6.804499626159668:16.334197998046875] [-7.9672317504882812:8.1608686447143555] [-7.3482251167297363:33.511802673339844] [-10.739275932312012:8.775334358215332] [-4.4752392768859863:27.597465515136719] [-14.502771377563477:16.214632034301758] [-0.17168477177619934:43.265869140625] [-12.79712963104248:9.7602968215942383] [-5.3338432312011719:10.264163017272949] [-12.679039001464844:9.5926389694213867] [-0.011726522818207741:92.27032470703125] [-2.5038480758666992:2.4364500045776367] [-2.5129845142364502:2.4387924671173096] [-1.6432708501815796:7.2876157760620117] [-1.65718674659729:7.9811577796936035] [-2.3649702072143555:8.8830556869506836] [-2.3542838096618652:8.8532743453979492] [-6.1514859199523926:4.3491611480712891] [-6.1129989624023438:4.3328375816345215] [-5.8405213356018066:5.3300232887268066] [-5.1234250068664551:5.5567622184753418] [-8.1100234985351562:3.8548610210418701] [-7.6542291641235352:3.8068099021911621] [-7.9545073509216309:6.4600048065185547] [-8.2633085250854492:6.3114347457885742] [-4.0501651763916016:8.6385593414306641] [-5.2902717590332031:8.8501930236816406] [-0.55512547492980957:18.293190002441406] [-0.54830712080001831:17.486412048339844] [-3.7191689014434814:7.6162738800048828] [-3.6673038005828857:10.488706588745117] [-6.9409694671630859:7.130608081817627] [-6.8765172958374023:9.8753843307495117] [-2.8315193653106689:2.752100944519043] [-2.8468086719512939:2.7633564472198486] [-1.7393242120742798:6.1292099952697754] [-1.7552270889282227:8.4544496536254883] [-2.6452653408050537:9.9230127334594727] [-2.6244969367980957:9.8416681289672852] [-7.7316360473632812:5.4782352447509766] [-7.6849880218505859:5.4534258842468262] [-6.3163437843322754:5.7759408950805664] [-5.5650434494018555:6.052314281463623] [-8.8402433395385742:4.2076849937438965] [-8.3542985916137695:4.1568508148193359] [-9.3000698089599609:7.5532689094543457] [-9.6416807174682617:7.3671579360961914] [-5.1056890487670898:10.918597221374512] [-6.7150626182556152:11.233916282653809] [-0.55512547492980957:18.293190002441406] [-0.54830712080001831:17.486412048339844] [-4.8885064125061035:10.02593994140625] [-4.8383512496948242:13.817888259887695] [-9.0497150421142578:9.271550178527832] [-8.9583148956298828:12.813879013061523] [-3.1188979148864746:3.0320940017700195] [-3.1305480003356934:3.0410463809967041] [-1.8083047866821289:6.0087041854858398] [-1.8243496417999268:8.8042821884155273] [-2.9301543235778809:10.940890312194824] [-2.8928163051605225:10.810770988464355] [-9.4394311904907227:6.7087116241455078] [-9.3352451324462891:6.6335711479187012] [-6.7223973274230957:6.176788330078125] [-5.90789794921875:6.458045482635498] [-9.4348793029785156:4.5044956207275391] [-8.8746376037597656:4.4295930862426758] [-10.582123756408691:8.6038494110107422] [-10.956587791442871:8.3836593627929688] [-6.137791633605957:13.18895435333252] [-8.0851078033447266:13.562995910644531] [-0.55512547492980957:18.293190002441406] [-0.54830712080001831:17.486412048339844] [-6.2054414749145508:12.737582206726074] [-6.1051650047302246:17.439302444458008] [-11.826227188110352:12.055601119995117] [-11.594017028808594:16.509536743164062] [-4.5956063270568848:4.5940375328063965] [-5.8001613616943359:5.4011020660400391] [-6.4932546615600586:5.3750810623168945] [-5.8469419479370117:5.4393281936645508] [-5.9428362846374512:6.031672477722168] [-2.9880187511444092:2.957289457321167] [-2.9733400344848633:2.9447715282440186] [-1.6386392116546631:7.6835761070251465] [-1.6609702110290527:8.3910093307495117] [-5.0138697624206543:3.8186209201812744] [-5.0247678756713867:3.8208584785461426] [-5.7284789085388184:2.7942125797271729] [-5.7778520584106445:2.9234249591827393] [-0.94246429204940796:6.6991152763366699] [-0.93587857484817505:6.6244115829467773] [-1.6460413932800293:1.6435133218765259] [-0.62599623203277588:14.175434112548828] [-2.9708833694458008:16.725822448730469] [-3.8248882293701172:12.201390266418457] [-1.8805450201034546:2.1108081340789795] [-1.8656673431396484:0.53600126504898071] none none [-2.0851807594299316:2.3754556179046631] [-4.201756477355957:2.8777346611022949] [-4.0150275230407715:11.264675140380859] [-0.94873934984207153:4.1325826644897461] [-0.9530259370803833:4.1530203819274902] [-5.3808689117431641:4.4834203720092773] [-1.0944896936416626:4.9529905319213867] [-1.100832462310791:5.5175352096557617] [-4.5342059135437012:5.043485164642334] [-1.3117432594299316:4.8450202941894531] [-1.316197395324707:5.5301895141601562] [-4.4795732498168945:4.4854960441589355] [0:1] [0:1] [0:1] [0:1] [0:1] [0:1] none [0:1] [0:1] [0:1] [0:1] [0:1]
tree_sizes=5449 5731 5751 5781 5782 5786 5749 5753 5783 5805 5780 5799 5807 5784 5788 5797 5781 5791 5783 5780 5808 5816 5792 5778 5783 5826 5794 5766 5789 5812 5779 5807 5806 5809 5793 5791 5805 5767 5789 5759 5817 5801 5813 5827 5802 5779 5833 5803 5802 5804 5834 4618 5815 4105 5802 5817

Tree=0
num_leaves=63
num_cat=0
split_feature=196 10 9 9 160 161 161 10 11 162 111 111 161 141 97 14 177 108 56 107 3 141 111 161 112 123 11 160 45 161 141 39 84 112 171 26 8 3 108 160 109 119 9 161 162 123 90 106 162 0 24 153 128 162 112 152 90 116 153 151 111 72
split_gain=18549.6 5184.25 4570.46 1270.91 1235.34 628.685 548.005 635.984 542.417 512.457 400.27 392.955 333.579 323.989 265.635 258.399 254.478 217.584 200.129 235.953 195.706 176.47 174.528 169.416 168.428 216.47 161.813 160.997 159.146 156.784 153.269 145.694 140.128 138.901 137.55 146.499 134.542 133.174 127.799 124.812 123.366 123.069 121.694 120.092 120.499 124.659 119.88 119.02 122.309 118.204 116.575 115.089 114.667 112.339 111.588 111.472 132.775 132.327 109.149 109.105 103.108 102.801
threshold=1.0000000180025095e-35 -0.54986360669136036 -0.511481612920761 -0.3512002825736999 0.056905053555965431 0.97293451428413402 0.60746672749519359 -0.30282193422317499 -0.42198203504085535 0.49496774375438696 0.29638905823230749 2.5803564786911015 0.54756051301956188 0.48542681336402899 0.40138727426528936 1.8272404074668886 2.1895493268966679 -0.37352247536182398 -0.68179175257682789 -0.81592443585395802 -0.60267364978790272 0.61853888630867015 -0.55249246954917897 1.6088786721229555 -0.8958914279937743 -0.45602020621299738 1.6205282211303713 -0.71338823437690724 0.083211295306682601 1.9965398311614992 1.6530614495277407 0.71416002511978161 0.71706965565681469 2.4535237550735478 0.65984112024307262 -0.022426729090511795 -0.5087984800338744 0.57184985280036937 1.2357456684112551 -0.99819284677505482 -0.1131779234856367 -0.17669875174760816 -0.54392734169960011 1.129800081253052 0.6723231077194215 -0.30160300433635706 -1.1569108963012693 0.79594725370407116 0.22742047905921939 -0.077877856791019426 -0.025479125790297982 -0.51775839924812306 0.72920018434524547 0.10072902217507364 -0.019966000691056248 0.69188046455383312 0.63306742906570446 -1.7245839238166807 0.73699450492858898 -0.72957992553710926 0.0079295814502984303 -0.019618599675595757
decision_type=2 2 2 2 2 2 2 2 2 2 2 2 2 2 2 2 2 2 2 2 2 2 2 2 2 2 2 2 2 2 2 2 2 2 2 2 2 2 2 2 2 2 2 2 2 2 2 2 2 2 2 2 2 2 2 2 2 2 2 2 2 2
left_child=2 9 10 13 6 14 7 39 12 26 15 23 21 20 16 27 18 -15 40 -20 -3 37 -11 46 25 36 28 58 -2 41 -12 -16 -33 43 35 -22 -9 38 -6 61 -5 -8 -29 -7 45 -45 50 48 -18 52 -10 -41 54 -27 -19 57 -57 -26 -1 -48 -28 -4
right_child=1 3 4 5 8 33 29 24 11 22 30 -13 -14 17 31 -17 47 49 19 -21 34 -23 -24 -25 55 53 60 42 -30 -31 -32 32 -34 -35 -36 -37 -38 -39 -40 51 -42 -43 -44 44 -46 -47 59 -49 -50 -51 -52 -53 -54 -55 -56 56 -58 -59 -60 -61 -62 -63
leaf_value=4.1247376136698861 4.1353892319439769 4.1820780623266609 4.1696431148332014 4.2515739523778642 4.1586783184263645 4.1782398000395764 4.1292036174922284 4.1994285827926738 4.1886661858388434 4.141325785166674 4.061361678013939 4.0478564111675999 4.1053391448777639 4.2233591553065448 4.2191912840458992 4.0112407148539129 4.2489583390210282 4.1287850985911723 4.3580839385593837 4.2906669608641055 4.2158696910756293 4.1239062890512468 4.0632616328132789 4.0687064513397955 4.2026502474623362 4.1985043220237186 4.1444975896315253 4.0671686529382418 4.204567434423665 4.0847980199347527 4.0278055054858255 4.3154625456702718 4.2316092353289099 4.1582445034937061 4.2957475337378819 4.2839610057647031 4.127929443543163 4.1222413573719958 4.2230510967453476 4.0972583472030948 4.3018618871973242 4.1018134519734604 4.0939944287889363 4.209571950121239 4.1874007838548044 4.2741440868704794 4.1304580272053206 4.2911888810136007 4.1755360820499368 4.1932808214928121 4.1077533960923489 4.1252107476381248 4.093364525171979 4.1546040460277727 4.2043955236215922 4.1725750198526361 4.1263309906064016 4.142072520879279 4.0884073829289314 4.1021293336252072 4.0793950001500052 4.1296864841336047
leaf_weight=375 162 237 266 453 624 114 1140 80 86 88 1379 336 1020 164 341 119 147 120 157 780 507 780 381 316 92 485 148 1048 171 403 454 99 102 95 82 94 368 221 88 415 169 641 712 118 98 208 377 80 93 143 92 3277 97 209 82 715 198 4312 462 3495 103 407
leaf_count=375 162 237 266 453 624 114 1140 80 86 88 1379 336 1020 164 341 119 147 120 157 780 507 780 381 316 92 485 148 1048 171 403 454 99 102 95 82 94 368 221 88 415 169 641 712 118 98 208 377 80 93 143 92 3277 97 209 82 715 198 4312 462 3495 103 407
internal_value=4.13508 4.21687 4.11643 4.23987 4.12652 4.25849 4.13581 4.14042 4.11026 4.11684 4.0711 4.09996 4.12798 4.20259 4.27009 4.0833 4.279 4.17418 4.28735 4.30199 4.2213 4.14145 4.07792 4.10398 4.15038 4.16781 4.14809 4.0866 4.17094 4.11296 4.05304 4.23918 4.273 4.21408 4.23489 4.22655 4.1407 4.15613 4.16665 4.12568 4.26527 4.11934 4.07802 4.22393 4.23619 4.25082 4.10673 4.23827 4.22056 4.15591 4.14683 4.12207 4.138 4.1853 4.15947 4.14664 4.16254 4.14334 4.10468 4.10489 4.11779 4.14547
internal_weight=0 5633 24992 4580 20443 3054 13008 10824 7435 1053 4549 4702 2733 1526 2421 2716 1879 606 1559 937 920 1713 469 4366 6459 1142 584 2597 333 2184 1833 542 201 633 683 601 448 933 712 4365 622 1781 1760 538 424 326 4050 320 240 442 178 3692 299 694 202 5317 913 4404 837 3872 251 673
internal_count=30625 5633 24992 4580 20443 3054 13008 10824 7435 1053 4549 4702 2733 1526 2421 2716 1879 606 1559 937 920 1713 469 4366 6459 1142 584 2597 333 2184 1833 542 201 633 683 601 448 933 712 4365 622 1781 1760 538 424 326 4050 320 240 442 178 3692 299 694 202 5317 913 4404 837 3872 251 673
is_linear=0
shrinkage=1


Tree=1
num_leaves=63
num_cat=0
split_feature=196 16 1 1 161 10 161 14 10 160 162 161 130 34 112 45 76 161 118 133 160 160 52 51 136 95 176 176 161 94 123 10 142 16 133 21 113 53 117 161 2 45 4 45 71 34 145 197 62 161 20 68 108 133 133 158 34 0 2 184 77 142
split_gain=16704.5 4757.88 4388.04 893.242 892.007 807.36 678.455 541.27 470.566 419.23 324.885 285.161 282.317 263.596 260.215 236.49 225.649 224.569 212.817 211.517 206.403 204.197 192.999 191.391 178.357 194.121 175.751 175.545 175.457 170.061 167.226 162.891 161.462 159.114 152.809 148.726 145.368 143.791 140.92 133.913 177.375 137.804 133.431 129.664 126.887 126.733 125.034 122.471 120.833 120.618 119.702 132.73 118.534 123.724 116.233 136.754 115.51 111.177 110.026 108.616 107.787 127.793
threshold=1.0000000180025095e-35 0.74619036912918102 -0.39187592267990107 -1.0745605826377866 0.53959015011787426 -0.5524388551712035 0.58221060037612926 -0.024017655290663239 -0.21694129705429074 -0.24092205613851544 0.61461099982261669 -0.6388065218925475 0.85939419269561779 -0.24906197190284726 2.4535237550735478 0.15133242309093478 0.028921186923980716 1.7415933012962344 -0.65432608127593983 0.36183838546276098 1.3749563097953799 1.3749563097953799 1.4250497817993166 0.052628492936491973 -0.77899351716041554 0.3785382360219956 2.0698295831680302 2.0035079717636113 1.4994722604751589 0.66090965270996105 -0.57029908895492543 -0.59783464670181263 -1.4029404520988462 1.8524195551872256 -0.52025374770164479 -0.15165399014949796 1.5767256617546084 0.17482308298349383 -0.31982059776782984 0.075432669371366515 0.38447810709476476 -0.65192976593971241 -0.66896769404411305 -1.2382646203041074 -0.13087640702724454 -0.41222341358661646 1.0174947977066042 1.0000000180025095e-35 0.91905346512794506 -0.072489928454160676 -0.33763208985328669 -0.025946698151528832 -0.95053240656852711 -1.050269544124603 0.27095341682434088 -0.41312986612319941 0.70595908164978038 -0.085248820483684526 0.23026283830404284 0.25463973800651735 0.13078352063894275 1.8454434871673586
decision_type=2 2 2 2 2 2 2 2 2 2 2 2 2 2 2 2 2 2 2 2 2 2 2 2 2 2 2 2 2 2 2 2 2 2 2 2 2 2 2 2 2 2 2 2 2 2 2 2 2 2 2 2 2 2 2 2 2 2 2 2 2 2
left_child=2 6 3 19 7 10 8 11 38 36 33 29 18 26 16 -13 22 -6 27 31 28 39 23 -8 -15 44 45 -7 50 30 57 -1 -20 -3 -28 -27 52 -34 49 40 47 -41 -32 -25 -26 46 -10 -9 54 59 -11 -52 58 -54 55 -40 -12 -4 -5 -2 61 -19
right_child=1 5 4 9 17 12 14 21 13 20 56 15 -14 24 -16 -17 -18 60 32 -21 -22 -23 -24 43 25 35 34 -29 -30 -31 42 -33 37 -35 -36 -37 -38 -39 48 41 -42 -43 -44 -45 -46 -47 -48 -49 -50 -51 51 -53 53 -55 -56 -57 -58 -59 -60 -61 -62 -63
leaf_value=-0.10659237955485346 0.11493722625602035 0.014562282459207385 -0.043524040836075285 -0.015968768922739018 -0.016352395432740943 0.16112575653157746 0.10999534096521574 -0.013337445573104081 0.13015498502097619 -0.054924015595096812 -0.023978026642827686 0.011024206639089266 -0.01321402773781234 0.11472263462897465 0.0055247394857377875 -0.010603561173834153 0.030426148071302384 -0.021200057945775206 0.11129025208127784 -0.087633940910775851 -0.076335302822092929 -0.059825096076947887 0.1631180703543951 0.11010364166304519 0.12280321184828964 0.26054281898805559 0.12887060774680148 0.06158665707978931 -0.093772777447949596 -0.0013739551613505022 0.00083711347306733477 -0.054244805730825019 0.071603019922333519 -0.052603069904701406 0.045402615117004413 0.17059028020635891 0.044540037923491392 0.010256607384258015 0.068197291263021931 0.0063269070124764119 0.050444216120487322 -0.044076078553190678 0.043058559664673937 0.040329348877137877 0.17912863412440938 0.074151901471354795 0.19045066166293254 0.012219144740625739 0.16291898833384608 0.026073619444805626 -0.036651836908408439 0.0050398268144085214 0.0039939623053614507 -0.032340951080137501 0.04844203654248528 0.13517568014096257 -0.078850501324928782 0.016324981295928822 0.041776191795186754 0.04417900616724374 -0.081873165803098599 -0.061044765184985063
leaf_weight=165 146 576 87 242 3134 87 402 2044 658 776 181 3890 146 173 116 1872 161 525 80 1093 528 213 93 91 188 92 97 91 154 583 215 1523 154 104 127 95 84 252 118 190 139 472 1456 250 219 87 100 608 87 116 1432 220 272 1678 93 219 205 709 125 87 155 327
leaf_count=165 146 576 87 242 3134 87 402 2044 658 776 181 3890 146 173 116 1872 161 525 80 1093 528 213 93 91 188 92 97 91 154 583 215 1523 154 104 127 95 84 252 118 190 139 472 1456 250 219 87 100 608 87 116 1432 220 272 1678 93 219 205 709 125 87 155 327
internal_value=0 0.0772727 -0.0176715 -0.04738 -0.00284809 0.0120739 0.109331 0.00382476 0.122869 -0.0357194 -0.0165147 0.0105419 0.0497014 0.13721 0.0764534 0.00399669 0.0846995 -0.0229561 0.0635426 -0.0704834 -0.0478375 -0.0123197 0.0951408 0.0866047 0.159619 0.172665 0.121113 0.110329 -0.0420052 0.0229047 0.028644 -0.0593707 0.0463774 0.00427636 0.0816109 0.214987 -0.0200194 0.0335502 0.0924475 -0.00938617 -0.00458809 -0.0296036 0.0376295 0.0589909 0.15316 0.131568 0.13814 -0.00747619 0.109043 0.0678243 -0.038716 -0.0310967 -0.0223639 -0.0272702 0.0980959 0.111765 -0.053146 0.00977277 0.00369154 0.0885685 -0.0434996 -0.0365038
internal_weight=0 5691 24911 8292 16619 1876 3815 12478 2702 5511 1066 8812 810 1836 1113 5762 997 4141 664 2781 3110 3666 836 743 767 594 1069 178 2582 3050 2467 1688 486 680 224 187 2401 406 866 3453 2791 662 1671 341 407 845 758 2652 517 349 2428 1652 2317 1950 430 337 386 796 367 233 1007 852
internal_count=30602 5691 24911 8292 16619 1876 3815 12478 2702 5511 1066 8812 810 1836 1113 5762 997 4141 664 2781 3110 3666 836 743 767 594 1069 178 2582 3050 2467 1688 486 680 224 187 2401 406 866 3453 2791 662 1671 341 407 845 758 2652 517 349 2428 1652 2317 1950 430 337 386 796 367 233 1007 852
is_linear=0
shrinkage=0.05


Tree=2
num_leaves=63
num_cat=0
split_feature=196 16 11 16 16 161 161 10 141 89 141 167 155 137 145 141 161 162 154 133 161 16 141 178 141 162 53 146 131 87 177 167 178 140 161 107 100 97 41 79 167 94 161 162 32 89 144 3 97 154 152 39 89 149 197 177 58 74 85 61 139 180
split_gain=15296.4 4379.61 3764.57 835.588 809.049 788.111 563.58 556.841 507.548 414.492 335.248 302.275 270.326 266.841 240.347 233.67 220.094 219.929 209.493 198.682 196.606 195.739 192.661 188.343 183.457 172.953 164.098 162.9 163.009 159.88 158.068 148.066 202.183 147.473 144.396 178.892 139.773 135.865 177.452 154.959 155.669 132.618 131.31 130.373 155.529 130.164 127.497 122.518 122.347 122.158 120.62 116.511 115.007 113.713 118.696 124.604 113.592 110.123 109.506 108.695 105.14 101.549
threshold=1.0000000180025095e-35 0.74619036912918102 -0.11597482860088347 1.1201331615448 1.6101475954055788 0.58221060037612926 0.58221060037612926 -0.30282193422317499 0.27620010077953344 0.82089158892631542 0.33499154448509222 -0.64362397789955128 -0.29620946943759913 0.89076858758926403 1.1455712318420412 1.6120336055755617 -0.42183382809162134 0.74826037883758556 1.0895283818244936 0.031345102004706867 1.9965398311614992 -0.40464673936367029 0.47394123673439031 1.2331870198249819 -0.48558458685874933 0.23831288516521457 -0.9101738929748534 -0.46844618022441858 -1.0122988224029539 -0.17092951759696004 -0.3762811124324798 -0.49031011760234827 0.79946601390838634 -0.26845565438270563 -0.69806817173957814 0.82028719782829296 0.51521718502044689 1.4559262394905093 0.95807084441185009 -1.0677922964096067 -0.49031011760234827 -0.23615425825119016 1.2931963801383974 0.20416211336851123 1.0815873742103579 -0.17634548991918561 0.30774414539337164 0.029033714905381206 1.5146973729133608 -0.35277540981769556 -0.2924788743257522 0.32510611414909368 -0.15327704697847364 -1.3597837090492246 1.0000000180025095e-35 -0.3604097962379455 -0.51342365145683277 1.1308656930923464 0.7967267930507661 -0.20240470021963117 1.4499738812446596 -0.52752207964658726
decision_type=2 2 2 2 2 2 2 2 2 2 2 2 2 2 2 2 2 2 2 2 2 2 2 2 2 2 2 2 2 2 2 2 2 2 2 2 2 2 2 2 2 2 2 2 2 2 2 2 2 2 2 2 2 2 2 2 2 2 2 2 2 2
left_child=2 6 5 9 13 7 8 19 11 16 18 29 27 14 23 43 49 57 34 53 24 26 52 25 -7 56 45 -13 -29 -2 41 -14 -33 -15 35 -9 46 38 39 -10 -41 -21 61 44 -5 47 -28 -8 -12 -4 -26 -27 -23 -1 58 -56 -3 -6 -55 -50 -11 -18
right_child=1 4 3 15 17 20 21 10 37 60 48 12 31 33 -16 -17 42 -19 -20 30 -22 22 -24 -25 50 51 36 28 -30 -31 -32 32 -34 -35 -36 -37 -38 -39 -40 40 -42 -43 -44 -45 -46 -47 -48 -49 59 -51 -52 -53 -54 54 55 -57 -58 -59 -60 -61 -62 -63
leaf_value=0.034457384877591243 0.079254564587416323 0.024636055089388594 0.047082977717749053 -0.035979065053012023 -0.027518925226423616 8.6085845714123179e-06 0.11381193510602661 0.019131034005858315 0.14456439478306587 -0.054764355364925771 -0.0030650391850810541 0.065685947000933859 0.20899431509807498 0.03636349418157777 0.11331007317459159 -0.09957824172334262 -0.046795258041989883 -0.077283249624789982 0.071584591097012873 0.0082296160744058499 -0.04731389054172188 0.044016056718022389 -0.0059566840199238831 -0.016862593931593652 -0.05197581114446706 -0.0060303848238867702 0.10926483076163268 0.08686350214621498 0.15525931401418705 0.13816957445863629 -0.047137669686110072 0.16723865407013538 0.10683463614301313 -0.033926013197485047 0.0085516772874655988 0.06558542999573011 0.076704268815336304 0.033414826269400316 0.14757184122886907 0.027263785549578173 0.088869149622544108 -0.032276233902701179 -0.071226766512765299 -0.068268885507493979 -0.07479138455415231 0.016897044520360928 0.19035871134008214 0.050007348729453928 0.012393439563919096 -0.01485898134940216 -0.020637265023208885 0.06284364692098536 0.11666461505962432 -0.018700211613476941 0.032007152325674144 -0.024777500003921565 0.08443073450744798 0.037439927010457785 0.01829797140028842 -0.055600023389146963 -0.11166614132173419 -0.022152248320749884
leaf_weight=173 349 108 83 917 317 985 159 1817 80 952 1876 128 135 124 121 403 660 211 158 374 692 147 124 132 371 180 126 136 247 173 622 541 188 187 4736 234 146 116 119 151 322 439 231 1639 360 97 80 144 80 1872 1790 93 87 1481 321 138 304 82 231 220 89 1145
leaf_count=173 349 108 83 917 317 985 159 1817 80 952 1876 128 135 124 121 403 660 211 158 374 692 147 124 132 371 180 126 136 247 173 622 541 188 187 4736 234 146 116 119 151 322 439 231 1639 360 97 80 144 80 1872 1790 93 87 1481 321 138 304 82 231 220 89 1145
internal_value=0 0.0740645 -0.0169719 -0.0443918 0.0111859 -0.00329094 0.104864 0.00262668 0.117258 -0.0315439 0.00931362 0.131276 0.143589 0.0342388 0.0475456 -0.0638677 -0.0242117 -0.0360055 0.0146795 -0.0135114 -0.0231816 0.0748705 0.0443927 0.0377869 -0.0178705 0.0483261 0.0893655 0.114676 0.131015 0.0988123 -0.028164 0.160668 0.151685 -0.00588186 0.013353 0.0244364 0.114293 0.0834909 0.0921213 0.0801553 0.0692228 -0.0136377 -0.0357186 -0.0589274 -0.0469296 0.0673938 0.140859 0.083532 -0.00780992 -0.0122244 -0.0260219 0.0174283 0.0710861 -0.00453817 -0.00764935 0.0149221 0.0687783 -0.0141504 -0.0137044 -0.0374537 -0.0596442 -0.0311679
internal_weight=0 5654 25089 8351 1859 16738 3795 12900 2685 5032 9121 1897 1375 1249 938 3319 3991 610 6945 3779 3838 1110 358 817 3146 685 752 511 383 522 1435 864 729 311 6787 2051 352 788 672 553 473 813 2036 2916 1277 400 206 303 2176 1955 2161 273 234 2344 2171 459 412 399 1712 300 1041 1805
internal_count=30743 5654 25089 8351 1859 16738 3795 12900 2685 5032 9121 1897 1375 1249 938 3319 3991 610 6945 3779 3838 1110 358 817 3146 685 752 511 383 522 1435 864 729 311 6787 2051 352 788 672 553 473 813 2036 2916 1277 400 206 303 2176 1955 2161 273 234 2344 2171 459 412 399 1712 300 1041 1805
is_linear=0
shrinkage=0.05


Tree=3
num_leaves=63
num_cat=0
split_feature=196 10 10 9 161 9 161 133 160 10 162 116 99 11 164 161 122 160 89 138 100 187 161 95 28 97 23 112 127 123 101 69 77 131 73 145 162 28 123 28 101 139 9 160 4 134 122 102 91 158 120 160 77 0 9 99 67 101 145 3 89 110
split_gain=13184.9 3876.06 3658.1 1058.44 711.46 626.567 549.149 495.917 363.007 285.867 280.385 268.45 241.622 225.935 222.96 219.139 218.951 208.86 190.107 170.564 163.288 159.983 158.181 152.779 151.28 143.68 152.743 142.948 140.879 136.372 133.254 132.886 131.883 130.491 140.49 130.454 127.467 127.168 122.491 120.422 179.852 118.885 118.502 134.607 152.101 117.886 117.881 117.858 117.386 153.345 121.001 119.499 113.626 111.089 110.641 113.444 110.575 118.724 109.129 108.513 108.428 108.181
threshold=1.0000000180025095e-35 -0.54986360669136036 -0.43547584116458887 -0.34940841794013971 0.53959015011787426 -0.54392734169960011 0.97293451428413402 -0.050891190767288201 1.0429036617279055 -0.11932240054011344 0.52124163508415233 -0.35890974104404444 -0.098303571343421922 -0.37790343165397638 0.037382999435067184 -0.71041691303253163 0.86896157264709484 1.2487165927886965 0.95098230242729198 -0.31422695517539972 -0.47862507402896876 -0.74412789940834034 1.2447026371955874 1.5082986354827883 -0.019546092487871643 1.5146973729133608 1.7022804021835329 0.57112053036689769 -0.56135439872741688 0.85550409555435192 0.6213321089744569 -0.67638331651687611 -1.0548460483551023 0.36943487823009497 -0.43319308757781977 -0.015577874612063168 0.6723231077194215 -0.01954615022987127 -0.15315800160169599 -0.019545952789485451 -0.39061674475669855 1.3472817540168764 -0.61528119444847096 -0.71338823437690724 1.0000000180025095e-35 -0.28549863398075098 -0.51368072628974903 -0.6683162748813628 1.1031711697578432 -0.10499457269906996 -0.58528146147727955 -0.91015559434890736 -1.0156398415565489 0.18747689574956897 -0.3948919922113418 0.25687582790851599 0.29926784336566931 -0.87887877225875843 0.41098806262016302 -0.20478883385658261 -0.46791534125804896 -0.46354295313358301
decision_type=2 2 2 2 2 2 2 2 2 2 2 2 2 2 2 2 2 2 2 2 2 2 2 2 2 2 2 2 2 2 2 2 2 2 2 2 2 2 2 2 2 2 2 2 2 2 2 2 2 2 2 2 2 2 2 2 2 2 2 2 2 2
left_child=2 10 5 11 7 17 16 13 22 18 -2 15 14 30 -13 35 19 42 47 21 -14 24 48 61 -5 26 -11 56 -16 32 41 -23 59 -22 -35 -3 38 -20 -8 40 -17 -4 -1 44 -44 -15 -10 -9 49 51 -51 -7 -32 -40 -29 -56 57 -6 -45 -18 -12 -21
right_child=1 3 4 6 27 8 36 9 46 25 60 12 20 45 28 39 29 -19 37 23 33 31 -24 -25 -26 -27 -28 54 -30 -31 52 -33 -34 34 -36 -37 -38 -39 53 -41 -42 -43 43 58 -46 -47 -48 -49 -50 50 -52 -53 -54 -55 55 -57 -58 -59 -60 -61 -62 -63
leaf_value=-0.090037496593472474 0.0047376640886665697 0.083601039565355362 0.015160635596315456 0.15021296164378536 -0.037013032784518639 -0.00066705721926079711 0.046697235709017022 -0.033179167333785266 -0.040155059007003585 0.0037354859515383886 0.0030462817627889562 0.023119038860593438 0.062348751067775932 0.0065670182818834888 0.050963462883815015 0.03031051759975021 0.14212019833498143 -0.098994922655332995 -0.062612684391628093 0.072789688377532649 -0.038215016922965972 0.18496756371423767 -0.068454583411076561 0.18060997516533928 0.23660008803689819 -0.037871908753849326 0.063638054388455864 -0.05354521427402166 0.13371174204347344 0.13531029628516072 0.0035614830734846479 0.11291529516319848 0.054485114123076141 -0.033665056842257117 0.043013769733152657 0.16507645202528096 0.02068124326261276 -0.023066094813463073 0.059962618684630445 0.021886360560441877 0.10716492846860096 -0.012901888181579509 -0.047512990750321574 -0.071844017570272256 0.016824710216254216 -0.012756082254563067 -0.083443806287872249 -0.0051556368325561472 0.00033109544374806152 -0.0077041790151470254 -0.030687892521383261 -0.052364897684511552 0.043232810469282179 0.12534590520102229 -0.015970759541432407 -0.036920763928408755 -0.038196151970938466 0.0099425380908553934 -0.04659116525999514 0.075583590544119741 -0.058929873253962421 0.11678151832874779
leaf_weight=266 606 99 3625 140 164 129 204 514 248 1807 87 148 158 2153 83 123 113 364 382 169 133 82 231 82 81 194 113 346 137 144 243 302 253 83 212 99 134 436 112 136 201 421 370 1015 122 1246 434 1391 385 916 1531 847 705 157 1786 1014 217 749 744 136 370 846
leaf_count=266 606 99 3625 140 164 129 204 514 248 1807 87 148 158 2153 83 123 113 364 382 169 133 82 231 82 81 194 113 346 137 144 243 302 253 83 212 99 134 436 112 136 201 421 370 1015 122 1246 434 1391 385 916 1531 847 705 157 1786 1014 217 749 744 136 370 846
internal_value=0 0.0684317 -0.016229 0.0884468 -0.00365208 -0.0451904 0.106228 0.00207808 -0.0339733 -0.0106729 -0.0175554 0.0558447 0.0388821 0.00942729 0.0706354 0.0804206 0.117191 -0.063568 -0.0213829 0.126612 0.0189244 0.147985 -0.0282726 0.114808 0.181991 0.00312044 0.00726674 -0.0213821 0.102553 0.092345 0.0161951 0.128359 0.0799859 0.00287137 0.0214187 0.124427 0.0637999 -0.0415456 0.0759978 0.061445 0.0780225 0.0122392 -0.0584389 -0.0546989 -0.031549 -0.000515109 -0.067718 -0.0127208 -0.025832 -0.0287761 -0.022087 -0.0455378 0.0330706 0.0981741 -0.0268614 -0.0235605 -0.00612182 0.00149942 -0.061169 0.105844 -0.0471223 0.10947
internal_weight=0 5630 25108 4567 17506 7602 2955 13230 4721 4837 1063 1612 954 8393 368 658 2348 2881 2723 1702 586 605 4039 1097 221 2114 1920 4276 220 646 4994 384 502 428 295 198 607 818 473 460 324 4046 2517 2251 492 3399 682 1905 3808 3423 2447 976 948 269 3146 2800 1130 913 1759 249 457 1015
internal_count=30738 5630 25108 4567 17506 7602 2955 13230 4721 4837 1063 1612 954 8393 368 658 2348 2881 2723 1702 586 605 4039 1097 221 2114 1920 4276 220 646 4994 384 502 428 295 198 607 818 473 460 324 4046 2517 2251 492 3399 682 1905 3808 3423 2447 976 948 269 3146 2800 1130 913 1759 249 457 1015
is_linear=0
shrinkage=0.05


Tree=4
num_leaves=63
num_cat=0
split_feature=176 10 16 189 1 1 9 90 160 112 133 90 111 63 9 16 160 133 130 136 162 165 73 53 157 176 0 176 162 166 99 33 160 160 128 111 136 0 136 150 10 2 112 61 177 102 178 56 11 53 178 153 77 52 170 67 47 99 171 105 90 19
split_gain=12765.6 3604.57 3211.28 912.9 687.138 641.967 524.482 380.69 326.228 294.856 283.144 262.007 257.097 243.204 230.555 228.408 198.569 197.026 195.953 196.65 191.295 187.071 178.181 191.878 172.485 172.348 161.67 157.234 154.303 202.712 150.28 147.552 143.391 140.746 137.678 130.625 130.489 130.023 129.169 124.86 120.325 122.799 119.533 119.217 116.995 137.341 111.318 110.325 112.987 108.538 105.386 103.927 101.021 100.228 99.9422 142.535 99.5902 99.2781 119.228 98.501 98.3952 111.385
threshold=0.73868209123611461 -0.47296628355979914 0.92985838651657116 1.0000000180025095e-35 -1.6619017124176023 -0.051043022423982613 -0.24832046777009961 0.41582220792770391 1.3749563097953799 0.87741082906723034 0.64422860741615307 -0.84481206536293019 -0.12939123809337613 -1.3213288784027097 -0.24832046777009961 1.5380964279174807 -0.35754947364330286 -0.016528561711311337 0.85939419269561779 1.2268910408020022 0.74826037883758556 0.74393057823181163 1.269487261772156 -1.0370355844497678 -0.62830698490142811 2.2322379350662236 1.3373473882675173 2.053553700447083 0.023554832674562935 -0.11647818982601164 -0.0083235241472721083 0.4442418664693833 -0.88477498292922963 1.7772648930549624 -0.46323768794536585 -0.90148043632507313 1.601346552371979 0.51917028427124035 -0.19854328036308286 -0.51677724719047535 -0.54537194967269886 0.29781535267829901 -0.10466282814741133 -0.73479500412940968 -0.3762811124324798 -0.68022441864013661 -0.17696131020784375 0.18867236375808719 -0.43669506907463068 0.20431781560182574 0.076401282101869597 0.73699450492858898 0.50436323881149303 1.0595150589942934 0.30411207675933843 -1.3781217932701109 -0.43479000031948084 0.7252386510372163 1.2723263502120974 -0.91087687015533436 0.69120344519615184 -0.63197934627532948
decision_type=2 2 2 2 2 2 2 2 2 2 2 2 2 2 2 2 2 2 2 2 2 2 2 2 2 2 2 2 2 2 2 2 2 2 2 2 2 2 2 2 2 2 2 2 2 2 2 2 2 2 2 2 2 2 2 2 2 2 2 2 2 2
left_child=2 4 3 5 20 12 11 13 15 10 37 38 36 -8 24 16 34 27 19 40 53 32 23 35 46 -25 -12 31 29 -16 -19 -13 -9 44 -4 -15 -1 39 -3 -7 -6 50 59 -18 -14 -46 -5 48 -30 -43 -42 -20 -49 -2 55 -34 -32 58 -11 -31 -26 -62
right_child=1 6 8 14 18 9 7 21 -10 57 26 17 33 22 28 -17 43 30 51 -21 -22 -23 -24 25 60 -27 -28 -29 47 42 56 -33 54 -35 -36 -37 -38 -39 -40 -41 41 49 -44 -45 45 -47 -48 52 -50 -51 -52 -53 -54 -55 -56 -57 -58 -59 -60 -61 61 -63
leaf_value=-0.011698467730765084 -0.026139476995983315 0.072299381573002683 -0.0053333731823379613 -0.0017672471782275612 0.010258793710109551 -0.017142259371267246 0.19998222059931001 0.14157669210124771 -0.091501718411712035 -0.021394487462585154 -0.028537905035167128 0.071805704813608817 -0.024187447088550248 0.017983705210119449 0.015457780990349973 -0.068435545709996562 -0.083193219348442982 0.063504079882442166 -0.038535082520207549 0.10113138661563742 -0.07211636062765181 0.0073867299343288026 0.16735547616795574 0.12725608532721941 -0.0035732141793366531 0.085263325010365543 0.037796118144842836 0.036751157350513854 0.0061973318701431497 0.026323827313674199 -0.041860447910358235 0.14406208791156772 0.035971164872277604 -0.067856289215287788 -0.039654998718615365 0.096030842780608694 -0.058952947876443666 0.017676900235803074 0.15352793698274697 0.0040673056064748653 0.052303500384299408 0.12391358407100342 0.020613481466387338 -0.046656160557665853 -0.076083079095793746 -0.03620670518054709 0.057474410558326333 0.048384661778694604 -0.026693121022337493 0.049179000168633795 -0.0069542487837570754 0.031223862431734369 -0.00054018378822813073 0.034402483217546506 0.040689253846421407 0.10157279432309303 0.026587430673477949 -0.045091303122247989 0.028639918870022669 0.085428810680653625 -0.0061159684340462254 -0.070920915569199536
leaf_weight=1799 317 88 491 139 347 892 90 104 493 1522 1109 200 1249 82 1882 1060 261 182 133 121 208 82 153 1093 2570 317 100 163 815 100 81 110 104 372 723 156 159 1276 112 3123 187 80 216 1569 290 851 184 224 384 125 125 89 199 87 140 414 154 406 129 242 147 121
leaf_count=1799 317 88 491 139 347 892 90 104 493 1522 1109 200 1249 82 1882 1060 261 182 133 121 208 82 153 1093 2570 317 100 163 815 100 81 110 104 372 723 156 159 1276 112 3123 187 80 216 1569 290 851 184 224 384 125 125 89 199 87 140 414 154 406 129 242 147 121
internal_value=0 0.0679327 -0.01529 -0.00682006 0.00998563 -0.0146025 0.0954875 0.10718 -0.0530588 -0.00643609 -0.00121391 0.0661362 -0.0294062 0.119652 0.00748468 -0.0484375 -0.04147 0.0544939 0.0318695 0.041434 -0.0331642 0.0792217 0.115624 0.110808 -0.00264037 0.117825 -0.0230444 0.0765878 0.015365 0.0233105 0.0294086 0.0974994 0.0869434 -0.0392325 -0.0257794 0.0691805 -0.0155412 0.00377379 0.117866 -0.000643821 0.0330571 0.0483442 0.0497794 -0.0518742 -0.0347725 -0.046352 0.0319722 0.00340859 -0.00433357 0.0784143 0.0285518 -0.0105447 0.0253615 -0.0130843 0.0782806 0.0884209 0.00296572 -0.0229346 -0.0174805 0.068174 -0.00658247 -0.0354091
internal_weight=0 5644 25097 20500 1819 13277 3825 2735 4597 8557 6500 1090 4720 1891 7223 4104 3044 890 1207 985 612 844 1801 1648 3161 1410 1209 473 4062 2440 417 310 762 2762 1214 238 1958 5291 200 4015 864 517 558 1830 2390 1141 323 1622 1199 205 312 222 423 404 658 518 235 2057 1651 342 2838 268
internal_count=30741 5644 25097 20500 1819 13277 3825 2735 4597 8557 6500 1090 4720 1891 7223 4104 3044 890 1207 985 612 844 1801 1648 3161 1410 1209 473 4062 2440 417 310 762 2762 1214 238 1958 5291 200 4015 864 517 558 1830 2390 1141 323 1622 1199 205 312 222 423 404 658 518 235 2057 1651 342 2838 268
is_linear=0
shrinkage=0.05


Tree=5
num_leaves=63
num_cat=0
split_feature=196 10 10 1 189 1 161 141 119 162 161 119 112 172 25 162 89 97 51 141 135 164 98 91 165 10 142 1 10 89 16 178 113 93 111 30 112 97 70 41 97 34 77 28 158 111 145 23 131 153 89 121 34 80 116 137 161 99 103 3 23 122
split_gain=11739.9 3235.85 2689.56 864.054 689.199 582.619 407.992 366.971 317.927 276.582 266.405 262.133 247.121 225.521 224.281 218.605 207.067 204.529 181.656 176.66 164.769 165.541 162.184 160.779 156.416 154.564 152.23 163.428 149.126 147.313 138.031 132.495 138.281 136.945 128.567 127.957 127.005 126.389 122.837 144.792 157.954 117.346 116.972 116.604 114.8 106.183 105.23 102.658 99.112 98.8989 128.203 98.8561 111.186 98.2115 95.3329 95.2045 101.232 94.7742 94.3716 91.2781 91.0565 91.0015
threshold=1.0000000180025095e-35 -0.54986360669136036 -0.45163084566593165 -0.1047220081090927 1.0000000180025095e-35 -1.0745605826377866 0.53959015011787426 -0.0098224300891160948 1.3277490735054018 0.49496774375438696 1.2447026371955874 1.0948641896247866 0.77544206380844127 -0.20872821658849713 -0.72098901867866505 0.03150513023138047 2.5139089822769169 1.3825674653053286 1.3131294846534731 1.5740916132926943 -0.37913633882999415 0.041928801685571677 -0.07240052148699759 1.133299767971039 -0.12578811496496198 0.019320442341268066 0.92624354362487804 0.45828758180141455 -0.15675289928913114 0.13413288444280627 1.8469876646995547 -1.3749675154685972 -1.2039031386375425 0.22163730859756473 -0.55249246954917897 -0.22936233133077619 2.4535237550735478 -0.26675267517566675 -0.02285027131438255 1.1412807106971743 -0.47802002727985377 -0.2116829305887222 0.51416274905204784 -0.019545999355614182 -1.0500572919845579 0.13186697661876681 -0.21454739570617673 -1.6978243589401243 -0.57107329368591297 1.4388367533683779 -0.76213237643241871 -0.020668078213930127 -0.53215485811233509 1.3953338265419009 -0.23856171220540998 0.056050168350338943 -0.45213438570499415 0.22298073768615725 1.0000000180025095e-35 -0.017537551932036873 1.5385011434555056 0.33624699711799627
decision_type=2 2 2 2 2 2 2 2 2 2 2 2 2 2 2 2 2 2 2 2 2 2 2 2 2 2 2 2 2 2 2 2 2 2 2 2 2 2 2 2 2 2 2 2 2 2 2 2 2 2 2 2 2 2 2 2 2 2 2 2 2 2
left_child=2 9 5 11 7 19 14 12 10 30 23 13 25 -3 41 38 28 20 36 49 44 -22 -13 29 -25 45 27 43 53 -7 -2 33 -33 -15 -11 -26 46 -34 39 51 -41 -5 -24 -17 -16 -4 59 -30 -48 50 55 52 -6 54 -9 -1 -57 -45 -53 -8 -49 -27
right_child=1 3 4 6 15 8 18 16 -10 34 -12 22 -14 31 17 26 -18 -19 -20 -21 21 -23 42 24 35 61 -28 -29 47 -31 -32 32 37 -35 -36 -37 -38 -39 -40 40 -42 -43 -44 57 -46 -47 48 60 -50 -51 -52 58 -54 -55 -56 56 -58 -59 -60 -61 -62 -63
leaf_value=-0.046946557129640798 0.020375205647349477 0.12680992873357261 -0.0011778081267229544 0.11318329660978262 0.0061928863605926233 -0.016803655346110676 0.076400874560372076 -0.010936816452666039 -0.063071620196834335 0.017352643686482747 -0.074218609655029466 0.065175679651650359 -0.021807909221854639 0.059892239991593092 0.029512917035527893 -0.014933629012052306 -0.057754144089870965 0.027150386073318461 0.13900864239934868 -0.089108600084730746 0.10264033249989427 0.14066351836642374 0.025251105663833887 0.05457671264924651 0.012793627117517907 0.026132944957935458 -0.032137375007240954 0.020811481704957249 -0.052955607554371981 -0.039484355967626908 -0.047145129056850206 -0.011234101945770576 0.076672790993012163 0.13799439129858196 -0.051864108531986169 -0.064280207835076278 0.010511307724135707 0.038438541388005509 0.064968168997496342 0.089651791495568414 0.014282568749234789 0.18021438633505055 -0.05396840156509089 -0.006728285166051025 0.09530851058657247 -0.032666107652478613 0.12317824519795784 -0.0079526372636601721 0.072990004902268632 -0.069408684339976157 -0.05287910598089636 -0.011348534423577729 0.028381037479476835 -0.066730922044708124 -0.030795804156680651 0.043461039961692927 -0.032603878496651063 0.050146384489630817 0.021312300436304155 0.025663049248053127 0.041176613117920619 0.0032633208247646395
leaf_weight=154 502 125 2799 109 1023 2343 184 950 585 80 244 88 1332 148 80 1077 352 80 95 384 660 511 87 132 160 850 352 828 121 1032 89 89 366 91 411 81 92 531 131 133 146 168 100 152 397 296 141 1943 332 643 1454 662 1262 139 1666 91 84 141 332 172 99 892
leaf_count=154 502 125 2799 109 1023 2343 184 950 585 80 244 88 1332 148 80 1077 352 80 95 384 660 511 87 132 160 850 352 828 121 1032 89 89 366 91 411 81 92 531 131 133 146 168 100 152 397 296 141 1943 332 643 1454 662 1262 139 1666 91 84 141 332 172 99 892
internal_value=0 0.0650261 -0.0143133 0.0831617 -0.00372542 -0.0396504 0.0989786 -0.0110166 -0.0286447 -0.0128423 -0.023597 0.0537493 -0.00273828 0.0628131 0.112066 0.00964193 -0.020706 0.105348 0.0731377 -0.0575734 0.109139 0.119248 0.00922978 -0.0202982 0.0108408 0.00251237 -0.00161339 0.00327385 -0.0180522 -0.0237414 0.0101925 0.0562689 0.048153 0.0896961 -0.040575 -0.013106 0.0663235 0.0540515 0.0174233 0.0156696 0.0502484 0.153906 -0.0170917 -0.00732263 0.0842926 -0.00419186 0.0725093 -0.00822204 0.0879844 -0.0525763 -0.0464997 0.0127244 0.0184502 -0.0257676 -0.0235866 -0.0182837 0.00692356 0.0206321 -0.000433608 0.0519152 -0.00556641 0.0144262
internal_weight=0 5728 25065 4646 17678 7387 3021 11439 4577 1082 3992 1625 6169 1350 2005 6239 5270 1728 1016 2810 1648 1171 275 3748 373 4837 2550 2198 4918 3375 591 1225 986 239 491 241 921 897 3689 3558 279 277 187 1370 477 3095 829 2163 473 2426 1783 3279 2285 2755 2616 329 175 293 994 356 2042 1742
internal_count=30793 5728 25065 4646 17678 7387 3021 11439 4577 1082 3992 1625 6169 1350 2005 6239 5270 1728 1016 2810 1648 1171 275 3748 373 4837 2550 2198 4918 3375 591 1225 986 239 491 241 921 897 3689 3558 279 277 187 1370 477 3095 829 2163 473 2426 1783 3279 2285 2755 2616 329 175 293 994 356 2042 1742
is_linear=0
shrinkage=0.05


Tree=6
num_leaves=63
num_cat=0
split_feature=176 10 10 1 16 161 161 176 111 119 116 145 141 161 119 141 136 56 40 73 141 67 139 96 142 113 3 153 13 73 120 161 180 113 85 171 178 2 134 51 163 171 28 11 28 98 167 85 10 16 176 139 116 54 34 124 178 99 111 122 113 124
split_gain=9831.8 2796.37 2568.73 760.668 729.562 581.591 401.198 287.15 283.223 258.152 205.953 231.515 205.459 201.436 181.897 177.011 174.796 213.82 186.961 174.172 166.979 165.348 163.505 164.633 158.185 150.059 157.498 201.092 147.378 171.969 145.618 138.345 141.372 136.627 171.714 134.628 131.399 130.686 127.341 125.266 125.25 122.966 122.1 114.379 142.014 114.155 112.763 111.756 109.259 106.902 141.416 134.64 132.223 104.115 101.25 97.6059 95.527 94.9536 94.3437 124.113 115.816 105.506
threshold=0.73868209123611461 -0.54986360669136036 -0.38906194269657129 -0.1047220081090927 1.1201331615448 0.58221060037612926 0.97293451428413402 -0.46617262065410608 2.8448199033737187 0.78722694516181957 -0.3787302672863006 -0.015577874612063168 1.315182149410248 -0.71041691303253163 -0.017252763733267781 1.6530614495277407 -0.85272443294525135 -1.4879361391067503 0.82886967062950145 -0.028149147517979142 1.1836971044540407 1.8411676883697512 -0.60528519749641407 0.22349012643098834 0.10370968282222749 -1.131815433502197 -0.22459612041711804 -0.00092471379321068514 -0.45828442275524134 -0.49747307598590845 1.4248582124710085 2.185369729995728 1.1744932532310488 -0.65911287069320668 -0.0075221343431621781 1.977969825267792 0.71553075313568126 -0.38437610864639277 0.4036139994859696 -0.010637152940034865 0.40977713465690618 0.38123673200607305 -0.019546047784388062 -0.57416820526123036 -0.019546276889741417 0.47241747379302984 -0.18368235975503919 -1.3363892436027525 -0.60621908307075489 1.7922120690345766 2.0855920314788823 0.21689690649509433 -0.25672164559364313 0.03216765075922013 -0.64869618415832508 -1.098579406738281 0.047535113990306861 1.1143872737884524 0.5535491704940797 -1.012243330478668 1.0378072261810305 0.70452880859375011
decision_type=2 2 2 2 2 2 2 2 2 2 2 2 2 2 2 2 2 2 2 2 2 2 2 2 2 2 2 2 2 2 2 2 2 2 2 2 2 2 2 2 2 2 2 2 2 2 2 2 2 2 2 2 2 2 2 2 2 2 2 2 2 2
left_child=2 20 4 9 7 8 12 30 14 10 11 19 16 -13 28 48 33 -18 -19 -3 49 24 -11 38 -9 -12 27 -27 35 -30 58 32 41 -5 -35 57 37 46 -24 -38 -28 43 -16 44 -7 -39 -8 -31 -6 50 51 52 -2 -15 -26 -44 -37 -4 60 -60 61 -1
right_child=1 3 5 6 15 31 36 21 -10 22 25 13 -14 53 42 -17 17 18 -20 -21 -22 -23 23 -25 54 26 40 -29 29 47 -32 -33 -34 34 -36 56 39 45 -40 -41 -42 -43 55 -45 -46 -47 -48 -49 -50 -51 -52 -53 -54 -55 -56 -57 -58 -59 59 -61 -62 -63
leaf_value=-0.014374178416506515 0.018704166517740511 0.092080325856626191 0.016414094628421267 0.03734829948425273 -0.10390446082779647 -0.017361901228841285 0.061680387089526972 -0.022080586026849477 -0.059347277843398528 -0.028196476817896846 -0.01901674611354413 0.18523661715633116 0.037560189662427079 0.13014742979098501 -0.0060354565089010305 -0.084195290438909998 0.045123130772147538 0.10829897242965335 0.15217618243079115 0.0071577307202691821 -0.043598981232444128 -0.080940837061787119 0.09966046283425338 -0.010545904426382468 -0.0086659646125489889 0.08277153985386676 0.09356559608625617 -0.010960559664347801 0.024656805720996204 0.041037048320571951 -0.067901569670899664 -0.039617896030579774 -0.036269648598731545 0.13199683760298511 0.065701701637322349 0.095124726046518768 -0.025340371317585642 0.091825359155867495 0.016971869897399652 0.059718430540644629 0.029032088219299985 0.017609763944054137 -0.036185383067801863 -0.016776653320406655 0.066908022694378858 0.018750383872671764 0.13517708645816306 -0.011439235345758955 -0.045664586341508169 -0.029108279128589834 -0.028692249633056961 -0.00047491473233311527 0.10301015531796452 0.051340512677140786 -0.049828939837836206 0.020438959678844872 0.021304862336042205 -0.020295115002008299 0.019847655604630834 -0.035213660846994288 0.02611488224062268 0.014207890630977335
leaf_weight=1942 99 125 4581 144 83 104 105 2141 163 140 84 80 123 80 3156 367 113 1327 299 117 312 170 112 114 173 88 245 163 556 109 115 579 528 172 228 91 84 82 80 89 109 400 84 1789 96 154 105 1443 2837 226 154 201 88 89 1111 796 85 183 122 630 251 387
leaf_count=1942 99 125 4581 144 83 104 105 2141 163 140 84 80 123 80 3156 367 113 1327 299 117 312 170 112 114 173 88 245 163 556 109 115 579 528 172 228 91 84 82 80 89 109 400 84 1789 96 154 105 1443 2837 226 154 201 88 89 1111 796 85 183 122 630 251 387
internal_value=0 0.0597145 -0.0128743 0.0765447 -0.0319947 0.000521251 0.091372 -0.0229142 0.00605832 0.048953 0.0612021 0.0859583 0.100612 0.119818 0.00702114 -0.0514458 0.104005 0.111755 0.116379 0.0510633 -0.0127598 -0.0328015 0.0165272 0.0370078 -0.0304084 0.0435431 0.052239 0.0219017 0.0118682 0.00079732 -0.0126001 -0.0172903 -0.0128556 0.0792044 0.094247 0.0165913 0.0554398 0.0697893 0.0652597 0.0183985 0.073723 -0.00767735 -0.00144205 -0.0127659 0.0230759 0.0441902 0.0984994 -0.0077481 -0.0473252 -0.000220786 0.0118185 0.0279136 0.0584381 0.08873 -0.0442878 0.0150247 0.0595338 0.0150025 -0.010688 -0.0262727 -0.0061427 -0.00962227
internal_weight=0 5731 25072 4651 10329 14743 3025 7042 11247 1626 1180 491 2406 249 11084 3287 2283 1739 1626 242 1080 3595 446 306 3425 689 605 251 7048 2108 3447 3496 2917 544 400 4940 619 446 192 173 354 2389 4036 1989 200 236 210 1552 2920 768 542 388 187 169 1284 880 176 4764 3332 752 2580 2329
internal_count=30803 5731 25072 4651 10329 14743 3025 7042 11247 1626 1180 491 2406 249 11084 3287 2283 1739 1626 242 1080 3595 446 306 3425 689 605 251 7048 2108 3447 3496 2917 544 400 4940 619 446 192 173 354 2389 4036 1989 200 236 210 1552 2920 768 542 388 187 169 1284 880 176 4764 3332 752 2580 2329
is_linear=0
shrinkage=0.05


Tree=7
num_leaves=63
num_cat=0
split_feature=176 9 9 160 9 161 11 160 90 119 167 155 11 10 69 69 160 128 178 161 73 176 78 112 119 146 163 29 95 11 99 160 90 154 159 89 85 158 117 145 128 114 168 167 3 119 21 61 167 176 75 153 153 166 40 67 155 123 121 149 73 122
split_gain=8814.73 2570.71 2176.52 651.376 457.857 389.807 381.473 310.822 276.081 260.729 254.506 277.886 234.231 200.511 195.469 205.513 195.021 189.432 194.121 188.671 185.281 177.186 176.481 176.071 223.896 172.075 179.258 162.259 161.57 160.301 183.324 153.022 173.232 147.936 146.19 144.911 141.094 127.901 165.644 139.414 120 119.834 118.986 119.09 140.3 118.254 115.689 115.68 115.264 114.696 129.204 119.264 114.512 113.984 113.704 110.149 107.909 106.098 105.951 120.052 107.229 104.823
threshold=0.73868209123611461 -0.48170086741447443 -0.51226109266281117 -0.28215074539184565 -0.59393370151519764 0.53959015011787426 -0.42198203504085535 -0.35754947364330286 1.2107124924659731 0.32412813603878027 -0.64362397789955128 0.4294752329587937 -0.25120770931243891 -0.59783464670181263 1.1448242068290713 -0.062342492863535874 1.7772648930549624 1.1178717613220217 1.2331870198249819 0.53959015011787426 -0.79627972841262806 1.9994310140609743 -0.14437390863895413 2.4535237550735478 1.1118994355201723 0.4991497546434403 -0.16061162203550336 0.051757637411355979 1.3840859532356264 -0.29265245795249933 -0.21115423738956449 -0.60265982151031483 -1.120193302631378 -0.92772886157035817 1.4673393368721011 -0.66694137454032887 0.026589929126203064 0.40814000368118292 -0.3967584073543548 -0.15238691866397855 -0.46323768794536585 0.11287335306406023 0.7563304901123048 -0.32741412520408625 -0.14391766488552091 0.8581005632877351 -1.3096363544464109 1.0917549133300783 -0.25075718015432352 -0.52156448364257801 1.2325778007507326 0.92284199595451366 -0.16486939787864682 -0.029532281681895253 0.59929898381233226 0.50781548023223888 -0.25367954373359675 0.93118622899055492 0.51578506827354442 0.92572712898254406 -0.11581185832619666 0.75315478444099437
decision_type=2 2 2 2 2 2 2 2 2 2 2 2 2 2 2 2 2 2 2 2 2 2 2 2 2 2 2 2 2 2 2 2 2 2 2 2 2 2 2 2 2 2 2 2 2 2 2 2 2 2 2 2 2 2 2 2 2 2 2 2 2 2
left_child=2 4 7 8 35 9 19 13 12 10 29 14 20 -1 15 -12 33 18 21 58 22 25 -4 24 42 26 -6 55 -9 30 36 32 -22 -8 -33 -2 -3 38 -23 -39 -15 -31 43 44 -7 -19 -10 57 -29 51 -51 -35 -18 -20 -24 -11 -16 -14 59 -5 -60 -45
right_child=1 5 3 6 17 23 16 28 46 27 11 -13 47 40 56 -17 52 45 53 -21 31 37 54 -25 -26 -27 -28 48 -30 41 -32 34 -34 49 -36 -37 -38 39 -40 -41 -42 -43 -44 61 -46 -47 -48 -49 -50 50 -52 -53 -54 -55 -56 -57 -58 -59 60 -61 -62 -63
leaf_value=-0.095290203812568072 0.017748065659254905 0.099276509338701538 0.039180921955343596 0.0044894207077706173 0.099070523411008721 0.021087129769666622 -0.049032526251273884 -0.051196624082608805 0.023584922961555389 0.083570908869226135 0.12119668301995734 0.18317174043360598 -0.0066821833155892496 -0.0056417229160099069 0.11000556210793735 0.077266102569760672 -0.0070532407539799216 0.01660231194778301 -0.053415113011219352 -0.017403688227823524 0.055729148935147271 0.053150010818526862 -0.01577823005556275 0.00017217226170644016 0.00046876176882486542 0.13399867222503142 0.015681945468649018 0.050598424571959656 -0.0972759672155879 0.06957795689162434 0.14006938172071556 -0.01036334504102924 0.0092218992012540729 -0.0013468551479218875 0.053543337640185096 -0.041641610705525411 0.018166999458398333 0.099613827415640413 -0.033233082384158355 0.022623948515983552 -0.034258580392230689 -0.0066865678088365403 0.02388831581610203 0.11806640867136048 0.080551552407467975 -0.065316908700558243 -0.03098544588155086 0.023270782178762286 0.12127397424706812 -0.025945404048741884 0.0020642018592233933 -0.041465348267472384 -0.060381001351686059 0.026119517165402145 0.051367887830391958 0.028079802029686823 0.1868247585186 -0.03940161809260817 0.0037637662445449815 0.035613771745371073 -0.040589809315466949 0.065256119591796349
leaf_weight=101 131 122 919 1641 111 156 404 2702 111 127 456 120 2215 621 87 645 127 90 92 1471 213 86 296 129 130 81 154 92 205 115 123 1512 3332 1420 95 473 96 87 156 182 895 93 120 238 274 86 768 285 157 3301 470 213 490 88 80 304 99 279 338 382 228 157
leaf_count=101 131 122 919 1641 111 156 404 2702 111 127 456 120 2215 621 87 645 127 90 92 1471 213 86 296 129 130 81 154 92 205 115 123 1512 3332 1420 95 473 96 87 156 182 895 93 120 238 274 86 768 285 157 3301 470 213 490 88 80 304 99 279 338 382 228 157
internal_value=0 0.0558135 -0.0132726 -0.0063726 0.00681038 0.0789986 -0.0151032 -0.0446746 0.00268584 0.0897694 0.099048 0.110324 0.00523735 -0.0270934 0.103514 0.0954747 -0.0226845 0.0245231 0.0326651 -0.0031041 0.0104682 0.04258 0.0273754 0.0554077 0.0620307 0.0702127 0.0506538 0.0630616 -0.0544511 0.0701256 0.0912344 0.00621702 0.0120192 -0.0198431 -0.00657921 -0.0287517 0.0636062 0.02385 -0.00250503 0.0475704 -0.0225407 0.0354681 0.0704933 0.0772624 0.059 -0.0234124 -0.0240867 -0.00689583 0.0952118 -0.0176592 -0.0224531 -0.00658498 -0.0494153 -0.0145108 -0.00146867 0.0444582 0.150998 -0.0103459 0.00501897 0.0103705 -0.0140982 0.0971105
internal_weight=0 5657 25114 20590 1817 3840 10485 4524 10105 2636 1956 1407 9226 1617 1287 1101 6425 1213 1037 4060 6447 857 1295 1204 1075 346 265 680 2907 549 341 5152 3545 5808 1607 604 218 511 242 269 1516 208 945 825 430 176 879 2779 249 5404 3771 1633 617 180 376 431 186 2494 2589 2023 566 395
internal_count=30771 5657 25114 20590 1817 3840 10485 4524 10105 2636 1956 1407 9226 1617 1287 1101 6425 1213 1037 4060 6447 857 1295 1204 1075 346 265 680 2907 549 341 5152 3545 5808 1607 604 218 511 242 269 1516 208 945 825 430 176 879 2779 249 5404 3771 1633 617 180 376 431 186 2494 2589 2023 566 395
is_linear=0
shrinkage=0.05


Tree=8
num_leaves=63
num_cat=0
split_feature=196 1 1 119 161 1 119 133 134 162 161 120 165 117 154 141 16 85 4 31 162 138 121 120 159 118 108 161 129 113 101 4 128 116 56 113 161 16 161 31 31 52 116 99 11 117 116 24 187 84 79 95 10 119 113 61 70 129 61 101 117 67
split_gain=8448.59 2268.08 2109.58 557.251 498.43 338.677 327.786 312.279 263.281 206.081 193.273 200.235 207.145 223.042 185.787 161.095 156.562 156.223 167.672 147.221 141.277 141.114 172.623 138.204 137.501 131.502 166.267 145.226 131.693 122.541 119.487 116.088 115.087 114.204 112.638 144.901 112.324 111.504 109.103 108.929 106.116 104.746 102.665 102.413 105.39 143.487 101.797 100.881 127.569 100.153 99.5769 98.6644 97.7458 97.3901 95.4484 93.8696 111.568 89.2115 102.704 101.033 88.5564 88.5546
threshold=1.0000000180025095e-35 -0.65480178594589222 -0.39187592267990107 0.55407139658927929 -0.51096072793006886 -1.6619017124176023 1.1118994355201723 0.020941386930644516 2.525073885917664 0.81396228075027477 -0.57303005456924427 -1.0221675038337705 -0.26321278512477869 0.44973708689212805 0.37823304533958441 1.7361410260200503 1.5380964279174807 0.26693034172058111 1.9222525954246523 -1.7592243552207945 0.74826037883758556 -0.48896174132823939 -0.085539389401674257 -1.0362508296966551 -0.43451996147632593 -0.65432608127593983 -0.83652654290199269 -0.443304494023323 0.2471219599246979 0.99423283338546764 0.71937799453735363 0.24558066576719287 -0.54193827509880055 -0.60738635063171376 -1.0648782253265379 0.52181851863861095 1.6785880327224734 1.4208257198333742 -1.035642623901367 -0.38527977466583246 -0.80146583914756764 1.0595150589942934 0.057307230308651931 1.1999182105064394 -0.22132750600576398 0.04779221490025521 -0.25672164559364313 -0.025479259900748726 0.15237903955858204 0.18922322988510135 1.1347259879112246 -0.82048341631889332 -0.31294314563274378 -1.4707139730453489 0.88368499279022228 -0.02317889034748077 -0.022850417532026764 -0.067473560571670518 -0.72165387868881214 -0.25320935994386667 -0.3967584073543548 0.67547759413719188
decision_type=2 2 2 2 2 2 2 2 2 2 2 2 2 2 2 2 2 2 2 2 2 2 2 2 2 2 2 2 2 2 2 2 2 2 2 2 2 2 2 2 2 2 2 2 2 2 2 2 2 2 2 2 2 2 2 2 2 2 2 2 2 2
left_child=2 5 3 16 14 20 8 31 10 37 21 -12 13 -13 30 25 24 42 47 -14 41 22 23 -3 38 28 -27 33 -7 -26 61 43 -8 -28 -23 -36 52 57 49 40 -32 -2 -16 44 53 -46 -31 48 -19 -1 55 -49 -9 -6 -38 -33 -57 58 -5 -60 -11 -4
right_child=1 6 4 9 7 15 32 36 -10 60 11 12 19 -15 17 -17 -18 18 -20 -21 -22 34 -24 -25 29 26 27 -29 -30 46 39 50 -34 -35 35 -37 54 -39 -40 -41 -42 -43 -44 -45 45 -47 -48 51 -50 -51 -52 -53 -54 -55 -56 56 -58 -59 59 -61 -62 -63
leaf_value=-0.041402435832780082 -0.017210197512831399 0.06520711920225486 0.011608500112838514 -0.049640454198779327 0.018195788643041385 0.034741403173666426 0.079527131049013045 -0.029157660246688356 0.0096046382935075468 -0.025060390771023767 0.011414547989501887 0.088230372961722037 0.027178128555259192 0.16662405938293778 -0.003109706604696289 -0.039401134601988436 -0.050393621740401177 -0.0053829975057733768 -0.042520462639429518 0.077591906726759974 -0.054682965472701239 0.043142909358821882 0.18467503188729117 0.151286009775148 -0.014463441041750194 0.073901407929209656 0.080001909129042467 -0.007658209028638569 0.10628844679905876 -0.014505519477024871 0.029098665812698012 0.0043973114976487279 0.014569930188055972 0.014286645815361501 0.086174534858509205 0.15594628154545961 -0.056042382538583214 -0.059820287115681027 -0.033715207565018099 0.022028179375832062 0.10208237668177136 0.045057313518412634 -0.034971263108537973 -0.033149602822475477 -0.042811116729503024 0.0034419799979055429 0.055433201013958905 -0.00023509208076822309 0.036310355179115648 0.017817687879967698 -0.037419169946415233 0.058595473928193281 -0.011296736537523895 -0.003378939545210265 -0.0038649191389033945 0.017649520519646966 0.071433050525885167 -0.044379250130548303 0.0063218166194833588 -0.038286984036326382 -0.079398494871777012 0.060036830052901474
leaf_weight=107 313 103 2546 250 606 192 92 1048 122 86 110 304 158 130 713 91 441 576 131 1797 207 104 105 86 2114 121 104 434 97 91 93 753 264 182 351 95 335 683 1699 345 108 86 392 303 366 309 121 103 269 214 96 230 2854 3818 119 345 134 1353 330 206 607 98
leaf_count=107 313 103 2546 250 606 192 92 1048 122 86 110 304 158 130 713 91 441 576 131 1797 207 104 105 86 2114 121 104 434 97 91 93 753 264 182 351 95 335 683 1699 345 108 86 392 303 366 309 121 103 269 214 96 230 2854 3818 119 345 134 1353 330 206 607 98
internal_value=0 0.0552016 -0.0125088 -0.0331057 -0.002263 0.009376 0.0771108 -0.00840658 0.081806 -0.0482241 0.084439 0.0774369 0.0804742 0.111757 0.00988945 0.0245433 -0.0220027 -0.00057398 0.01111 0.0735217 -0.0211746 0.105154 0.133179 0.104461 -0.0191196 0.0297003 0.0196883 0.0105615 0.0588012 -0.0108274 0.0178089 -0.00165434 0.0313883 0.0382202 0.0901428 0.101079 -0.0188373 -0.0422175 -0.0286644 0.0391066 0.0683699 -0.00376867 -0.0144193 -0.00491097 -0.00323133 -0.0216327 0.0253961 0.0170814 0.00788661 -0.00191353 0.0115885 0.040389 -0.0160957 -0.000422156 -0.0423808 0.015414 0.0327176 -0.0365919 -0.0231767 -0.0108172 -0.072667 0.0134076
internal_weight=0 5648 24992 8302 16690 1827 3821 11086 3465 3515 3343 2499 2389 434 5604 1221 4787 2414 1309 1955 606 844 294 189 4346 1130 841 720 289 2326 3190 6730 356 286 550 446 4356 2822 2020 546 201 399 1105 5402 5099 675 212 1178 845 321 1328 333 3902 4424 454 1232 479 2139 786 536 693 2644
internal_count=30640 5648 24992 8302 16690 1827 3821 11086 3465 3515 3343 2499 2389 434 5604 1221 4787 2414 1309 1955 606 844 294 189 4346 1130 841 720 289 2326 3190 6730 356 286 550 446 4356 2822 2020 546 201 399 1105 5402 5099 675 212 1178 845 321 1328 333 3902 4424 454 1232 479 2139 786 536 693 2644
is_linear=0
shrinkage=0.05


Tree=9
num_leaves=63
num_cat=0
split_feature=196 10 16 141 9 161 160 111 10 160 161 143 162 32 10 71 95 141 97 76 141 109 10 161 129 165 160 149 186 61 76 68 138 117 91 171 135 31 49 112 76 140 95 0 163 0 165 49 112 123 136 154 91 76 27 151 68 138 8 72 4 159
split_gain=7181.37 2422.61 1880.69 732.787 593.156 384.455 325.671 304.701 268.263 263.328 251.213 239.355 224.512 200.626 199.504 170.257 175.058 169.993 166.248 166.284 180.575 206.062 163.702 158.146 145.177 138.534 138.378 137.963 133.548 132.044 131.315 294.429 176.388 128.424 125.599 121.839 116.434 116.382 129.966 115.918 113.597 111.418 110.988 110.585 109.365 103.576 128.546 183.907 102.205 109.954 109.011 101.482 99.6204 97.5581 95.2705 115.945 94.4719 94.8757 93.7978 127.422 91.9189 94.3726
threshold=1.0000000180025095e-35 -0.54537194967269886 0.92985838651657116 -0.0098224300891160948 -0.34940841794013971 0.53959015011787426 -0.30043910443782801 2.8448199033737187 -0.30282193422317499 -0.35754947364330286 0.58221060037612926 0.13738796114921573 0.61461099982261669 -0.73435539007186879 -0.39031961560249323 0.76380571722984325 -0.46848107874393458 1.6931591629981997 1.3825674653053286 0.02017131727188826 0.28658922016620642 -1.1000602245330808 -0.59783464670181263 0.49674615263938909 -0.10508036240935324 -0.30135768651962275 -0.99819284677505482 0.074606023728847518 0.56655897200107586 -0.13230361789464948 0.44864116609096533 -0.025946729816496369 -0.027723298408091065 0.067208889871835722 0.59433183073997509 0.26092368364334112 -1.5748701095581052 -1.6050733327865598 -0.13695055246353147 1.5531942248344424 -0.0090034767054021341 -0.49437883496284479 0.10728934779763223 -0.17370039969682691 -0.14604054391384122 -0.070506893098354326 -0.1694754213094711 0.1162952482700348 -0.96040460467338551 -0.4807437509298324 -0.30333046615123743 -0.77096638083457936 -1.3071199655532835 0.0089418878778815287 0.54232352972030651 0.91891568899154674 -0.025946854613721367 -0.44404412806034083 0.67887523770332348 -0.019618586637079712 -0.11007702536880969 -0.44171062111854548
decision_type=2 2 2 2 2 2 2 2 2 2 2 2 2 2 2 2 2 2 2 2 2 2 2 2 2 2 2 2 2 2 2 2 2 2 2 2 2 2 2 2 2 2 2 2 2 2 2 2 2 2 2 2 2 2 2 2 2 2 2 2 2 2
left_child=2 12 3 8 9 18 22 14 26 13 36 15 34 -3 39 16 -11 51 19 20 21 -6 -4 54 -18 -7 56 44 41 -24 32 -32 -21 -30 58 -25 -10 -12 42 52 -28 -13 -39 -31 -15 -27 -47 -48 49 -38 -50 -8 -5 -46 55 -16 -1 -58 59 -2 -42 -62
right_child=1 4 6 7 5 25 17 -9 10 11 37 28 -14 27 23 -17 24 -19 -20 30 -22 -23 29 35 -26 45 40 -29 33 43 31 -33 -34 -35 -36 -37 48 38 -40 -41 60 -43 -44 -45 53 46 47 -49 50 -51 -52 -53 -54 -55 -56 -57 57 -59 -60 -61 61 -63
leaf_value=0.058307762464318583 0.058378183566278878 0.019722742647050442 -0.085089154748172025 -0.068458995710445739 0.057132386192157672 0.10320316440973086 -0.086840964060620585 -0.0594515466291256 -0.031305110631904866 -0.0090730069395549683 -0.029301544796377383 0.027478206304931186 -0.046026162948958449 0.10910626600859857 -0.013035115882202991 0.10588655025642726 0.014661042927842753 -0.079608942743319103 0.023907637738838319 0.17699118507018693 0.025840965484210904 0.10423614747684891 -0.037068330197316805 -0.028616092481314262 0.097624625934632947 -0.0049788831610937849 -0.019211654140614907 0.14115872589622555 -0.0027706726205061556 -0.0148479392761453 0.04886971443009909 0.14486545442182872 0.10007754743937468 0.080419605517784376 0.053709439134146608 0.0010777606866822062 0.0063472120702848245 0.03042063031420765 -0.020908053114834339 -0.063460494647117519 0.018054018748931304 -0.02805987750000373 -0.0086945645201015141 0.035049317821688068 0.084158974109187684 -0.0063372030409549838 0.044513815456992345 0.10330219084292501 0.0033994957045796951 0.044900826842028542 0.018267454938001412 -0.043488864077403121 -0.020476800814425156 0.0064998666401010867 0.0094347713731406241 0.015116026817524043 -0.017849899040918025 0.023500900283309714 -0.05073517910209302 -0.0097792231036644243 -0.024644716711416298 0.0067830167890404816
leaf_weight=99 82 139 103 113 323 126 144 394 144 131 490 135 400 116 2115 119 89 452 85 158 117 835 674 1340 130 86 2037 98 87 832 169 152 143 99 97 465 292 402 470 185 445 272 330 128 81 82 513 180 2258 506 2718 2229 2549 81 1099 442 247 316 104 416 494 462
leaf_count=99 82 139 103 113 323 126 144 394 144 131 490 135 400 116 2115 119 89 452 85 158 117 835 674 1340 130 86 2037 98 87 832 169 152 143 99 97 465 292 402 470 185 445 272 330 128 81 82 513 180 2258 506 2718 2229 2549 81 1099 442 247 316 104 416 494 462
internal_value=0 0.0504572 -0.0119867 -0.00549964 0.0665623 0.0797274 -0.04101 -0.0164893 0.00266671 0.0417698 0.00822183 0.0275298 -0.0161566 0.0711139 -0.0144506 0.0542185 0.0366118 -0.051487 0.0924292 0.0954954 0.0851251 0.0911079 -0.0239656 -0.00885448 0.0639537 0.054209 -0.00764287 0.0900886 0.00640781 -0.0201046 0.116728 0.0943722 0.140513 0.0415006 0.000933155 -0.020964 0.0130796 -0.00876574 -0.000388334 -0.0251823 -0.0116744 -0.00962365 0.0127811 -0.00818681 0.0720233 0.0470222 0.052799 0.0598034 0.0141879 0.0308023 0.0115219 -0.0461252 -0.022518 0.0453882 -0.00287411 -0.00816659 0.0132853 0.0053506 -0.00756987 0.00144291 -0.000711354 -0.00945249
internal_weight=0 5645 24974 20412 4546 2969 4562 8702 11710 1577 7610 1062 1099 515 8308 469 350 2825 1982 1897 1275 1158 1737 5461 219 987 4100 376 593 1634 622 321 301 186 699 1805 5918 1692 1202 2847 3438 407 732 960 278 861 775 693 5774 798 4976 2373 2662 162 3656 2557 662 563 602 498 1401 956
internal_count=30619 5645 24974 20412 4546 2969 4562 8702 11710 1577 7610 1062 1099 515 8308 469 350 2825 1982 1897 1275 1158 1737 5461 219 987 4100 376 593 1634 622 321 301 186 699 1805 5918 1692 1202 2847 3438 407 732 960 278 861 775 693 5774 798 4976 2373 2662 162 3656 2557 662 563 602 498 1401 956
is_linear=0
shrinkage=0.05


Tree=10
num_leaves=63
num_cat=0
split_feature=196 1 14 161 161 119 1 141 141 137 143 145 178 146 119 111 161 39 17 146 178 115 105 51 30 134 177 35 143 159 134 115 2 30 116 6 16 25 146 34 2 115 105 28 171 98 48 162 107 105 92 139 95 157 161 74 54 162 91 23 133 10
split_gain=6926.28 1945.07 1726.66 426.334 380.414 355.589 333.34 255.5 229.091 193.077 180.551 176.303 191.793 170.728 161.561 157.338 155.519 154.528 149.122 148.502 206.068 146.993 142.126 131.853 144.086 178.035 128.21 126.244 136.935 130.265 121.889 119.538 126.621 120.634 154.993 119.374 118.967 114.952 113.707 113.196 112.554 112.486 112.356 110.875 106.907 105.229 126.66 105.049 109.963 104.634 117.703 103.948 185.313 116.63 108.742 101.482 99.8346 98.971 98.8506 105.407 94.4568 94.1087
threshold=1.0000000180025095e-35 -0.65480178594589222 0.55813100934028637 0.53959015011787426 0.58221060037612926 0.55407139658927929 -1.6619017124176023 0.27620010077953344 0.034203574061393745 0.89076858758926403 0.95070767402648937 1.1262214183807375 1.3602604866027834 0.42083720862865454 1.1499642133712771 3.0122196674346928 1.9965398311614992 0.99849656224250805 -0.52923506498336781 1.3899263739585879 1.3101664185523989 0.80349251627922069 -0.54350492358207692 1.3131294846534731 0.079436402767896666 2.2442649602890019 -0.37923660874366755 0.77220609784126293 -0.94919928908348072 -0.50551867485046376 -0.8339473009109496 -0.49322773516178126 -0.31771245598793024 0.63479697704315197 0.27652098238468176 1.0000000180025095e-35 1.4208257198333742 0.23522934317588809 0.82661584019660961 -0.42173264920711512 0.14360008388757708 -0.61634323000907887 0.12725842744112018 -0.019546129740774628 2.630462765693665 -1.5279352664947508 -0.022645489312708374 0.45019780099391943 -0.96758478879928578 0.26439417898654943 1.0000000180025095e-35 -0.33120760321617121 -0.046943560242652886 -1.9104421138763426 -0.6388065218925475 0.70669287443161022 0.31760483980178839 -0.89197617769241322 1.1031711697578432 1.0000000180025095e-35 0.55353069305419933 -0.31294314563274378
decision_type=2 2 2 2 2 2 2 2 2 2 2 2 2 2 2 2 2 2 2 2 2 2 2 2 2 2 2 2 2 2 2 2 2 2 2 2 2 2 2 2 2 2 2 2 2 2 2 2 2 2 2 2 2 2 2 2 2 2 2 2 2 2
left_child=2 6 3 8 7 18 37 13 44 11 36 12 47 27 21 26 31 38 -4 20 22 23 -15 24 25 -6 43 28 41 -29 45 33 -33 -5 -35 -30 -7 56 40 -31 -9 -3 -40 57 51 -20 -47 48 -8 50 -11 53 -53 -1 -54 -45 -2 -10 -32 -60 -12 -28
right_child=1 4 5 16 14 10 9 17 15 49 60 -13 -14 19 -16 -17 -18 -19 30 -21 -22 -23 -24 -25 -26 -27 61 29 35 39 58 32 -34 34 -36 -37 -38 -39 42 -41 -42 -43 -44 55 -46 46 -48 -49 -50 -51 -52 52 54 -55 -56 -57 -58 -59 59 -61 -62 -63
leaf_value=0.067633070731506789 -9.9117168280345001e-05 0.00094457890200333136 -0.032526129539301493 -0.0082237628290604461 0.069200183980150876 -0.027332801462855397 0.10081453713101247 0.020740412044475617 -0.060626348265250235 0.055632420870914946 -0.043207015437694549 0.090503729821052203 -0.031058470710722205 0.18100623617837153 -0.01084093625847443 -0.056754197756137936 -0.038077523824700629 0.098963981704169923 -0.024371375307592945 0.062307661876945065 0.049107471327838055 0.09928932276354413 0.11802622528867422 0.10159296616498428 0.0099413958491058226 -0.0057309494745719329 -0.030422128983745019 0.053063886023339328 0.11499445087684908 0.16436365465241573 -0.02392057163841382 -0.0015885536117270596 -0.025774707375363977 0.064127994145166914 -0.010820864328542082 0.069165704758928553 -0.059759777103346158 0.023887877490171336 0.12109093445787683 0.092126936950862534 0.082097057874137444 0.070791093403306166 0.039142698234240797 0.020997429844032023 0.045231111228047183 -0.022498517110347303 0.039574956755836922 0.00084207320556154211 0.036986161682817258 -0.042423072109476274 -0.028325091785903603 -0.014474541663550489 0.016938274534033165 0.011825553660809634 0.00049150727366509435 -0.022961569987636335 -0.048722746750177966 -0.0036273675681060187 0.049020390445070006 -0.026723798084007433 -0.069269060014178735 -0.0071533632286789328
leaf_weight=97 154 112 1865 777 395 1484 80 382 80 87 643 119 127 128 114 154 696 170 189 126 80 141 307 90 294 99 667 80 193 108 1646 790 1721 152 126 548 350 106 85 111 93 119 83 884 176 117 275 163 435 147 80 1316 1668 2651 2530 154 337 1556 101 84 763 1249
leaf_count=97 154 112 1865 777 395 1484 80 382 80 87 643 119 127 128 114 154 696 170 189 126 80 141 307 90 294 99 667 80 193 108 1646 790 1721 152 126 548 350 106 85 111 93 119 83 884 176 117 275 163 435 147 80 1316 1668 2651 2530 154 337 1556 101 84 763 1249
internal_value=0 0.0497742 -0.0113423 -0.00270937 0.0699299 -0.0313751 0.00739351 0.080057 0.00173497 0.0221937 -0.0438712 0.0337049 0.0252922 0.090047 0.0455636 -0.00705528 -0.0164562 0.0565484 -0.0219068 0.111119 0.123037 0.0518792 0.136607 0.0442493 0.0376815 0.0541754 -0.00538553 0.0794081 0.0706381 0.107868 -0.0136928 -0.0122339 -0.0181677 0.00188482 0.0301487 0.0811229 -0.0335268 -0.0232879 0.0453129 0.127832 0.0327787 0.0369628 0.0806817 0.00168645 0.00667762 0.00625343 0.0210342 0.0358579 0.0469286 -0.0116641 0.0153904 0.0058552 0.00189484 0.0137997 0.00702777 0.0144692 -0.0334855 -0.0064212 -0.0200247 0.0146056 -0.0573577 -0.0152575
internal_weight=0 5693 24961 17444 3858 7517 1835 2725 13182 1238 3240 924 805 1912 1133 4744 4262 813 4277 641 515 1019 435 878 788 494 4590 1271 972 299 2412 3566 2511 1055 278 741 1834 597 643 219 475 231 168 2674 8438 581 392 678 515 314 167 8262 5514 2748 4198 1038 491 1636 1831 185 1406 1916
internal_count=30654 5693 24961 17444 3858 7517 1835 2725 13182 1238 3240 924 805 1912 1133 4744 4262 813 4277 641 515 1019 435 878 788 494 4590 1271 972 299 2412 3566 2511 1055 278 741 1834 597 643 219 475 231 168 2674 8438 581 392 678 515 314 167 8262 5514 2748 4198 1038 491 1636 1831 185 1406 1916
is_linear=0
shrinkage=0.05


Tree=11
num_leaves=63
num_cat=0
split_feature=177 1 1 160 10 161 1 160 161 111 162 162 119 32 161 153 135 29 134 89 89 113 119 71 124 149 33 149 132 117 89 135 169 63 120 177 155 35 85 25 157 90 135 1 10 91 89 61 139 170 151 0 156 107 128 90 112 151 31 17 118 160
split_gain=6030.39 1718.05 1649.16 556.024 525.845 310.021 303.162 216.019 205.077 180.212 172.107 170.028 167.491 164.162 161.121 152.72 152.182 169.608 163.964 159.429 150.806 189.723 170.414 159.658 150.296 150.36 141.263 136.805 171.543 146.052 136.27 134.608 129.842 126.717 126.219 125.096 129.982 124.466 124.143 139.973 121.53 115.608 119.816 174.983 115.315 110.29 113.837 103.382 102.591 100.507 98.4754 98.3073 98.0283 95.6241 95.183 94.644 160.316 96.4769 94.1019 90.2874 110.191 88.5297
threshold=0.55471414327621471 -0.83148455619812001 -0.1047220081090927 -0.61005327105522145 -0.5524388551712035 0.97293451428413402 -0.051043022423982613 -0.30043910443782801 0.56933045387268078 3.0122196674346928 0.014999899547547104 0.86052981019020092 1.1669852733612063 -1.7650802135467527 -0.5304766297340392 0.74976280331611644 -0.12123405560851096 0.042637242004275329 0.17515394091606143 -0.25311422348022455 -0.36807827651500696 1.7889473438262942 -0.1186760403215885 -0.54565110802650441 -0.52172440290451039 0.92572712898254406 -0.095404688268899904 -0.2766552865505218 -1.2062107324600218 1.1997165679931643 -0.66694137454032887 0.7240678369998933 -0.32996764592826361 -0.17660631239414212 -1.0700086355209348 -0.26239119470119471 0.2334619536995888 1.0575027465820315 -1.0267747044563291 -1.262881278991699 0.044418247416615493 -0.20651762187480924 -0.15796736627817151 0.13109300285577777 -0.59783464670181263 0.39602477848529821 0.48507565259933477 -0.52680510282516468 0.62501862645149242 0.2241742014884949 -0.83571186661720265 1.3373473882675173 -0.17473165690898892 -1.0942291617393491 -0.13224207609891889 1.2107124924659731 1.1951882243156435 0.75517132878303539 -1.6050733327865598 1.0000000180025095e-35 0.51713761687278759 -0.60265982151031483
decision_type=2 2 2 2 2 2 2 2 2 2 2 2 2 2 2 2 2 2 2 2 2 2 2 2 2 2 2 2 2 2 2 2 2 2 2 2 2 2 2 2 2 2 2 2 2 2 2 2 2 2 2 2 2 2 2 2 2 2 2 2 2 2
left_child=1 7 4 14 10 12 11 15 9 24 54 35 13 -4 27 49 38 19 32 -18 22 26 23 -15 25 -8 -22 28 -3 33 -12 -21 -19 -30 -16 36 50 -26 -6 -40 -41 42 43 -29 -32 -9 -47 -46 -17 -1 -5 58 -49 -38 -2 56 57 -36 -10 60 -7 -42
right_child=2 3 5 6 16 59 8 45 51 -11 30 -13 -14 20 34 48 17 18 -20 31 21 -23 -24 -25 37 -27 -28 41 29 -31 44 -33 -34 -35 55 -37 53 -39 39 40 61 -43 -44 -45 47 46 -48 52 -50 -51 -52 -53 -54 -55 -56 -57 -58 -59 -60 -61 -62 -63
leaf_value=-0.015025001324743745 -0.00085969036025302563 -0.037884986988666519 0.016867049833083656 0.011651611189330049 -0.025780711680478449 0.072786276955711146 -0.017113051864776949 -0.052550011472428985 -0.04377783895322665 -0.063956489104894557 0.02685137274155406 -0.048531139159874788 0.029666688801148079 0.06908227656239381 -0.044107541614593689 -0.021433911419958127 0.072469384111916807 0.071348749816253679 0.03483344811816283 0.042054598356540109 0.049050679039582545 0.13588103345107466 0.15014161936398715 0.11015244591920055 0.0046139755750435737 0.026514541796825081 0.087410637088097196 0.023337754904046652 0.035582824984422161 -0.017149330662150502 -0.059275946913987243 -0.027777879886290286 0.15156488282131461 0.0022742593621123759 0.0061644303847137273 -0.030257038288836132 0.051909411675756446 0.037981932139398406 0.07899702729340756 -0.011175728624791867 0.076435996916645058 -0.0088055354851153071 0.021180869394062076 0.085744743715136754 -0.048341090219723895 -0.006408740143553384 -0.046579789377484311 0.04457805725765282 -0.0542397502079634 0.038260338961355889 -0.02235969940687239 0.029838076456641844 -0.015235728408759464 -0.0026505043360181058 0.075473759737687995 -0.018064765520178192 0.064503771803036319 -0.032596020160324833 -0.014283387360358148 0.012217102630465236 0.019503081450269043 0.022296984605165299
leaf_weight=708 82 187 90 237 121 264 1391 2082 310 105 137 453 157 439 150 476 148 118 134 142 555 107 142 518 4079 230 425 223 658 317 205 134 89 505 2595 1228 86 300 117 214 99 174 643 227 162 302 425 91 479 101 2066 112 276 1193 81 469 113 171 2129 199 154 320
leaf_count=708 82 187 90 237 121 264 1391 2082 310 105 137 453 157 439 150 476 148 118 134 142 555 107 142 518 4079 230 425 223 658 317 205 134 89 505 2595 1228 86 300 117 214 99 174 643 227 162 302 425 91 479 101 2066 112 276 1193 81 469 113 171 2129 199 154 320
internal_value=0 -0.0103849 0.0465403 -0.00416178 0.0178424 0.0716597 -0.00978007 -0.0380778 -0.00402537 0.000948788 -0.0100643 -0.0192436 0.07969 0.0831369 0.00799551 -0.0243563 0.0354828 0.0517587 0.0780178 0.0306146 0.0858622 0.0726236 0.0989438 0.0913269 0.00208651 -0.0109185 0.0656987 0.0166361 0.00721879 0.0129233 -0.0188931 0.00813453 0.105918 0.0211253 0.000746344 -0.0164833 -0.0117592 0.00690193 0.0211777 0.0287627 0.0194588 0.0290211 0.0350478 0.0548418 -0.0274406 -0.0466917 -0.0299026 -0.0150853 -0.0378975 -0.00836248 -0.0188571 -0.0159309 -0.000382794 0.00101797 0.0370652 0.00275868 0.00615314 0.00376528 -0.0180359 0.0399785 0.0531769 0.0351159
internal_weight=0 24924 5720 20351 2670 3050 13919 4573 8656 6105 1034 5263 2433 2276 6432 1764 1636 765 341 424 2186 1087 1099 957 6000 1621 980 2934 1667 1480 871 276 207 1163 3498 4810 3582 4379 871 750 633 1267 1093 450 734 2809 727 529 955 809 2303 2551 367 1279 163 3348 2879 2766 2439 617 418 419
internal_count=30644 24924 5720 20351 2670 3050 13919 4573 8656 6105 1034 5263 2433 2276 6432 1764 1636 765 341 424 2186 1087 1099 957 6000 1621 980 2934 1667 1480 871 276 207 1163 3498 4810 3582 4379 871 750 633 1267 1093 450 734 2809 727 529 955 809 2303 2551 367 1279 163 3348 2879 2766 2439 617 418 419
is_linear=0
shrinkage=0.05


Tree=12
num_leaves=63
num_cat=0
split_feature=176 10 12 17 161 141 161 89 10 161 167 141 145 128 65 8 27 138 178 108 95 161 90 35 140 162 111 34 162 176 167 111 23 159 167 123 111 167 162 146 27 56 34 24 10 2 123 57 128 159 135 150 0 160 67 158 138 32 83 159 124 98
split_gain=5555.4 1611.99 1484.85 405.84 318.917 315.314 299.94 282.492 270.416 268.295 256.534 195.99 174.567 157.636 154.2 203.672 187.154 170.087 258.678 152.46 149.619 144.13 143.864 135.788 133.202 130.876 166.693 129.952 128.861 125.971 120.882 120.034 125.343 119.962 118.347 117.532 113.84 107.874 103.646 111.074 134.911 105.97 126.656 100.776 99.4121 99.3182 126.01 98.8346 97.6917 97.633 95.1517 94.7619 95.6685 94.5919 145.946 118.626 102.298 93.598 95.5984 92.293 102.264 91.0741
threshold=0.73868209123611461 -0.47943428158760065 -0.4455475509166717 -0.64696273207664479 1.5667448043823244 1.3630198836326601 -0.49753360450267786 0.34245111048221594 -0.54986360669136036 0.97293451428413402 -0.73944517970085133 -0.040052147582173341 1.1668772697448733 0.92504015564918529 -0.017002587206661698 -0.33414056897163386 -0.026832734234631058 -0.32234498858451838 -1.3749675154685972 -0.95053240656852711 1.1863408684730532 -0.69806817173957814 2.8942534923553471 -1.1620625853538511 -0.75903481245040882 0.53607985377311718 -0.5416625142097472 -0.19458282738924024 0.20041321218013766 2.0053724050521855 -0.71069881319999684 2.8448199033737187 -1.4574389457702634 -0.49352693557739252 -0.02078636176884174 1.6623563766479494 -0.84095191955566395 -0.92150539159774769 0.03150513023138047 -0.76817920804023732 0.40808063745498663 -0.55310121178627003 -0.51216155290603627 -0.025479412637650963 -0.60621908307075489 0.45514158904552465 -0.7200234830379485 -0.93905606865882862 -0.21418117731809613 -0.10341569781303404 -0.039510762318968766 0.64734509587287914 -0.32849067449569697 -0.82629451155662526 -1.3781217932701109 0.62963065505027782 0.53741058707237255 1.1422638297080996 -0.90198212862014759 -1.1490353941917417 -0.41645081341266627 0.66163703799247753
decision_type=2 2 2 2 2 2 2 2 2 2 2 2 2 2 2 2 2 2 2 2 2 2 2 2 2 2 2 2 2 2 2 2 2 2 2 2 2 2 2 2 2 2 2 2 2 2 2 2 2 2 2 2 2 2 2 2 2 2 2 2 2 2
left_child=2 8 3 28 7 9 12 19 25 10 27 22 37 24 17 21 -17 18 -12 45 -9 -16 30 -19 -10 -2 -27 36 57 -29 59 32 -13 61 -26 43 -3 -4 39 49 -41 42 -40 -21 -30 46 -5 -46 -7 -39 -31 52 -32 -11 -55 56 -56 58 -1 60 -8 -34
right_child=1 5 6 4 -6 48 11 20 13 53 14 31 -14 -15 15 16 -18 23 -20 35 -22 -23 -24 -25 34 26 -28 29 44 50 51 -33 33 -35 -36 -37 -38 38 41 40 -42 -43 -44 -45 47 -47 -48 -49 -50 -51 -52 -53 -54 54 55 -57 -58 -59 -60 -61 -62 -63
leaf_value=-0.059825241036719184 0.0048563004814862224 0.066482796648859852 -0.03149634193690725 0.045344681952126265 -0.066940739475276761 0.049582105247157351 0.057458252910890378 -0.026640836284983538 0.084563271964912368 0.08811636183699692 0.19389156484576192 -0.042374041183666993 0.040012648336731862 -0.021124929879192556 0.093102536387260057 0.14317023908900439 0.054259581059090491 0.12526609977408165 0.096168918879509568 -0.023793877057101915 -0.073005791948859686 0.018903853703892595 -0.04181165371064699 0.073777565481837185 0.038859878794257417 0.035206360813141914 -0.044050221488322799 0.10861021076412797 -0.097041596045851344 0.011969494319360808 -0.038210439066324625 -0.051032201072209474 -0.021746548574888599 -0.0057887176317768588 -0.027164750369254333 0.030037533084013482 -0.0045394594252610087 -0.029582213892194453 -0.0034683210765141925 0.012969864307543606 0.043343853589954177 0.0082413623972496363 -0.054117409324483862 -0.0071917591297752746 -0.077250926366083855 0.063318454102114383 -0.0077340037386838499 -0.040859435374035906 -0.019286876199101303 0.017540887288141231 0.075796115650770546 0.019059027998526556 0.00373845760992857 -0.00073327691277675245 0.039214101653380858 -0.00038561675805929728 0.096672273431024539 -0.049841898834133029 -0.012488277915885105 -0.020661094114090121 -0.010386657797366004 -0.078245630749373893
leaf_weight=123 606 82 175 150 320 80 88 1968 130 86 86 303 439 129 85 110 129 145 323 1612 191 285 190 1130 390 80 385 110 96 118 142 201 319 3330 82 155 180 234 458 1527 481 1196 169 2114 210 86 438 1706 144 207 116 1070 3117 219 178 91 138 329 804 820 150 92
leaf_count=123 606 82 175 150 320 80 88 1968 130 86 86 303 439 129 85 110 129 145 323 1612 191 285 190 1130 390 80 385 110 96 118 142 201 319 3330 82 155 180 234 458 1527 481 1196 169 2114 210 86 438 1706 144 207 116 1070 3117 219 178 91 138 329 804 820 150 92
internal_value=0 0.0445605 -0.0103857 -0.0249425 -0.0181764 0.0628885 -0.00018911 -0.0158505 0.00555083 0.0664594 0.0732162 -0.00522545 0.00993399 0.0289953 0.080866 0.0592603 0.0952445 0.0886725 0.116772 -0.00878767 -0.0307481 0.0359836 0.000935788 0.0796464 0.0397454 -0.0104475 -0.0303993 0.0442537 -0.0395033 0.0644624 0.00244517 -0.013321 -0.0114442 -0.00893661 0.0273756 -0.0126004 0.0176867 0.00696272 0.00854005 0.0152593 0.02025 -0.000484119 -0.0171346 -0.0143762 -0.0473517 0.0131578 0.00580338 -0.0448545 0.00529803 -0.00745291 0.0436503 0.00614874 0.00190802 0.0389348 0.0321573 0.0498633 0.0643451 -0.026924 -0.0187804 -0.0127031 0.0146915 -0.0344217
internal_weight=0 5637 25010 10302 7034 3835 14708 6714 1802 3611 2899 9822 4886 731 2293 609 239 1684 409 4555 2159 370 5577 1275 602 1071 465 606 3268 344 5387 4245 4044 3741 472 3881 262 4447 4272 2449 2008 1823 627 3726 2012 674 588 1916 224 441 234 4329 3259 712 626 407 316 1256 927 1058 238 411
internal_count=30647 5637 25010 10302 7034 3835 14708 6714 1802 3611 2899 9822 4886 731 2293 609 239 1684 409 4555 2159 370 5577 1275 602 1071 465 606 3268 344 5387 4245 4044 3741 472 3881 262 4447 4272 2449 2008 1823 627 3726 2012 674 588 1916 224 441 234 4329 3259 712 626 407 316 1256 927 1058 238 411
is_linear=0
shrinkage=0.05


Tree=13
num_leaves=63
num_cat=0
split_feature=196 10 1 189 161 11 20 157 162 119 130 112 65 3 85 98 178 4 146 164 47 77 99 167 133 94 47 140 30 108 112 34 114 35 149 180 157 162 141 130 96 85 25 118 130 111 62 61 69 44 123 143 127 108 177 164 76 122 159 8 157 23
split_gain=5065.99 1464.46 1346.95 412.666 323.395 310.127 252.831 223.909 214.23 212.511 208.742 201.235 195.578 190.997 208.29 190.495 184.018 178.067 161.317 147.327 144.742 144.376 205.072 215.036 143.585 139.074 138.063 146.922 132.623 133.273 126.195 137.972 135.526 134.943 126.901 125.67 125.533 123.637 121.285 119.647 116.984 113.228 118.837 112.98 111.183 111.092 110.782 108.945 114.859 107.446 102.836 102.72 101.64 99.3969 94.2715 101.815 92.5974 91.777 91.6071 90.8446 89.1723 88.6802
threshold=1.0000000180025095e-35 -0.47296628355979914 -0.70863950252532948 1.0000000180025095e-35 -0.56629732251167286 -0.37414945662021631 -1.2209982872009275 -0.36713129281997675 0.03150513023138047 0.23671536892652514 0.85939419269561779 1.0467618107795718 1.0279943346977236 -0.066331095993518815 0.7967267930507661 0.7660665512084962 1.2331870198249819 1.3633620142936709 0.5879291594028474 0.64636495709419262 -0.7944049835205077 -0.79517686367034901 -0.51696404814720143 0.12294540181756021 0.64422860741615307 -0.42372985184192652 -0.27280926704406733 0.95301166176795971 0.67555344104766857 -0.95053240656852711 -0.10466282814741133 -0.026957214809954163 0.3358267098665238 1.4247024059295657 -0.60729533433914173 -0.52752207964658726 0.6696569323539735 0.74826037883758556 1.6530614495277407 0.45815905928611761 -0.53139778971672047 0.83650639653205883 -0.071561787277460084 -0.76871997117996205 0.15627145022153857 -0.67910897731780995 -0.69687527418136586 -0.68448498845100392 1.1023500561714175 -0.11025624722242354 -0.832991063594818 0.42787742614746099 0.022725998423993591 -1.0288631319999693 -0.35361519455909723 0.12116103246808053 -1.3077546954154966 -0.35404305160045618 1.113481938838959 0.5653476119041444 -0.4541898369789123 -0.96557301282882679
decision_type=2 2 2 2 2 2 2 2 2 2 2 2 2 2 2 2 2 2 2 2 2 2 2 2 2 2 2 2 2 2 2 2 2 2 2 2 2 2 2 2 2 2 2 2 2 2 2 2 2 2 2 2 2 2 2 2 2 2 2 2 2 2
left_child=2 6 9 5 17 11 37 16 30 46 19 24 13 50 15 -15 21 28 25 20 -8 39 -23 -24 -4 36 -22 -28 29 -3 31 32 34 44 -5 -32 45 -2 53 -6 -38 49 -43 61 -33 -7 57 -31 -49 60 -9 -13 -34 -11 55 -51 -27 -1 -52 -26 -10 -37
right_child=1 4 3 8 7 18 10 12 41 38 -12 51 -14 14 -16 -17 -18 -19 -20 -21 26 22 23 -25 59 56 27 -29 -30 47 35 33 52 -35 -36 43 40 -39 -40 -41 -42 42 -44 -45 -46 -47 -48 48 -50 54 58 -53 -54 -55 -56 -57 -58 -59 -60 -61 -62 -63
leaf_value=-0.070019764687563477 -0.0020975003636418844 0.13718475244741282 0.0067100218163953567 0.0022886562960887824 0.03703262803025173 0.011728995604813629 0.081118870004823193 0.064652724337126086 0.0034364419514664236 -0.0099537988420255845 -0.025388926353774838 -0.010464068490710583 -0.030244313696109682 0.081850154126715799 0.0047488393500013729 0.035355505786966467 0.027900619440698406 0.023907204569651411 -0.0010770189534139532 -0.017434987162442437 -0.015064600257774265 0.16738994317321385 0.14704170412669731 0.060313822082327856 -0.020051357543806363 0.017947301430374412 0.05617240016020502 -0.012966110317149688 0.14405793430859082 0.026125663920170263 -0.017026563864696195 -0.0080792739844026459 0.038698554970244138 0.067537738655600824 0.033737243924582543 0.085541236114115016 0.059868380877623306 -0.046125404150467821 -0.062294167520096901 0.093845566706995218 -0.0040878518117713611 -0.013140744455502574 0.035661770811395849 0.0010432338841834469 0.029772016951907749 -0.02376632961217312 -0.01356151767561249 0.074214055846662588 0.13554573142989201 0.072018953162629268 0.0041733330753258337 -0.041599382350664738 0.098029746899787149 -0.039479518327224072 -0.026626729697580804 0.004901929717814126 -0.029151530264442688 -0.020743107965723706 0.059501486148840613 0.027244775468478716 -0.019275474960274597 0.02114591680835981
leaf_weight=176 492 109 4576 518 239 281 168 125 613 327 194 1133 88 671 158 329 198 100 1267 130 139 92 98 266 857 108 367 97 117 90 554 781 233 83 844 80 113 236 517 152 194 201 328 514 258 1019 1622 398 95 104 420 346 105 2251 83 124 2940 205 91 115 1462 162
leaf_count=176 492 109 4576 518 239 281 168 125 613 327 194 1133 88 671 158 329 198 100 1267 130 139 92 98 266 857 108 367 97 117 90 554 781 233 83 844 80 113 236 517 152 194 201 328 514 258 1019 1622 398 95 104 420 346 105 2251 83 124 2940 205 91 115 1462 162
internal_value=0 0.0433499 -0.00902071 -0.00317127 0.0608842 -0.00847027 0.0064499 0.0527859 0.00656501 -0.0319626 0.0216338 -0.00136597 0.0424703 0.0460413 0.0581348 0.0665635 0.0713534 0.0869465 -0.0168992 0.0317658 0.0400693 0.0815008 0.100638 0.0837113 0.00300203 -0.0212045 0.0286128 0.0417084 0.0947287 0.0863615 0.0138874 0.0198408 0.028823 0.00622567 0.0217813 0.00105833 -0.00929661 -0.0163815 -0.0401766 0.0591496 0.0194486 -0.00381289 0.0171102 0.0143181 0.00131694 -0.0160897 -0.0192667 0.0768289 0.0860678 -0.00845437 0.0240086 -0.0177536 0.0571682 -0.0357369 0.0189419 0.0355568 -0.0274805 -0.0435316 0.0140458 -0.0144483 -0.0125636 0.0424808
internal_weight=0 5659 25094 19996 3836 12949 1823 2927 7047 5098 1095 7027 1882 1794 1158 1000 1045 909 5922 901 771 847 456 364 5548 4655 603 464 809 692 4132 2822 1700 1122 1362 1310 1607 728 3095 391 307 2915 529 756 1039 1300 2003 583 493 2386 636 1479 338 2578 311 228 3048 381 511 972 2075 242
internal_count=30753 5659 25094 19996 3836 12949 1823 2927 7047 5098 1095 7027 1882 1794 1158 1000 1045 909 5922 901 771 847 456 364 5548 4655 603 464 809 692 4132 2822 1700 1122 1362 1310 1607 728 3095 391 307 2915 529 756 1039 1300 2003 583 493 2386 636 1479 338 2578 311 228 3048 381 511 972 2075 242
is_linear=0
shrinkage=0.05


Tree=14
num_leaves=63
num_cat=0
split_feature=196 16 10 189 16 89 11 177 90 178 89 53 89 114 161 53 116 166 146 41 153 128 95 161 134 166 33 135 29 16 73 144 106 25 20 76 120 30 65 63 153 164 115 98 3 145 53 58 114 185 152 10 96 79 83 102 28 154 177 177 58 76
split_gain=4395.21 1284.91 1094.54 391.358 319.53 276.513 248.149 204.663 178.101 170.429 162.466 151.195 244.489 171.998 147.378 145.349 181.949 152.664 217.608 161.413 143.93 141.953 132.979 129.502 120.57 120.339 119.191 112.741 114.262 112.168 118.528 114.075 109.262 109.936 108.639 121.663 105.595 105.526 155.053 120.614 105.423 103.114 101.248 100.202 102.219 98.643 113.165 98.5412 98.4828 95.6214 117.564 100.061 93.0513 90.2841 89.6101 89.1325 125.828 122.907 89.1204 117.18 100.023 88.3538
threshold=1.0000000180025095e-35 0.1716582924127579 -0.48136568069458002 1.0000000180025095e-35 1.7922120690345766 0.34893408417701727 -0.39243480563163752 2.1895493268966679 0.65257355570793163 1.3602604866027834 0.79366314411163341 -0.81341001391410817 -0.8585660159587859 -1.3726424574851988 2.9500650167465214 0.32880812883377081 -1.0037174224853513 -0.62849298119544972 0.67868900299072277 0.086733348667621626 -0.48506326973438257 0.025158720090985302 1.0418820977211001 -0.48798461258411402 -1.02477490901947 0.68535634875297557 1.4069312810897829 -0.74562644958496083 0.033143015578389175 -0.55568224191665638 0.14055649936199191 0.41117480397224432 0.236248753964901 0.25186330080032354 1.2366543412208559 -1.3077546954154966 0.099686820060014739 0.96943768858909618 -0.32674151659011835 -1.1998667716979978 -0.76634028553962696 0.27879792451858526 0.017285435460507873 0.63463571667671215 0.82142159342765819 -0.68334543704986561 -0.77650344371795643 -0.47664541006088251 0.31738103926181799 0.22744759172201159 -1.1493607759475706 -0.56980660557746876 -0.26605215668678278 1.2947593331336977 -0.066497657448053346 -0.23233642429113385 -0.019545945338904854 0.13317216187715533 -0.55074459314346302 -0.60982695221900929 0.95024850964546215 0.137409582734108
decision_type=2 2 2 2 2 2 2 2 2 2 2 2 2 2 2 2 2 2 2 2 2 2 2 2 2 2 2 2 2 2 2 2 2 2 2 2 2 2 2 2 2 2 2 2 2 2 2 2 2 2 2 2 2 2 2 2 2 2 2 2 2 2
left_child=2 7 5 6 8 21 14 11 15 20 25 37 -13 -14 58 17 -17 42 19 -19 32 26 24 29 -15 34 49 -18 -29 31 55 45 -9 -34 -8 -36 -22 38 39 -2 -41 -7 -3 44 -27 47 -47 -5 -45 -1 -51 -52 -10 -12 -32 57 -57 -31 59 60 -4 -60
right_child=1 4 3 23 -6 41 10 9 52 -11 53 12 13 22 -16 16 27 18 -20 -21 36 -23 -24 -25 -26 43 -28 28 -30 30 54 -33 33 -35 35 -37 -38 -39 -40 40 -42 -43 -44 48 -46 46 -48 -49 -50 50 51 -53 -54 -55 -56 56 -58 -59 61 -61 -62 -63
leaf_value=-0.018879823351250366 0.10745813473514605 0.035655191992523282 0.0081655245738931174 0.027620900583513353 -0.031457372949123867 -0.036628686309347215 -0.023230233866893681 0.03976755592740007 0.017060323868252274 -0.017756660582169591 -0.027037019370213623 0.13400088274570962 0.00359400362173549 0.12457634157866521 -0.042052959862257419 0.053611612149817967 -0.028725718924021638 0.019582513772906707 0.12338753218837553 0.081681495867106657 0.057270603579980844 -0.035100004147347312 0.13038029857089306 -0.0031064172394516527 0.06603554946576895 -0.0013320856179868889 -0.037929546066923447 -0.00349852595460474 0.039664531945163339 0.052317576092567902 -0.025521881034859129 0.0051520676053547253 0.14067352574917599 0.060818622025067604 0.047875856641914044 -0.0096320175718362447 -0.0048708104024996098 0.085622820563827751 -0.018253300027675712 0.021397671989278166 0.071962447304290675 -0.061220603333549728 -0.033712711737736732 0.00355186917432644 0.039401584836778178 0.092392813219256964 0.033756192516276588 -0.031531240905215925 -0.055928830512269594 0.056405305263190465 -0.034193683819414053 0.0089218410347206619 -0.030787277070810401 -0.074295856141230049 0.0039152100453891418 -0.0048447103860331589 0.06110798255092792 0.010354602022355943 -0.00063199940914210643 0.038975138352151023 -0.039194917220541907 -0.01712329722189113
leaf_weight=855 82 135 1023 213 339 1262 2110 146 185 114 1405 173 89 96 225 240 198 281 103 167 122 1133 102 2701 1089 367 390 367 263 271 451 704 82 92 97 1734 155 171 93 263 170 646 86 178 265 95 620 105 114 98 180 532 225 109 605 744 80 491 3885 282 125 1027
leaf_count=855 82 135 1023 213 339 1262 2110 146 185 114 1405 173 89 96 225 240 198 281 103 167 122 1133 102 2701 1089 367 390 367 263 271 451 704 82 92 97 1734 155 171 93 263 170 646 86 178 265 95 620 105 114 98 180 532 225 109 605 744 80 491 3885 282 125 1027
internal_value=0 0.0396709 -0.00921399 -0.00394891 0.0137838 -0.029903 -0.00911806 0.061722 0.0206035 0.0382182 -0.0161418 0.0688962 0.0779412 0.0708801 -0.00229448 0.0272443 0.015287 0.0437757 0.0578568 0.0427552 0.0489164 -0.0208886 0.0755287 0.00550234 0.0707924 -0.0116883 -0.0130495 0.00416721 0.0145158 0.0108134 0.0043221 0.020683 0.0717611 0.0985393 -0.0154962 -0.00658027 0.0224911 0.0508966 0.0411091 0.0518401 0.0412735 -0.0449603 0.00863569 0.00454762 0.0157433 0.0312611 0.0415659 0.00807004 -0.0196641 -0.00721683 0.00508874 -0.0019744 -0.00918642 -0.0304474 -0.00865337 0.0129647 0.00155903 0.0252899 -0.00088251 0.0101012 0.00300136 -0.00408129
internal_weight=0 5628 25122 20026 2589 5096 12946 3039 2250 711 6379 2328 1549 1376 6567 1840 1068 772 551 448 597 3188 1287 7080 1185 4865 2055 828 630 4379 2642 1737 320 174 3941 1831 277 779 608 515 433 1908 221 924 632 1033 715 318 292 1665 810 712 410 1514 1056 1586 824 762 6342 1430 1148 4912
internal_count=30750 5628 25122 20026 2589 5096 12946 3039 2250 711 6379 2328 1549 1376 6567 1840 1068 772 551 448 597 3188 1287 7080 1185 4865 2055 828 630 4379 2642 1737 320 174 3941 1831 277 779 608 515 433 1908 221 924 632 1033 715 318 292 1665 810 712 410 1514 1056 1586 824 762 6342 1430 1148 4912
is_linear=0
shrinkage=0.05


Tree=15
num_leaves=63
num_cat=0
split_feature=196 10 16 189 9 13 163 143 35 139 161 89 161 164 50 161 152 101 107 116 72 142 89 178 137 62 34 89 76 151 164 159 115 57 32 164 159 89 39 162 162 178 102 119 93 91 73 114 141 172 73 107 73 152 177 28 114 123 116 52 105 119
split_gain=4336.73 1186.05 1115.27 414.31 365.168 259.286 194.466 188.713 174.57 162.276 155.588 155.244 151.588 148.052 141.827 137.962 134.916 134.543 147.521 156.42 147.553 216.624 129.377 126.673 156.096 121.474 117.007 117.1 110.817 118.647 107.359 106.915 111.864 104.334 171.728 150.74 118.897 171.668 103.337 102.04 101.736 109.552 99.4171 115.681 97.4113 105.571 97.3973 97.2911 97.05 95.7689 95.5958 95.219 94.8711 93.8918 127.876 101.245 91.3005 87.7983 146.805 103.739 85.6481 85.4708
threshold=1.0000000180025095e-35 -0.54986360669136036 0.96705090999603283 1.0000000180025095e-35 -0.24832046777009961 -0.20422368496656415 0.40372574329376226 -1.389296770095825 1.5124604105949404 1.3723558783531191 -0.63158598542213429 0.72105437517166149 0.49674615263938909 0.169571228325367 -0.019604484550654885 -0.49753360450267786 -0.65111607313156117 1.6634408831596377 0.73976656794548046 -0.21974944323301313 -0.019618620164692398 0.66097292304039013 2.7707411050796513 0.51447832584381115 -0.027694926597177979 -0.71797138452529896 2.1337730884552006 -0.76213237643241871 -0.44551332294940943 -1.6509740352630613 0.45574021339416509 -1.1217020750045774 0.19508885592222217 0.43421147763729101 0.42111836373806005 0.19175132364034655 -1.3549708724021909 -0.46791534125804896 -0.32603579759597773 0.65796926617622387 0.17138776928186419 -0.52156430482864369 -1.1500499248504636 -0.237199991941452 -1.1058192849159239 0.59433183073997509 0.73448580503463756 -0.30440509319305414 -0.42281821370124811 0.4572476744651795 -0.30412589013576502 -0.38595958054065699 0.1093043200671673 -0.6055568754673003 -0.50153991580009449 -0.019546176306903359 0.19132556766271594 -0.75498610734939564 -0.36923505365848536 -0.19770837575197217 -0.17477142065763471 0.26988510787487036
decision_type=2 2 2 2 2 2 2 2 2 2 2 2 2 2 2 2 2 2 2 2 2 2 2 2 2 2 2 2 2 2 2 2 2 2 2 2 2 2 2 2 2 2 2 2 2 2 2 2 2 2 2 2 2 2 2 2 2 2 2 2 2 2
left_child=2 13 3 5 10 9 17 -8 15 12 14 25 28 40 57 31 -9 18 20 -20 51 -22 42 39 -25 -4 27 46 61 -30 50 32 56 36 35 -35 -12 -38 -39 -18 -2 -42 43 -7 45 -33 52 -21 60 -46 -10 -6 -27 54 -44 -55 -5 -3 -59 -60 -14 -1
right_child=1 4 11 8 6 22 7 16 30 -11 33 -13 48 -15 -16 -17 23 -19 19 47 21 -23 -24 24 -26 26 -28 -29 29 -31 -32 44 -34 34 -36 -37 37 38 -40 -41 41 -43 53 -45 49 -47 -48 -49 -50 -51 -52 -53 -54 55 -56 -57 -58 58 59 -61 -62 -63
