tree
version=v4
num_class=1
num_tree_per_iteration=1
label_index=0
max_feature_idx=199
objective=regression
feature_names=Column_0 Column_1 Column_2 Column_3 Column_4 Column_5 Column_6 Column_7 Column_8 Column_9 Column_10 Column_11 Column_12 Column_13 Column_14 Column_15 Column_16 Column_17 Column_18 Column_19 Column_20 Column_21 Column_22 Column_23 Column_24 Column_25 Column_26 Column_27 Column_28 Column_29 Column_30 Column_31 Column_32 Column_33 Column_34 Column_35 Column_36 Column_37 Column_38 Column_39 Column_40 Column_41 Column_42 Column_43 Column_44 Column_45 Column_46 Column_47 Column_48 Column_49 Column_50 Column_51 Column_52 Column_53 Column_54 Column_55 Column_56 Column_57 Column_58 Column_59 Column_60 Column_61 Column_62 Column_63 Column_64 Column_65 Column_66 Column_67 Column_68 Column_69 Column_70 Column_71 Column_72 Column_73 Column_74 Column_75 Column_76 Column_77 Column_78 Column_79 Column_80 Column_81 Column_82 Column_83 Column_84 Column_85 Column_86 Column_87 Column_88 Column_89 Column_90 Column_91 Column_92 Column_93 Column_94 Column_95 Column_96 Column_97 Column_98 Column_99 Column_100 Column_101 Column_102 Column_103 Column_104 Column_105 Column_106 Column_107 Column_108 Column_109 Column_110 Column_111 Column_112 Column_113 Column_114 Column_115 Column_116 Column_117 Column_118 Column_119 Column_120 Column_121 Column_122 Column_123 Column_124 Column_125 Column_126 Column_127 Column_128 Column_129 Column_130 Column_131 Column_132 Column_133 Column_134 Column_135 Column_136 Column_137 Column_138 Column_139 Column_140 Column_141 Column_142 Column_143 Column_144 Column_145 Column_146 Column_147 Column_148 Column_149 Column_150 Column_151 Column_152 Column_153 Column_154 Column_155 Column_156 Column_157 Column_158 Column_159 Column_160 Column_161 Column_162 Column_163 Column_164 Column_165 Column_166 Column_167 Column_168 Column_169 Column_170 Column_171 Column_172 Column_173 Column_174 Column_175 Column_176 Column_177 Column_178 Column_179 Column_180 Column_181 Column_182 Column_183 Column_184 Column_185 Column_186 Column_187 Column_188 Column_189 Column_190 Column_191 Column_192 Column_193 Column_194 Column_195 Column_196 Column_197 Column_198 Column_199
feature_infos=[-13.260848045349121:13.097723007202148] [-3.5154502391815186:3.7581846714019775] [-7.2438449859619141:7.3421645164489746] [-3.891068696975708:5.0094537734985352] [-4.3779692649841309:4.3610482215881348] none [-0.47728344798088074:2.0951910018920898] [-1.3582466840744019:1.8197999000549316] [-0.62669253349304199:15.066319465637207] [-0.64099407196044922:22.481843948364258] [-0.61041128635406494:23.1055908203125] [-0.61458367109298706:17.549674987792969] [-1.2932378053665161:5.8257169723510742] [-1.2967890501022339:5.3841142654418945] [-2.1766149997711182:1.9451593160629272] [-2.1581239700317383:1.9464105367660522] [-2.062267541885376:2.0523607730865479] [-1.7395046949386597:2.3502171039581299] [-0.65642809867858887:18.308511734008789] [-1.8021960258483887:2.1645996570587158] [-1.9042648077011108:2.0854699611663818] [-3.6915619373321533:4.1064963340759277] [-0.1170189380645752:17.328533172607422] [-6.3530550003051758:5.3834514617919922] [-0.025479458272457123:64.954238891601562] [-7.0864071846008301:6.4334874153137207] [-0.022426927462220192:72.292457580566406] [-5.3958477973937988:5.0490713119506836] [-0.019547097384929657:58.630439758300781] [-4.8618631362915039:4.2456045150756836] [-3.8250250816345215:6.5764317512512207] [-5.8901066780090332:6.4788227081298828] [-6.003565788269043:15.387424468994141] [-6.5299334526062012:5.7227983474731445] [-5.5390777587890625:24.625457763671875] [-7.3574175834655762:6.3815317153930664] [-3.2231006622314453:15.696072578430176] [-14.502771377563477:16.214632034301758] [-0.17168477177619934:43.265869140625] [-7.9769759178161621:6.2736520767211914] [-3.572887659072876:7.3359451293945312] [-7.8385486602783203:6.0625014305114746] [-0.012727080844342709:91.666481018066406] [-4.3051471710205078:4.307124137878418] [-0.11025651544332504:18.080568313598633] [-6.671393871307373:4.7864141464233398] [-0.025961155071854591:64.723159790039062] [-7.759699821472168:7.2234611511230469] [-0.022645600140094757:70.454612731933594] [-6.5656867027282715:6.815986156463623] [-0.019605504348874092:59.153995513916016] [-5.0926394462585449:4.5038132667541504] [-4.0635585784912109:7.3403730392456055] [-6.3509879112243652:7.1005663871765137] [-6.4681363105773926:16.876583099365234] [-7.1738815307617188:7.5350399017333984] [-6.4252653121948242:30.425745010375977] [-9.0405607223510742:7.4069619178771973] [-3.8381314277648926:23.468923568725586] [-14.502771377563477:16.214632034301758] [-0.17168477177619934:43.265869140625] [-10.319964408874512:7.4811105728149414] [-4.3276519775390625:8.4329862594604492] [-10.057538986206055:7.2743582725524902] [-0.011708674021065235:98.079582214355469] [-4.3083548545837402:4.6042466163635254] [-0.11207357048988342:17.811990737915039] [-7.0824308395385742:4.6508903503417969] [-0.02594686858355999:79.899917602539062] [-8.9258956909179688:7.977755069732666] [-0.022850586101412773:62.641532897949219] [-7.7884373664855957:7.7694387435913086] [-0.019619422033429146:57.209041595458984] [-5.1717829704284668:4.8501291275024414] [-4.2198643684387207:8.0847291946411133] [-6.69097900390625:6.8777265548706055] [-6.804499626159668:16.334197998046875] [-7.9672317504882812:8.1608686447143555] [-7.3482251167297363:33.511802673339844] [-10.739275932312012:8.775334358215332] [-4.4752392768859863:27.597465515136719] [-14.502771377563477:16.214632034301758] [-0.17168477177619934:43.265869140625] [-12.79712963104248:9.7602968215942383] [-5.3338432312011719:10.264163017272949] [-12.679039001464844:9.5926389694213867] [-0.011726522818207741:92.27032470703125] [-2.5038480758666992:2.4364500045776367] [-2.5129845142364502:2.4387924671173096] [-1.6432708501815796:7.2876157760620117] [-1.65718674659729:7.9811577796936035] [-2.3649702072143555:8.8830556869506836] [-2.3542838096618652:8.8532743453979492] [-6.1514859199523926:4.3491611480712891] [-6.1129989624023438:4.3328375816345215] [-5.8405213356018066:5.3300232887268066] [-5.1234250068664551:5.5567622184753418] [-8.1100234985351562:3.8548610210418701] [-7.6542291641235352:3.8068099021911621] [-7.9545073509216309:6.4600048065185547] [-8.2633085250854492:6.3114347457885742] [-4.0501651763916016:8.6385593414306641] [-5.2902717590332031:8.8501930236816406] [-0.55512547492980957:18.293190002441406] [-0.54830712080001831:17.486412048339844] [-3.7191689014434814:7.6162738800048828] [-3.6673038005828857:10.488706588745117] [-6.9409694671630859:7.130608081817627] [-6.8765172958374023:9.8753843307495117] [-2.8315193653106689:2.752100944519043] [-2.8468086719512939:2.7633564472198486] [-1.7393242120742798:6.1292099952697754] [-1.7552270889282227:8.4544496536254883] [-2.6452653408050537:9.9230127334594727] [-2.6244969367980957:9.8416681289672852] [-7.7316360473632812:5.4782352447509766] [-7.6849880218505859:5.4534258842468262] [-6.3163437843322754:5.7759408950805664] [-5.5650434494018555:6.052314281463623] [-8.8402433395385742:4.2076849937438965] [-8.3542985916137695:4.1568508148193359] [-9.3000698089599609:7.5532689094543457] [-9.6416807174682617:7.3671579360961914] [-5.1056890487670898:10.918597221374512] [-6.7150626182556152:11.233916282653809] [-0.55512547492980957:18.293190002441406] [-0.54830712080001831:17.486412048339844] [-4.8885064125061035:10.02593994140625] [-4.8383512496948242:13.817888259887695] [-9.0497150421142578:9.271550178527832] [-8.9583148956298828:12.813879013061523] [-3.1188979148864746:3.0320940017700195] [-3.1305480003356934:3.0410463809967041] [-1.8083047866821289:6.0087041854858398] [-1.8243496417999268:8.8042821884155273] [-2.9301543235778809:10.940890312194824] [-2.8928163051605225:10.810770988464355] [-9.4394311904907227:6.7087116241455078] [-9.3352451324462891:6.6335711479187012] [-6.7223973274230957:6.176788330078125] [-5.90789794921875:6.458045482635498] [-9.4348793029785156:4.5044956207275391] [-8.8746376037597656:4.4295930862426758] [-10.582123756408691:8.6038494110107422] [-10.956587791442871:8.3836593627929688] [-6.137791633605957:13.18895435333252] [-8.0851078033447266:13.562995910644531] [-0.55512547492980957:18.293190002441406] [-0.54830712080001831:17.486412048339844] [-6.2054414749145508:12.737582206726074] [-6.1051650047302246:17.439302444458008] [-11.826227188110352:12.055601119995117] [-11.594017028808594:16.509536743164062] [-4.5956063270568848:4.5940375328063965] [-5.8001613616943359:5.4011020660400391] [-6.4932546615600586:5.3750810623168945] [-5.8469419479370117:5.4393281936645508] [-5.9428362846374512:6.031672477722168] [-2.9880187511444092:2.957289457321167] [-2.9733400344848633:2.9447715282440186] [-1.6386392116546631:7.6835761070251465] [-1.6609702110290527:8.3910093307495117] [-5.0138697624206543:3.8186209201812744] [-5.0247678756713867:3.8208584785461426] [-5.7284789085388184:2.7942125797271729] [-5.7778520584106445:2.9234249591827393] [-0.94246429204940796:6.6991152763366699] [-0.93587857484817505:6.6244115829467773] [-1.6460413932800293:1.6435133218765259] [-0.62599623203277588:14.175434112548828] [-2.9708833694458008:16.725822448730469] [-3.8248882293701172:12.201390266418457] [-1.8805450201034546:2.1108081340789795] [-1.8656673431396484:0.53600126504898071] none none [-2.0851807594299316:2.3754556179046631] [-4.201756477355957:2.8777346611022949] [-4.0150275230407715:11.264675140380859] [-0.94873934984207153:4.1325826644897461] [-0.9530259370803833:4.1530203819274902] [-5.3808689117431641:4.4834203720092773] [-1.0944896936416626:4.9529905319213867] [-1.100832462310791:5.5175352096557617] [-4.5342059135437012:5.043485164642334] [-1.3117432594299316:4.8450202941894531] [-1.316197395324707:5.5301895141601562] [-4.4795732498168945:4.4854960441589355] [0:1] [0:1] [0:1] [0:1] [0:1] [0:1] none [0:1] [0:1] [0:1] [0:1] [0:1]
tree_sizes=5489 5757 5758 5771 5750 5729 5743 5767 5756 5746 5736 5759 5775 5786 5772 5777 5782 5775 5751 5778 5793 5820 5787 5745 5792 5819 5787 5785 5806 5793 5786 5801 5780 5805 5827 5817 5806 5820 5798 5813 5803 5801 5798 5791 5834 5783 5766 5805 5799 5787 5794 5777 5806 5795 5793 5816 5498 5766 5796 5791 5783 5779 5782 5788 4369 5816 4810 5801 5729 4918 5806 5794 4249 5814 5847 5783 5442

Tree=0
num_leaves=63
num_cat=0
split_feature=196 9 10 18 160 160 10 161 9 11 160 160 161 9 161 160 161 90 111 160 160 112 163 161 142 23 177 112 131 9 112 15 141 90 111 121 79 162 97 161 165 101 111 133 63 94 10 177 161 162 166 10 11 97 162 153 9 177 7 73 162 154
split_gain=50938.9 22669 21806.8 4949.38 4900.93 3549.57 2813.19 2519.18 2103.93 2000.83 1183.75 1083.83 1078.4 1032.85 943.312 942.362 926.077 905.613 873.26 772.27 768.358 698.707 649.329 577.857 554.617 509.781 473.88 471.055 456.884 443.362 426.23 421.509 420.365 420.161 418.573 409.552 403.178 402.371 379.094 369.291 382.82 350.418 344.895 334.313 332.702 335.42 322.276 320.083 317.47 316.948 293.392 281.58 278.485 278.353 277.209 272.607 265.319 264.007 257.23 254.507 239.074 239.003
threshold=1.0000000180025095e-35 0.25378701090812689 -0.23131461441516873 -0.027896585874259468 0.3833757638931275 0.97539621591568004 -0.30282193422317499 0.17909626662731173 1.0251320600509646 -0.059060117229819291 1.3077570199966433 -0.7083163559436797 0.024189224466681484 -0.37483823299407953 -0.41613051295280451 -0.64042323827743519 2.9500650167465214 0.76310858130455028 -0.12234850227832793 1.0184617638587954 -0.089928157627582536 0.16831018030643466 0.63945284485816967 1.4294793009757998 0.37313485145568853 -1.3756305575370786 1.8055093884468081 -0.66325238347053517 0.32203927636146551 -0.55856955051422108 0.49175961315631872 1.5744978189468386 -0.81077855825424183 0.74059724807739269 0.0079295814502984303 0.16788067668676379 -0.087268099188804613 -0.25829602777957911 -0.73507902026176442 -0.37493990361690516 -0.048354052007198327 -0.14928478002548215 -0.68687120079994191 2.5292487144470219 -0.28001400828361506 -0.26588937640190119 -0.027392936870455738 -0.31085227429866785 0.65889930725097667 0.83777210116386425 -0.71543887257575978 -0.31162559986114496 -0.59097015857696522 1.0000000180025095e-35 0.24329659342765811 -0.37055753171443934 -0.44046033918857569 1.7686615586280825 0.54858131706714641 1.1634806394577029 -0.16678640246391294 -1.8471826910972593
decision_type=2 2 2 2 2 2 2 2 2 2 2 2 2 2 2 2 2 2 2 2 2 2 2 2 2 2 2 2 2 2 2 2 2 2 2 2 2 2 2 2 2 2 2 2 2 2 2 2 2 2 2 2 2 2 2 2 2 2 2 2 2 2
left_child=2 5 4 7 9 6 18 20 14 15 24 48 26 59 41 33 19 31 25 46 27 47 52 34 51 -2 36 -4 -27 -20 43 42 -28 -1 57 -15 -8 -14 -30 -17 58 -3 -5 -12 -31 -46 60 -13 50 -22 -11 -6 -10 -52 -34 -29 -26 -16 -41 -7 -9 -48
right_child=1 8 3 17 10 13 12 16 22 11 30 21 37 35 23 39 -18 -19 29 -21 49 -23 -24 -25 56 28 32 55 38 44 -32 -33 54 -35 -36 -37 -38 -39 -40 40 -42 -43 -44 -45 45 -47 61 -49 -50 -51 53 -53 -54 -55 -56 -57 -58 -59 -60 -61 -62 -63
leaf_value=6.8891662423393258 7.0091663680395762 7.0515263128817729 6.8439600921057897 6.7695660844398606 6.8480317888604203 7.000410619071614 7.1677706293834724 6.8217682670711817 6.7693119680836826 6.8756940023235584 6.8086886491113603 6.9068050154140366 7.0194988631350768 6.9203975477119881 6.9884410914934438 6.855023893502957 6.640509890603199 6.6624732763420269 7.1044039599949746 6.6918804208577622 6.7861705973610409 6.8452123690034687 6.7131870356615346 6.7340968547198861 6.8225735087737887 7.0992846675104841 7.1042461079123242 6.7863702046298373 7.2365098096569875 6.9737036854298609 6.725483493124738 6.6906155108670919 7.0126413931001546 6.8103295489906168 6.8083413205967522 6.7867739011654802 7.0316995908191462 6.9159111424423099 7.1411624060480365 6.8345606153982521 6.7971358989115203 6.9144524649570185 6.7218172475629361 6.7467339053065061 7.1150864553094939 7.01877787530902 6.6780710794580189 6.8684564010070179 6.8485406922046925 6.7213056334073729 6.9621699313462209 6.7728939938580606 6.8387159696276338 6.9108041486340612 6.9021546290027223 6.8235244967329969 6.7666220551517284 6.8802508646535099 6.9241640522179315 6.9051272792879343 6.7702678591339263 6.754860798130176
leaf_weight=1587 92 93 1233 567 1972 434 115 318 305 164 707 1843 128 122 81 1255 192 784 340 421 1394 940 317 87 437 593 87 1008 131 172 348 663 177 189 148 108 105 352 545 663 904 94 1144 315 153 225 112 773 105 218 886 133 275 377 84 969 412 186 91 84 777 1091
leaf_count=1587 92 93 1233 567 1972 434 115 318 305 164 707 1843 128 122 81 1255 192 784 340 421 1394 940 317 87 437 593 87 1008 131 172 348 663 177 189 148 108 105 352 545 663 904 94 1144 315 153 225 112 773 105 218 886 133 275 377 84 969 412 186 91 84 777 1091
internal_value=6.84513 6.98142 6.81498 6.76184 6.85603 7.04421 7.06651 6.78338 6.8212 6.87563 6.8117 6.89734 6.9988 6.94584 6.8869 6.85207 6.74665 6.70909 7.09802 6.75415 6.80555 6.88219 6.77073 6.85117 6.82952 7.12324 7.04544 6.8197 7.1315 7.05942 6.77329 6.72449 7.00899 6.88077 6.87575 6.85763 7.10296 6.94358 7.1597 6.83456 6.81908 6.98272 6.73763 6.78958 7.03156 7.05783 6.76557 6.89548 6.9325 6.77739 6.93868 6.84328 6.8022 6.94685 6.97714 6.80458 6.79541 6.91313 6.84538 6.98498 6.78522 6.74769
internal_weight=0 5633 24992 10891 14101 4047 3299 7733 1586 9777 4324 5088 1048 748 689 4689 2911 3158 2251 2719 4822 3556 897 502 2954 1361 568 3210 1269 890 1370 2374 348 1776 415 230 220 480 676 2913 1658 187 1711 1022 550 378 2298 2616 1532 1612 1427 2105 580 1263 261 1977 849 267 754 518 1095 1203
internal_count=30625 5633 24992 10891 14101 4047 3299 7733 1586 9777 4324 5088 1048 748 689 4689 2911 3158 2251 2719 4822 3556 897 502 2954 1361 568 3210 1269 890 1370 2374 348 1776 415 230 220 480 676 2913 1658 187 1711 1022 550 378 2298 2616 1532 1612 1427 2105 580 1263 261 1977 849 267 754 518 1095 1203
is_linear=0
shrinkage=1


Tree=1
num_leaves=63
num_cat=0
split_feature=196 11 1 160 1 16 160 10 134 14 142 161 90 160 160 161 160 112 20 161 165 160 163 160 161 160 11 190 156 176 10 78 10 65 90 74 115 133 16 142 134 161 158 45 156 161 1 10 158 112 99 65 1 146 133 132 160 133 138 38 176 160
split_gain=46330.5 19941.8 18937.2 4706.11 3732.45 3382.58 2777.92 2112.78 1826.76 1783.31 1734.2 1267.49 1087.46 1037.77 981.799 863.747 834.203 757.262 743.315 649.458 630.218 619.981 610.31 606.456 534.622 517.935 477.585 461.246 444.666 404.871 398.067 389.548 375.441 371.006 355.623 425.693 380.35 350.395 340.754 339.526 335.382 332.624 333.355 332.467 306.154 304.752 304.284 298.132 279.954 269.092 265.521 264.962 261.031 250.707 407.923 254.009 250.591 247.931 246.489 230.2 225.309 223.215
threshold=1.0000000180025095e-35 -0.40581582486629481 0.45828758180141455 -0.069177594035863862 1.4101665616035464 -1.1919906139373777 0.97539621591568004 -0.45163084566593165 0.31534054875373846 0.67374292016029369 0.92624354362487804 1.6785880327224734 0.43915313482284551 1.3077570199966433 0.068387150764465346 0.61916145682334911 0.53974354267120372 0.50763177871704113 0.13469456136226657 -0.38192223012447352 0.046543980017304427 2.5855852365493779 0.63945284485816967 1.2487165927886965 -0.48798461258411402 0.020623301155865196 -0.57416820526123036 1.0000000180025095e-35 0.52751845121383678 -0.34958052635192866 -0.35269440710544581 -0.7239345610141753 -0.03413041960448026 -0.83618518710136402 -0.79416161775588978 0.37196038663387304 -0.51217225193977345 -1.0752310156822202 0.31433556973934179 -0.30492296814918513 2.3727785348892216 0.084005028009414687 0.57742780447006237 -1.8404992222785947 -0.057223364710807793 2.9500650167465214 1.7430741786956789 -0.24928126484155652 0.12003636732697488 -1.0105690360069273 -0.18408939242362973 1.6064828634262087 -0.051043022423982613 -0.082062155008316026 -1.0891157388687132 -0.17075435817241666 -0.71338823437690724 2.5292487144470219 0.52545151114463817 -0.17168474942445752 -0.46969987452030176 -0.93907392024993885
decision_type=2 2 2 2 2 2 2 2 2 2 2 2 2 2 2 2 2 2 2 2 2 2 2 2 2 2 2 2 2 2 2 2 2 2 2 2 2 2 2 2 2 2 2 2 2 2 2 2 2 2 2 2 2 2 2 2 2 2 2 2 2 2
left_child=1 5 6 7 11 17 9 19 13 12 16 14 27 18 28 29 24 26 -5 56 60 38 46 30 53 41 -1 34 31 37 -10 -4 -26 -33 36 -36 -2 -9 -8 -16 -17 42 -11 -21 -34 -22 -6 -14 -29 -20 -39 -44 -51 55 -55 -7 -3 -15 -27 -28 -12 -45
right_child=2 3 4 8 22 10 21 15 23 25 20 -13 47 57 39 40 -18 -19 49 43 45 -23 -24 -25 32 58 59 48 -30 -31 -32 33 44 -35 35 -37 -38 50 -40 -41 -42 -43 51 61 -46 -47 -48 -49 -50 52 -52 -53 -54 54 -56 -57 -58 -59 -60 -61 -62 -63
leaf_value=-0.13978394754297971 0.36167218018597586 0.098972729027518039 0.050944563862160785 0.026157359709929141 0.010804521761482761 -0.068583155483660951 0.062166435507249498 0.069933754128490941 -0.029182297238899171 0.27232849498707734 -0.044136012261324138 -0.09785495023291868 0.13319566588856627 -0.035466286348566432 0.10536940472236589 -0.030248414478164311 -0.097218747200110991 -0.16295504937630895 0.031641805931920154 -0.056908464563882988 -0.12791286470874749 0.017046000862157334 -0.12294086761112454 -0.1085957342915501 -0.027690781249750093 0.24076457438133533 -0.10168436537550261 0.087553460524571788 0.23097313734355121 -0.015798575612888995 -0.082962506013901649 0.21283766369383572 -0.096467432238726669 0.10529983901782743 0.16838144433780688 0.25768950100230864 0.22736617536017689 0.036071760319665379 0.15547288345929322 -0.00063634723736014694 -0.1366700263815824 0.23677517214704968 0.38204445191510006 0.089546915194299373 -0.052385322798345915 -0.20858966051746292 -0.063750299765088836 0.028856316235970382 0.20762997861457003 -0.0078777911793618937 0.0046435359665231669 0.27439110966144831 -0.046092067356525455 0.079883118889617327 -0.016361611564429404 -0.014273702087426288 0.064414094837453861 -0.090075451432562556 0.16386059557082822 -0.048405066506687189 -0.1030118373232245 0.034079528288358932
leaf_weight=834 80 954 214 2094 218 424 126 410 1115 358 298 105 191 684 98 496 795 1016 265 89 639 139 308 505 745 507 1018 120 80 677 498 110 671 299 381 207 159 1340 444 328 87 265 178 215 957 144 367 107 82 1201 1349 87 712 126 867 438 1171 299 133 254 359 1165
leaf_count=834 80 954 214 2094 218 424 126 410 1115 358 298 105 191 684 98 496 795 1016 265 89 639 139 308 505 745 507 1018 120 80 677 498 110 671 299 381 207 159 1340 444 328 87 265 178 215 957 144 367 107 82 1201 1349 87 712 126 867 438 1171 299 133 254 359 1165
internal_value=0 -0.0281758 0.129944 0.00720233 0.0118757 -0.0847439 0.200403 0.0338798 -0.0215731 0.222404 -0.0640965 0.0682199 0.179958 -0.00577132 0.083677 0.0104773 -0.0502253 -0.127482 0.0048864 0.062261 -0.112472 0.111784 -0.0659773 -0.0607745 -0.0413857 0.259249 -0.11036 0.204322 0.119971 0.0192241 -0.0457937 0.105675 -0.0571066 0.134279 0.220888 0.199868 0.272476 0.0268769 0.134871 0.0237572 -0.0461588 0.284029 0.30408 0.0366871 -0.0705622 -0.142781 -0.0359618 0.0957706 0.136401 -0.0155622 0.0203077 0.346837 -0.0221051 -0.0212702 -0.00413744 -0.0409981 0.0799352 -0.0520894 0.224819 -0.0910538 -0.0763255 0.0427307
internal_weight=0 24911 5691 15326 2127 9585 3564 7953 7373 2855 6463 1234 1327 5255 1129 4359 5023 3122 4272 3594 1440 709 893 2118 4228 1528 2106 1029 703 3776 1613 623 2373 409 827 588 239 3099 570 426 583 888 623 1469 1628 783 585 298 202 2178 2689 265 1913 1855 993 862 2125 983 640 1272 657 1380
internal_count=30602 24911 5691 15326 2127 9585 3564 7953 7373 2855 6463 1234 1327 5255 1129 4359 5023 3122 4272 3594 1440 709 893 2118 4228 1528 2106 1029 703 3776 1613 623 2373 409 827 588 239 3099 570 426 583 888 623 1469 1628 783 585 298 202 2178 2689 265 1913 1855 993 862 2125 983 640 1272 657 1380
is_linear=0
shrinkage=0.05


Tree=2
num_leaves=63
num_cat=0
split_feature=196 10 11 133 20 14 11 161 10 89 161 161 133 154 161 161 161 161 161 161 162 89 161 89 79 133 133 132 163 161 176 176 106 89 177 162 11 16 16 161 18 133 149 10 146 22 161 39 16 133 20 89 190 66 91 69 161 133 120 3 140 97
split_gain=40538.1 18399.5 17209.6 3905.07 3141.65 2482.81 2470.61 1747.17 1714.07 1643.36 1479.11 1359.43 1002.87 890.994 827.407 806.575 773.854 662.423 644.131 590.032 587.991 561.732 555.929 546.895 485.542 428.802 411.06 407.879 406.346 396.64 391.523 383.848 370.368 492.379 356.242 349.66 348.55 337.139 328.255 297.899 295.867 294.879 287.861 285.961 277.865 265.829 265.217 256.961 256.11 253.325 251.267 252.642 249.145 238.202 233.295 253.642 233.191 230.427 225.201 219.032 216.984 213.202
threshold=1.0000000180025095e-35 0.27444708347320562 -0.39413015544414515 0.8652506172657014 -0.8359178602695464 0.27272632718086248 -0.059060117229819291 0.87939468026161205 1.3359777927398684 1.0000000180025095e-35 0.63376566767692577 0.050154922530055053 0.90378260612487804 1.1131278872489931 0.79209348559379589 -0.22552114725112912 -0.26071415841579432 0.27447347342967993 0.39017015695571905 2.9500650167465214 0.97639545798301708 -0.31399978697299952 -0.27013824880123133 0.60792717337608349 -0.24793574213981626 -0.46771891415119166 2.272458672523499 -1.2062107324600218 -0.25894065201282496 -0.36826726794242853 -0.54033562541007985 -0.33254587650299067 -0.57886862754821766 -0.4007089883089065 2.0171893835067753 -0.36157460510730738 -0.60550156235694874 -0.83603915572166432 0.99144628643989574 2.5564303398132329 -0.39411610364913935 -1.050269544124603 1.0334292054176333 -0.56980660557746876 -0.23455032706260678 -0.11701878905296324 0.97293451428413402 -0.051713377237319939 0.73522850871086132 -1.0752310156822202 -1.4629688262939451 -0.61162033677101124 1.0000000180025095e-35 -0.11207314953207968 -1.2108359336853025 -0.76703229546546925 1.7912755608558657 2.8146708011627202 -0.29753214120864863 -0.27619168162345881 0.59499835968017589 0.41214056313037878
decision_type=2 2 2 2 2 2 2 2 2 2 2 2 2 2 2 2 2 2 2 2 2 2 2 2 2 2 2 2 2 2 2 2 2 2 2 2 2 2 2 2 2 2 2 2 2 2 2 2 2 2 2 2 2 2 2 2 2 2 2 2 2 2
left_child=2 5 4 6 18 11 10 12 14 16 21 13 22 32 24 25 27 26 50 -9 48 31 41 35 29 -8 40 -7 -23 -3 -17 49 33 -2 36 -13 -10 -24 -19 47 60 44 -30 -32 -6 -37 -45 -12 -11 -4 -1 58 -18 61 -29 -56 -16 -14 -52 -26 -5 -50
right_child=1 8 3 17 7 9 15 19 34 20 39 23 57 -15 56 30 52 38 -20 -21 -22 28 37 -25 59 -27 -28 54 42 -31 43 -33 -34 -35 -36 45 -38 -39 -40 -41 -42 -43 -44 46 -46 -47 -48 -49 53 -51 51 -53 -54 -55 55 -57 -58 -59 -60 -61 -62 -63
leaf_value=-0.14409193577205701 0.30238460616607571 0.18455823685680439 0.063970273639683481 -0.026112616142145204 -0.037891869837011954 0.20534190642657074 0.076318959028286004 -0.10116990891342122 -0.11106093075654695 0.13497917221140926 -0.022157679890725764 0.17813348224492198 -0.0979143522231639 0.041953474572818089 -0.015499971474825298 0.050640620487462332 0.22520917360031639 -0.10323842334859171 -0.1582628419237847 -0.20188027351545054 0.072060034255416586 0.025915987837024191 -0.081112183933672227 -0.010554100075797395 0.07032679470874785 0.041053124298768048 -0.077372760736124882 0.22667686594184985 -0.027070670608681974 0.05993705297473198 0.052325123050019566 -0.019488239629077558 0.16519035804828408 0.15976851460358005 -0.13359169521675224 0.030925527765705958 -0.027712541880079451 -0.042878057063916446 -0.035768466679061334 -0.12022007029362783 0.002418214926937281 -0.033732534963060744 0.042075920689313033 0.0099296702560138783 0.047737367766591439 0.10957217628538921 -0.038005967058458372 -0.073905990942484998 0.25653253278754334 0.021948257961397242 -0.018602892133197116 -0.11402433775200274 0.15583948579544896 0.11740721590840729 0.38699635624978601 0.29541156322975592 -0.11936811446139386 -0.1839407507286164 -0.090733717510365658 -0.015078339732155719 -0.093350103584077249 0.18821947289392249
leaf_weight=366 143 104 432 434 159 145 1462 1092 191 259 527 111 487 114 155 698 445 650 943 168 149 591 1058 144 120 2104 382 94 1813 166 290 484 438 106 204 176 366 1270 250 156 746 2328 164 1188 234 277 381 441 146 2117 151 880 185 94 96 391 83 93 384 200 166 552
leaf_count=366 143 104 432 434 159 145 1462 1092 191 259 527 111 487 114 155 698 445 650 943 168 149 591 1058 144 120 2104 382 94 1813 166 290 484 438 106 204 176 366 1270 250 156 746 2328 164 1188 234 277 381 441 146 2117 151 880 185 94 96 391 83 93 384 200 166 552
internal_value=0 0.121374 -0.0268275 0.00580955 -0.07937 0.177766 0.0171692 -0.0613931 -0.0228883 0.207796 -0.0037516 0.126885 -0.0494767 0.171507 0.0268912 0.0401473 0.24553 -0.0497229 -0.124828 -0.114617 0.165137 0.00675237 -0.0423205 0.0763779 0.0586377 0.0555147 -0.0315988 0.280769 -0.0104545 0.108008 0.0187126 0.0213227 0.192989 0.241781 -0.0770534 0.0985802 -0.0563172 -0.0602591 -0.0845084 -0.0560943 -0.0185994 -0.0269692 -0.0213303 0.00671986 0.0130799 0.0790409 -0.00170903 -0.0457435 0.178319 0.0290743 -0.107114 -0.0975369 0.204875 0.192467 0.299546 0.313551 -0.0517788 -0.111746 -0.0703919 0.0169449 -0.0447358 0.20255
internal_weight=0 5654 25089 15476 9613 4065 12848 6889 1589 2556 6725 1509 5629 801 828 6123 1356 2628 2724 1260 1200 5601 5049 708 590 3566 1728 726 2568 270 2557 3033 687 249 761 564 557 2328 900 1124 1346 2721 1977 1859 393 453 1569 968 1051 2549 1781 1415 630 792 581 487 238 580 535 320 600 698
internal_count=30743 5654 25089 15476 9613 4065 12848 6889 1589 2556 6725 1509 5629 801 828 6123 1356 2628 2724 1260 1200 5601 5049 708 590 3566 1728 726 2568 270 2557 3033 687 249 761 564 557 2328 900 1124 1346 2721 1977 1859 393 453 1569 968 1051 2549 1781 1415 630 792 581 487 238 580 535 320 600 698
is_linear=0
shrinkage=0.05


Tree=3
num_leaves=63
num_cat=0
split_feature=196 9 16 160 12 160 14 161 10 161 90 160 142 11 10 161 142 133 89 149 160 10 160 67 112 11 101 26 163 90 90 16 90 17 160 112 133 161 90 165 140 9 133 67 78 133 161 69 3 154 10 67 112 163 10 112 90 89 100 90 133 103
split_gain=35429.5 16999.4 15804.1 4078.17 3410.9 2717.41 2283.82 2026.06 1738.71 1520.68 1206.87 993.02 894.02 824.523 775.703 765.18 681.537 626.862 531.039 523.73 511.022 499.773 491.978 479.251 434.687 427.238 423.511 414.405 393.128 378.368 378.331 361.638 357.831 357.435 347.664 346.496 327.746 327.65 318.823 300.643 291.478 276.418 275.552 266.074 263.981 262.144 255.403 255.294 248.777 240.051 236.964 273.619 229.01 226.656 226.277 223.656 218.999 213.982 231.664 213.915 213.099 209.759
threshold=1.0000000180025095e-35 0.25378701090812689 -0.25839425623416895 0.35656788945198065 1.0164374113082888 0.97539621591568004 0.67374292016029369 0.17909626662731173 1.3359777927398684 -0.53821593523025502 0.28425115346908575 1.3077570199966433 0.28457190096378332 -0.067839521914720521 -0.46679772436618799 0.40542602539062506 1.5695233941078188 0.90378260612487804 -0.61842742562293995 -1.289202809333801 1.0184617638587954 -0.15675289928913114 -0.64952924847602833 -1.251189589500427 -0.62177202105522145 0.067484222352504744 -0.16276728361845014 -0.022426861338317391 0.71521675586700451 1.4787174463272097 0.79217663407325756 -1.5639420747756956 -0.70100185275077809 0.10589386522769929 2.5855852365493779 0.49175961315631872 -0.38808323442935938 0.83568096160888683 0.60399940609931957 -0.073471482843160615 -0.6123443841934203 -0.42491737008094782 -0.56366637349128712 -0.8328326642513274 -0.61028867959976185 2.6618564128875737 -0.29005664587020868 0.50231325626373302 -0.43010874092578882 -0.027310473844408985 -0.027392936870455738 -0.8042469024658202 0.52189534902572643 -0.052896399050950997 -0.24928126484155652 -0.20806845277547834 1.1838300824165346 -0.26824107766151423 -0.69480440020561207 -1.1936283111572263 -0.33685000240802759 -0.31348042190074915
decision_type=2 2 2 2 2 2 2 2 2 2 2 2 2 2 2 2 2 2 2 2 2 2 2 2 2 2 2 2 2 2 2 2 2 2 2 2 2 2 2 2 2 2 2 2 2 2 2 2 2 2 2 2 2 2 2 2 2 2 2 2 2 2
left_child=2 5 4 9 7 6 10 17 12 22 19 23 26 37 52 31 20 24 32 -2 -9 27 41 -5 46 53 44 -21 36 43 60 -6 -8 -25 -16 45 47 42 40 -18 -20 -4 -11 -14 -3 -13 49 -10 -23 -1 -26 -52 -7 -24 -12 -35 -17 58 -33 -43 -15 -56
right_child=1 8 3 11 15 14 18 16 28 13 54 35 29 30 34 56 39 -19 38 21 -22 48 25 33 50 -27 -28 -29 -30 -31 -32 57 -34 55 -36 -37 -38 -39 -40 -41 -42 59 -44 -45 -46 -47 -48 -49 -50 -51 51 -53 -54 -55 61 -57 -58 -59 -60 -61 -62 -63
leaf_value=0.028413602143001648 0.29356225481263259 0.071957005433547563 0.085295893047925342 -0.11953084187709176 -0.12420597413226175 0.15077139614526425 0.34350107933503404 -0.06468634004891137 -0.053517476053518566 0.018913226166972913 0.11962487062996985 -0.03491418316708713 0.067533148803499241 0.05385824599363568 0.05878996387450075 -0.12874874839385173 -0.054357461058715265 -0.08782559690390665 0.27872452793519636 0.28474388621327434 -0.12812219476468445 0.067543904606244876 0.033180351884552955 0.006073071777055016 -0.025128860306594419 0.05985545246078703 0.03273420549664284 0.17598335912551913 -0.13119621464444325 -0.10852639094599825 -0.0074833044205839076 0.010298874061934802 0.24801154700338307 -0.0078452947464958244 -0.054462202318988497 -0.10692766308702857 -0.096003057955734578 -0.045550525343786334 0.15787243016801522 -0.15821835015198812 0.21071885397041609 0.12153451437294199 -0.015791847775680663 -0.025173095012502034 0.19460387905104568 -0.092140433825184165 -0.084505643127130381 0.044534818738784038 0.14933341276828319 -0.014300343860647387 0.00099548301944938039 -0.06559192793550099 0.056886584815386602 -0.0085446508511524948 0.0012109410985803827 -0.048035002297322701 -0.17385860124733765 -0.10438205220320335 -0.073602355759442406 0.036359927614586736 0.022386873818936965 0.091530876105742995
leaf_weight=446 87 80 1115 104 726 319 148 2050 180 1015 214 752 111 1176 273 671 85 461 213 101 376 139 840 1558 1320 1012 194 682 239 96 535 93 301 664 90 365 248 492 203 394 629 83 1310 255 98 273 102 105 284 1252 181 1039 82 531 119 724 454 551 705 660 993 140
leaf_count=446 87 80 1115 104 726 319 148 2050 180 1015 214 752 111 1176 273 671 85 461 213 101 376 139 840 1558 1320 1012 194 682 239 96 535 93 301 664 90 365 248 492 203 394 629 83 1310 255 98 273 102 105 284 1252 181 1039 82 531 119 724 454 551 705 660 993 140
internal_value=0 0.113689 -0.0250907 0.00967119 -0.0703583 0.168576 0.188469 -0.0523369 -0.0238343 0.027741 0.149952 -0.0300567 0.0262139 0.0104436 0.0836736 -0.113752 -0.0852965 -0.0323912 0.233982 0.174956 -0.074525 0.166372 0.0502572 -0.0140907 -0.0264999 0.0352131 0.0838971 0.190053 -0.0779048 -0.0202296 0.0301656 -0.0957323 0.279568 -0.0103628 0.0306899 -0.0650829 -0.0539791 -0.00848585 0.214365 -0.139814 0.227959 0.0695464 -0.000638718 0.00293984 0.139581 -0.0501683 -0.00769856 -0.0173725 0.122491 -0.00307706 -0.0398208 -0.0557096 0.131604 0.0170168 0.0815671 -0.0288144 -0.146971 -0.0803967 -0.0638181 0.0458965 0.0394542 0.0500683
internal_weight=0 5630 25108 14202 10906 4024 3260 7706 1606 9762 1766 4440 834 5521 764 3200 2905 4801 1494 1293 2426 1206 4241 3050 4340 2383 372 783 772 462 2704 2075 449 2946 363 1390 533 2817 1045 479 842 1858 2325 366 178 1025 1800 285 423 1698 2540 1220 401 1371 473 1388 1125 1349 798 743 2169 259
internal_count=30738 5630 25108 14202 10906 4024 3260 7706 1606 9762 1766 4440 834 5521 764 3200 2905 4801 1494 1293 2426 1206 4241 3050 4340 2383 372 783 772 462 2704 2075 449 2946 363 1390 533 2817 1045 479 842 1858 2325 366 178 1025 1800 285 423 1698 2540 1220 401 1371 473 1388 1125 1349 798 743 2169 259
is_linear=0
shrinkage=0.05


Tree=4
num_leaves=63
num_cat=0
split_feature=176 1 16 160 12 160 1 1 112 11 160 134 177 160 112 112 160 160 1 76 134 154 111 160 160 134 177 127 160 154 134 166 74 11 116 1 90 90 26 1 19 165 90 151 153 91 112 114 165 67 107 139 151 157 110 176 11 176 136 107 157 160
split_gain=34428.7 15020.9 14173.4 3411.1 3125.29 2470.91 1888.98 1640.76 1494.85 1379.89 992.814 974.224 794.021 741.56 736.973 692.904 673.152 641.438 620.707 574.259 571.609 564.111 447.238 445.289 435.332 422.076 405.151 408.189 403.601 398.839 365.917 342.706 382.113 330.58 313.323 311.155 307.782 301.647 584.988 299.657 295.872 292.579 282.312 276.882 261.256 257.374 253.916 252.505 252.457 252.42 249.74 244.824 242.667 238.447 231.511 224.696 220.577 213.885 212.625 211.063 211.024 205.924
threshold=0.73868209123611461 0.85753884911537182 -0.25839425623416895 1.0924106836318972 1.0164374113082888 0.97539621591568004 -0.298454999923706 -0.66768851876258839 0.59509560465812694 -0.59097015857696522 -0.36714883148670191 1.9987376332283022 2.0067495107650761 -0.56489229202270497 0.03771703131496907 0.61177805066108715 -0.168257862329483 -0.32005189359188074 -0.21256493777036664 0.028921186923980716 0.20118448883295062 -2.1520495414733882 -0.55588114261627186 0.49581663310527807 1.0924106836318972 -0.1412079259753227 2.0067495107650761 -0.72296094894409169 -0.55046480894088734 -0.8975592553615569 -0.56581479310989369 -0.64781430363655079 0.59856808185577404 -0.57416820526123036 -0.078689303249120698 0.70520451664924633 0.8074755370616914 0.28425115346908575 -0.022426829673349854 1.4182395935058596 -0.19783968478441236 0.1319217458367348 -0.033967178314924233 0.32529179751873022 -0.011160684283822773 0.28061138093471533 -1.0398868918418882 1.0286518931388857 -0.03340648487210273 2.2927142381668095 1.1173537969589236 0.047229081392288215 -0.50800222158431996 0.17896329611539843 -0.79332703351974476 -0.28232486546039576 -0.59097015857696522 -0.50562930107116688 -0.020879325456917282 -0.86830207705497731 0.42431014776229864 0.5154714584350587
decision_type=2 2 2 2 2 2 2 2 2 2 2 2 2 2 2 2 2 2 2 2 2 2 2 2 2 2 2 2 2 2 2 2 2 2 2 2 2 2 2 2 2 2 2 2 2 2 2 2 2 2 2 2 2 2 2 2 2 2 2 2 2 2
left_child=2 5 4 7 8 6 14 17 13 -3 29 12 22 35 28 33 19 42 50 26 44 -10 39 -23 40 49 27 -8 54 53 -24 -16 -33 59 -21 46 -19 38 -18 -11 -15 -22 -4 -14 52 -40 51 55 -48 -5 -7 -1 -12 57 -2 -31 -17 -9 -56 -6 -38 -35
right_child=1 9 3 25 15 18 16 10 21 11 20 -13 43 24 31 56 37 36 -20 34 41 23 30 -25 -26 -27 -28 -29 -30 47 -32 32 -34 61 -36 -37 60 -39 45 -41 -42 -43 -44 -45 -46 -47 48 -49 -50 -51 -52 -53 -54 -55 58 -57 -58 -59 -60 -61 -62 -63
leaf_value=-0.0050386280817635021 0.22906699846704359 -0.088205728857332744 0.070750658825070659 -0.017108664355124398 -0.066608917786705871 0.12998407806460746 0.23075733401086171 0.011844562205511172 -0.16244568490925379 0.14142245106087439 0.025933137166294112 -0.14704412071036427 -0.0051265627211132363 -0.034005813116378882 0.086973315883573196 -0.19992391297571468 0.23516131677973831 0.0297904332336438 0.012677486408101735 0.2846328582222673 -0.024579479536515469 -0.062615443400059964 0.095902767925101023 -0.11748891740657777 -0.097023853562414025 -0.080943212145523857 0.059406854498986861 0.13110515889846472 0.21789036864231923 0.028451931757712313 -0.0070058001194248072 0.15309595855705163 0.24189799839629764 -0.070633446849337866 0.16142766866768071 -0.040736755352716557 -0.068693835365474451 0.042575951785037904 0.035992184950290204 0.032713088344870835 -0.067187393756077796 -0.074094969074913794 0.030969901923891565 -0.10632220558262168 0.010147438097207626 0.12728242387355254 0.018492629685764261 0.067434473921674606 -0.027455845528985268 -0.075265102549857896 0.051595519031284259 0.11023211702319298 -0.035650735194227075 0.021694252937602129 0.27336582955262817 -0.024156518517114263 -0.135087303022006 -0.069948002207929155 0.37440486454437888 -0.1297943494756876 0.0095879049614447411 -0.12418294648793411
leaf_weight=91 138 500 1570 689 162 416 149 122 226 184 203 88 178 1969 105 159 87 2405 228 132 847 1272 121 522 472 885 121 335 889 2241 301 327 194 1131 86 785 136 181 134 97 1021 461 624 109 1694 183 488 381 771 256 135 93 752 256 140 223 776 231 86 735 234 214
leaf_count=91 138 500 1570 689 162 416 149 122 226 184 203 88 178 1969 105 159 87 2405 228 132 847 1272 121 522 472 885 121 335 889 2241 301 327 194 1131 86 785 136 181 134 97 1021 461 624 109 1694 183 488 381 771 256 135 93 752 256 140 223 776 231 86 735 234 214
internal_value=0 0.111371 -0.0253014 0.00758753 -0.0682291 0.162185 0.181162 0.0170065 -0.0510302 -0.0195598 0.00210079 0.0122802 0.0264609 -0.0379096 0.213983 -0.109963 0.137346 0.0392361 0.082093 0.166508 -0.0149962 -0.0879823 0.0550728 -0.0785904 -0.0523904 -0.0561269 0.141371 0.161835 0.236143 0.0216889 0.022505 0.169591 0.186212 -0.0948687 0.236148 -0.015405 0.0232584 0.0962913 0.120328 0.103939 -0.0453399 -0.0420392 0.0594407 -0.0436008 -0.00164023 0.0887321 -0.00161899 0.0295503 -0.00964177 -0.0328748 0.1108 0.0532243 -0.0225536 -0.0150269 0.280634 0.0236879 -0.146139 -0.0416702 0.311985 -0.118397 -0.0191832 -0.0791659
internal_weight=0 5644 25097 14210 10887 4066 3287 12380 7710 1578 7411 1078 990 5690 1879 3177 1408 4969 779 823 3957 2020 703 1794 3462 1830 605 484 1253 3454 422 626 521 2242 218 2228 2775 585 404 281 2990 1308 2194 287 2649 317 1443 2845 1259 945 551 184 955 609 364 2464 935 353 226 897 370 1345
internal_count=30741 5644 25097 14210 10887 4066 3287 12380 7710 1578 7411 1078 990 5690 1879 3177 1408 4969 779 823 3957 2020 703 1794 3462 1830 605 484 1253 3454 422 626 521 2242 218 2228 2775 585 404 281 2990 1308 2194 287 2649 317 1443 2845 1259 945 551 184 955 609 364 2464 935 353 226 897 370 1345
is_linear=0
shrinkage=0.05


Tree=5
num_leaves=63
num_cat=0
split_feature=196 1 10 13 160 1 161 13 160 160 16 160 161 112 160 98 161 161 160 160 160 166 160 161 13 132 161 133 13 137 112 161 176 20 49 111 112 140 162 98 93 72 57 1 115 105 23 112 160 39 162 41 111 166 17 164 34 105 118 92 7 142
split_gain=30043.5 13405.8 12274.6 3264.57 3042.26 2151.37 1496.8 1466.46 1365.39 1242.04 1115.63 1080.57 951.457 870.284 823.754 736.49 622.028 536.586 502.225 469.247 464.977 449.046 440.442 421.171 386.718 374.212 372.855 361.268 357.745 354.41 327.024 323.747 320.63 320.228 317.3 311.355 300.292 293.648 293.189 286.155 277.991 275.135 282.18 275.134 265.133 265.062 263.45 262.314 255.157 251.868 456.045 294.285 238.887 238.587 236.387 234.461 227.889 223.146 222.595 219.054 216.722 216.266
threshold=1.0000000180025095e-35 0.85753884911537182 -0.2747939527034759 -0.91536408662796009 0.35656788945198065 -0.298454999923706 0.83568096160888683 -1.1897861361503599 0.79112038016319286 -0.033645125105977051 0.79834175109863292 1.0184617638587954 1.1859129667282107 0.44795618951320654 2.2332341670989995 0.12606402486562732 0.63376566767692577 2.5564303398132329 -0.56489229202270497 2.0359908342361455 0.7212049961090089 -0.51256510615348805 -0.86798158288002003 0.63713985681533825 -1.1175495982170103 -1.8021063804626463 0.084005028009414687 -0.16451532393693921 -1.0004964172840116 -0.7406550645828246 0.4186383336782456 2.9500650167465214 2.1182576417922978 -0.044315075501799576 0.0087330872192978876 -0.79993307590484608 -1.0298027992248533 0.23749873042106631 -0.574558526277542 0.42582000792026525 -0.44610999524593348 -0.019618648104369637 -0.37480962276458735 -0.9782535433769225 -0.18976680189371106 -0.26313726603984827 -0.21909747272729871 -0.20806845277547834 -0.061683157458901398 0.053910274058580405 0.52958655357360851 0.93698719143867504 -0.25320304930210108 -0.65747493505477894 0.051904303953051574 0.13152725994586947 0.21556773036718371 -0.12464025244116782 0.48192444443702703 -0.14168057590723035 1.0000000180025095e-35 1.0470318198204043
decision_type=2 2 2 2 2 2 2 2 2 2 2 2 2 2 2 2 2 2 2 2 2 2 2 2 2 2 2 2 2 2 2 2 2 2 2 2 2 2 2 2 2 2 2 2 2 2 2 2 2 2 2 2 2 2 2 2 2 2 2 2 2 2
left_child=2 5 4 13 10 8 11 -3 23 15 16 18 20 24 17 29 22 33 36 49 28 -17 38 25 44 -2 52 46 35 45 -10 -8 34 -6 -31 -9 55 -15 40 -37 -1 -30 -43 -25 -4 -7 -27 -35 56 -11 51 -51 53 -12 -20 -5 -26 -23 -38 -55 -18 -39
right_child=1 7 3 6 14 9 31 12 30 19 26 -13 -14 37 -16 21 60 -19 54 -21 -22 57 -24 43 48 27 -28 -29 41 32 -32 -33 -34 47 -36 39 58 61 -40 -41 -42 42 -44 -45 -46 -47 -48 -49 -50 50 -52 -53 -54 59 -56 -57 -58 -59 -60 -61 -62 -63
leaf_value=0.044769593333576822 0.11677849736978617 -0.087531891109495108 -0.08097904985749789 -0.010467943217631526 0.0012131003455347037 0.29409721803923788 -0.08069249684608365 0.084191881703859772 0.13976233496052703 0.041880353753584502 0.019138460090212875 -0.096947835068092153 -0.080479068918582544 -0.1123268433613869 -0.083460357619380046 0.014360756401278992 -0.045846796901377135 -0.11914818044617879 -0.060029820139338712 -0.052042953541613535 -0.049896838910392108 0.19793409931320705 0.0092290456172506481 0.19723234423019687 -0.063809866873169627 0.21062303017329911 0.018962390163941176 0.19412593788574412 0.16989433645583449 0.12177719376420236 0.057451491627812316 -0.15284478909480881 0.067234229173303087 -0.0086755092630939352 0.22291065908751626 0.035078062190328156 -0.0067119251560548154 -0.1089484230560117 0.06034026613216692 -0.060933210651399429 -0.069242702480542692 0.131441492007871 0.02084313053751705 0.10381826609637297 -0.13754918457980592 0.17306186480821931 0.27116306005476598 -0.046679275838224163 -0.098126788988413316 0.16853736217020637 0.00073198058042236731 0.057846238497099203 0.037889699848036744 0.054894736861603691 -0.030991810659844438 0.081604667234269887 0.001943123700726196 0.083866225987122733 -0.042925391574628761 0.093876724311549503 0.027941033576648507 -0.17995912268114062
leaf_weight=122 91 511 403 128 1789 99 1244 143 478 317 221 604 214 700 539 130 579 125 972 82 133 81 3614 162 943 316 931 641 83 142 162 178 84 868 173 188 1679 147 804 132 95 95 147 155 429 85 429 953 488 191 84 88 1146 702 2520 150 153 92 568 744 120 407
leaf_count=122 91 511 403 128 1789 99 1244 143 478 317 221 604 214 700 539 130 579 125 972 82 133 81 3614 162 943 316 931 641 83 142 162 178 84 868 173 188 1679 147 804 132 95 95 147 155 429 85 429 953 488 191 84 88 1146 702 2520 150 153 92 568 744 120 407
internal_value=0 0.103252 -0.0236693 -0.0610268 0.0091023 0.151823 -0.0431939 -0.0172033 0.181697 0.107691 0.0254789 -0.0331956 0.0144606 -0.100105 -0.0256802 0.147949 0.0107922 -0.0173386 -0.0267937 0.0608619 0.0365322 0.0846416 0.0174237 0.204072 -0.0825513 0.215315 0.0464005 0.221772 0.0511307 0.180822 0.118947 -0.0897378 0.154234 -0.0138087 0.177389 0.0228822 -0.00980278 -0.133911 0.0464215 -0.00451763 -0.0051295 0.0913391 0.0643169 0.15162 -0.110167 0.238336 0.245523 -0.0285686 -0.0680369 0.0744899 0.102934 0.133675 0.0554787 0.0675645 -0.0390775 0.039205 -0.0546269 0.137386 -0.0158697 0.0749604 -0.03317 -0.161149
internal_weight=0 5728 25065 11713 13352 4082 8043 1646 2434 1648 9078 6621 1135 3670 4274 886 5334 3735 6017 762 921 303 4635 1794 2416 1477 3744 1386 788 583 640 1422 399 3610 315 463 2525 1254 1021 320 217 325 242 317 832 184 745 1821 1584 680 363 279 2813 1667 3492 278 1096 173 2247 1446 699 554
internal_count=30793 5728 25065 11713 13352 4082 8043 1646 2434 1648 9078 6621 1135 3670 4274 886 5334 3735 6017 762 921 303 4635 1794 2416 1477 3744 1386 788 583 640 1422 399 3610 315 463 2525 1254 1021 320 217 325 242 317 832 184 745 1821 1584 680 363 279 2813 1667 3492 278 1096 173 2247 1446 699 554
is_linear=0
shrinkage=0.05


Tree=6
num_leaves=63
num_cat=0
split_feature=176 11 10 12 111 111 1 161 161 161 1 161 161 1 161 16 17 111 111 161 176 10 138 109 161 119 176 134 11 176 67 8 154 154 154 166 94 176 112 165 112 154 111 109 96 150 115 111 165 154 98 11 119 25 102 171 79 111 155 136 120 94
split_gain=27936.8 12837.3 11912.6 2645.58 2196.98 1877.42 1667.1 1547.68 1399.69 1297.77 1046.73 845.884 845.319 819.429 607.186 560.612 552.739 547.997 530.092 523.851 518.322 486.756 469.97 676.685 418.995 393.179 389.962 362.37 360.324 354.911 351.553 346.166 333.029 310.322 304.382 301.304 361.448 293.516 292.042 287.884 285.634 330.602 270.858 269.514 285.855 265.98 263.183 261.956 261.624 259.806 258.614 253.029 253.693 242.433 238.892 230.594 229.895 217.717 211.565 209.701 208.935 205.21
threshold=0.73868209123611461 -0.47641426324844355 -0.2747939527034759 1.0164374113082888 0.78681728243827831 -0.036102004349231713 1.4101665616035464 -0.43552041053771967 -0.19993863254785535 -0.27013824880123133 -0.61044716835021962 1.6785880327224734 1.8435155153274538 0.094933830201625838 0.40542602539062506 0.78761139512062084 0.2485546097159386 0.92680504918098461 1.363736152648926 0.27447347342967993 2.2609835863113408 -0.061978749930858605 -0.29714328050613398 -0.33440037071704859 1.2447026371955874 0.48434624075889593 -0.49264024198055262 2.525073885917664 -0.60550156235694874 2.2609835863113408 1.2484143972396853 0.48675155639648443 1.646372973918915 0.92899981141090404 0.63124555349349987 -0.2903700172901153 -0.25577490031719202 2.0855920314788823 2.2464567422866826 -0.048354052007198327 -0.66325238347053517 0.35090196132659918 -1.0883925557136533 -0.1131779234856367 -0.90057355165481556 -0.82659927010536183 0.36915740370750433 -0.22301411628723142 -0.20170743018388745 -0.027310473844408985 0.35757724940776831 -0.59224167466163624 -0.05906132981181144 0.62882164120674144 0.25154261291027075 0.76941007375717174 0.95259714126586925 -0.84095191955566395 -0.21660767495632169 0.95498001575469982 0.58524957299232494 -0.038857392966747277
decision_type=2 2 2 2 2 2 2 2 2 2 2 2 2 2 2 2 2 2 2 2 2 2 2 2 2 2 2 2 2 2 2 2 2 2 2 2 2 2 2 2 2 2 2 2 2 2 2 2 2 2 2 2 2 2 2 2 2 2 2 2 2 2
left_child=2 6 4 7 9 8 11 30 22 16 20 25 17 55 51 26 33 21 24 32 -7 47 31 -24 35 37 56 -28 60 50 40 34 53 -1 54 58 -37 43 46 -25 49 45 -18 44 -2 -42 57 -9 -15 -4 -30 -5 -53 -6 -3 -10 -11 -17 -12 -51 -8 -41
right_child=1 5 3 14 19 10 28 12 13 15 18 -13 -14 48 -16 38 42 -19 -20 -21 -22 -23 23 39 -26 -27 27 -29 29 -31 -32 -33 -34 -35 -36 36 -38 -39 -40 61 41 -43 -44 -45 -46 -47 -48 -49 -50 59 -52 52 -54 -55 -56 -57 -58 -59 -60 -61 -62 -63
leaf_value=0.055460100215951727 0.14853192854863145 0.30893464250553371 0.037601290260262953 -0.12036310514619322 0.012275555104988504 0.16860217048321047 -0.044188192773252255 -0.014387446282714073 0.15927479491629853 0.021169832921989096 0.13623339926022218 -0.10591440560565274 -0.12540891456163489 0.14373497063225205 -0.12781906689964223 0.096336867692094305 0.068804094062228108 -0.096397907379186645 -0.006154327524383673 -0.062356885967474102 0.080286726303509456 -0.064032420033267187 0.094936165892404167 0.28582007317871688 -0.013006632293185423 -0.015611528148290844 -0.022088302811643191 -0.13014713412589415 0.020562248088976338 -0.10984455072020899 -0.070786736810331402 0.16011023900307522 -0.04888938734990609 0.014694157314873066 0.18082395466899071 0.23745904950248181 0.10454005902044097 0.014666895200984376 -0.063672630170009625 0.12839651641498304 -0.082957557755175326 -0.070143247881605766 0.012000512908489734 0.15004313560321669 0.043915725792658414 -0.0011540391397927363 0.005433739619425117 -0.050503350027196116 0.046866532194632465 -0.015091561488986422 -0.050495363991191249 -0.059206569843970318 -0.098737974317350083 -0.034570456895064036 0.22741559564749037 0.23853421203210973 -0.044799771886631173 0.033163675003158574 0.051050426817415319 0.06518419124651173 -0.14342339835419435 0.2286351211204227
leaf_weight=2819 84 303 406 361 912 739 80 1129 579 888 107 93 464 100 1129 164 232 686 173 881 215 2304 145 122 82 169 1805 81 226 138 269 89 530 560 86 81 140 181 95 85 115 350 2197 133 294 728 826 905 231 1060 295 1067 657 396 131 110 155 813 230 88 159 131
leaf_count=2819 84 303 406 361 912 739 80 1129 579 888 107 93 464 100 1129 164 232 686 173 881 215 2304 145 122 82 169 1805 81 226 138 269 89 530 560 86 81 140 181 95 85 115 350 2197 133 294 728 826 905 231 1060 295 1067 657 396 131 110 155 813 230 88 159 131
internal_value=0 0.0995262 -0.0228346 -0.0596268 0.00945002 0.151232 -0.00877177 -0.0450193 0.183057 0.0197048 0.113184 0.0372482 -0.0608322 0.1409 -0.0982728 0.000544585 0.0356276 -0.0548648 0.0714711 -0.0306575 0.148715 -0.0482936 0.222412 0.185447 0.0924597 0.0527281 -0.013171 -0.0267385 -0.0576659 -0.0385702 -0.016243 0.251686 -0.0154579 0.0487061 0.267316 0.107967 0.153365 0.069425 0.0217127 0.224221 -0.0108976 -0.0292983 0.0174306 0.0888043 0.0672101 -0.0123279 0.0262177 -0.0304609 0.0761816 0.00322633 -0.0196643 -0.0822662 -0.0742794 -0.00190492 0.284398 0.171969 0.011358 0.0437819 0.0781439 -0.00892852 -0.11026 0.18929
internal_weight=0 5731 25072 11718 13354 3879 1852 8504 2112 10635 1767 954 5488 1020 3214 4827 5808 5024 813 2719 954 4338 1092 483 640 861 2929 1886 898 659 3016 609 1838 3379 520 558 221 692 1898 338 2747 1193 2429 511 378 843 1803 2034 331 1554 521 2085 1724 1308 434 689 1043 977 337 1148 239 216
internal_count=30803 5731 25072 11718 13354 3879 1852 8504 2112 10635 1767 954 5488 1020 3214 4827 5808 5024 813 2719 954 4338 1092 483 640 861 2929 1886 898 659 3016 609 1838 3379 520 558 221 692 1898 338 2747 1193 2429 511 378 843 1803 2034 331 1554 521 2085 1724 1308 434 689 1043 977 337 1148 239 216
is_linear=0
shrinkage=0.05


Tree=7
num_leaves=63
num_cat=0
split_feature=196 10 13 160 160 11 9 112 161 11 161 161 160 9 160 89 158 160 161 9 176 118 112 153 163 9 98 90 158 170 73 90 107 103 90 145 55 9 49 89 161 90 98 140 161 163 166 89 166 166 166 115 152 112 160 129 114 176 176 146 118 11
split_gain=23846.6 11012.6 10962.7 2983.47 2041.69 1869.99 1864.79 1683.04 1345.21 1243.87 902.601 848.415 818.257 753.652 708.039 603.79 483.21 448.668 437.196 426.501 416.987 374.909 364.637 354.996 352.616 339.547 320.401 310.613 307.262 361.012 297.281 320.151 339.069 288.057 282.558 385.627 281.71 274.851 271.952 265.24 262.404 261.288 254.124 254.321 252.354 251.269 267.907 250.634 234.573 234.551 226.368 225.258 288.308 223.028 221.25 226.382 218.16 213.954 211.677 211.316 209.593 209.155
threshold=1.0000000180025095e-35 -0.027392936870455738 -0.49622072279453272 1.0924106836318972 1.0429036617279055 -0.056335503235459321 1.0507078170776369 0.61177805066108715 -0.19993863254785535 -0.54147255420684803 0.63713985681533825 1.4294793009757998 -0.71338823437690724 -0.40641732513904566 0.047616785392165191 0.019168911501765255 0.542364001274109 -0.75967392325401295 0.17002528905868533 -0.37483823299407953 2.1182576417922978 -0.23901985585689542 0.16831018030643466 0.059806957840919502 0.71521675586700451 0.11253415793180467 -0.0026928513543680306 -0.78055644035339344 -0.55514708161354054 -0.13669669628143308 0.42638257145881658 -0.79416161775588978 -0.12719902023673055 2.1029703617095952 0.43915313482284551 -0.32139274477958674 -0.38029640913009638 -0.28154431283473963 -0.3938965499401092 1.0220785140991213 -0.41613051295280451 2.6617094278335576 1.2602071762084963 -0.30777588486671442 0.65889930725097667 0.56420430541038524 -0.60917168855667103 -0.68271648883819569 -0.58018973469734181 -0.5029044598340987 -0.52222576737403859 -0.26276066899299616 0.38109183311462408 0.46335174143314367 -0.033645125105977051 0.28930900990962988 -1.1695429086685178 1.9807640910148623 -0.42817403376102442 -1.0699266195297239 0.13677118718624118 -0.3054280132055282
decision_type=2 2 2 2 2 2 2 2 2 2 2 2 2 2 2 2 2 2 2 2 2 2 2 2 2 2 2 2 2 2 2 2 2 2 2 2 2 2 2 2 2 2 2 2 2 2 2 2 2 2 2 2 2 2 2 2 2 2 2 2 2 2
left_child=2 4 7 5 8 10 11 9 16 51 17 15 44 33 25 20 30 27 56 53 28 -9 -5 26 47 59 -19 -4 36 -30 31 32 -2 42 35 -15 -3 -37 -33 -16 -17 58 43 -10 48 46 -23 -8 -7 -32 -36 52 -1 -6 57 -56 -14 -18 -12 -11 -20 -29
right_child=1 6 3 22 19 12 24 21 13 14 41 -13 18 34 39 40 54 23 60 -21 -22 45 -24 -25 -26 -27 -28 61 29 -31 49 38 -34 -35 50 37 -38 -39 -40 -41 -42 -43 -44 -45 -46 -47 -48 -49 -50 -51 -52 -53 -54 -55 55 -57 -58 -59 -60 -61 -62 -63
leaf_value=-0.08283759376010616 0.24263385283570887 0.0092863845098895611 0.063823546278414967 -0.036119688625070659 0.10617088894530298 0.024095025543940142 0.0070379690229580311 -0.074639802127742946 0.21043480231457967 -0.061082558024859825 -0.01576889865007448 -0.076046525660661515 -0.0083410687207769382 0.18425175547363454 -0.052467819409977801 0.069903145412092291 0.22381999424389032 -0.0034049731173967945 0.012397142493538767 -0.0093720643539393928 0.0088570320966351365 -0.12585488238688575 -0.080769067812670528 0.0091896049071131143 -0.10659003055121906 -0.042031397598236181 -0.042417305560905089 -0.013562413973980243 0.21296716080896419 0.0978823914346863 0.1702502307766616 0.056057846086170732 0.13775416253866987 0.07865728745651529 -0.0080368990861178508 0.14633744915677338 0.11784194125364651 0.03023088063071341 0.15302279363717677 -0.098957943440286911 -0.024292937143600282 -0.11771650800153313 0.092058400373274049 0.14959858105679882 -0.01134175249064354 -0.13323463562478174 -0.066156605281817674 -0.059839981845134893 0.078997155614577666 0.25866046725643577 0.088379495126313518 -0.099599764786626216 -0.019487602402652474 0.027988819192255168 0.1463356849057901 0.25532170437750717 0.035632829514147868 0.31329514336883252 -0.061936883063498011 -0.0051768991947641835 -0.029045863594473382 0.031908029113032442
leaf_weight=661 177 127 415 1235 374 233 219 1083 336 187 521 138 308 126 1137 104 137 1310 938 149 150 339 727 2251 247 1537 880 439 102 207 139 97 138 101 112 82 113 135 288 421 255 114 96 357 102 772 424 388 1191 167 133 1059 247 121 102 91 3320 135 475 1754 452 596
leaf_count=661 177 127 415 1235 374 233 219 1083 336 187 521 138 308 126 1137 104 137 1310 938 149 150 339 727 2251 247 1537 880 439 102 207 139 97 138 101 112 82 113 135 288 421 255 114 96 357 102 772 424 388 1191 167 133 1059 247 121 102 91 3320 135 475 1754 452 596
internal_value=0 0.0926803 -0.0210606 0.00495251 0.145439 0.0132998 0.000205133 -0.0629882 0.163054 -0.050199 -0.00466101 0.0405032 0.0325155 0.129337 -0.0370263 0.0557158 0.196917 0.00313145 0.0227632 0.064758 0.0827822 -0.0971935 -0.0526699 -0.00475234 -0.0562232 -0.0244748 -0.0190847 0.0272797 0.102966 0.135944 0.17737 0.159318 0.196761 0.158367 0.0853682 0.114668 0.0604466 0.0741755 0.128627 -0.0650391 0.00299301 -0.0460182 0.168554 0.179128 0.0645777 -0.113097 -0.0927 -0.0357056 0.0700197 0.218585 0.0442977 -0.0839182 -0.0656143 0.0870793 0.239148 0.197854 0.0318981 0.268346 -0.0377958 -0.0105684 -0.00107681 0.0126173
internal_weight=0 5643 25128 15507 3593 13545 2050 9621 2949 7003 7001 1196 6544 1478 5036 1058 1471 5891 5018 644 699 2618 1962 4441 854 3478 2190 1450 549 309 1006 700 315 890 588 343 240 217 385 1558 359 1110 789 693 1526 1535 763 607 1424 306 245 1967 908 495 465 193 3628 272 996 1941 1390 1035
internal_count=30771 5643 25128 15507 3593 13545 2050 9621 2949 7003 7001 1196 6544 1478 5036 1058 1471 5891 5018 644 699 2618 1962 4441 854 3478 2190 1450 549 309 1006 700 315 890 588 343 240 217 385 1558 359 1110 789 693 1526 1535 763 607 1424 306 245 1967 908 495 465 193 3628 272 996 1941 1390 1035
is_linear=0
shrinkage=0.05


Tree=8
num_leaves=63
num_cat=0
split_feature=196 16 16 133 142 161 1 190 17 161 133 133 134 133 165 11 134 1 131 133 17 133 157 142 133 153 15 142 24 134 71 154 162 62 120 96 119 133 154 1 0 145 161 133 166 141 122 7 122 76 129 115 67 133 74 164 54 108 44 120 101 161
split_gain=21335.2 10197.3 9450.25 2302.92 2279.9 1521.14 1480.61 1286.07 1136.14 901.696 825.66 735.986 687.733 667.586 664.833 555.067 510.84 506.33 482.648 479.495 459.932 439.619 405.302 330.213 328.187 313.605 303.761 301.157 300.839 294.221 288.004 286.428 284.341 279.477 375.618 279.396 303.65 279.355 264.354 252.78 251.251 246.277 273.253 244.148 236.396 233.984 223.69 269.298 219.246 216.062 215.6 246.739 213.799 213.15 211.676 210.501 209.483 208.826 205.897 200.762 206.374 198.566
threshold=1.0000000180025095e-35 -0.76316505670547474 -0.25839425623416895 1.0210323929786684 0.64786812663078319 0.084005028009414687 1.6743063330650332 1.0000000180025095e-35 -0.35526816546916956 1.4294793009757998 0.94284790754318248 -0.32289624214172358 1.06211394071579 0.72884064912796032 0.085569851100444808 -0.31251206994056696 2.3727785348892216 -0.298454999923706 1.1016288399696352 -0.30202732980251307 0.2485546097159386 -0.37834650278091425 0.28185068070888525 1.5695233941078188 -0.76829183101654042 0.37935678660869604 1.1937925815582278 0.81842437386512767 -0.025479317642748352 -0.55106148123741139 1.1582406163215639 0.33289450407028204 -0.36157460510730738 0.21934261918067935 0.4328914880752564 -1.0192132592201231 -1.1846320033073423 -0.78348675370216359 0.68012028932571422 1.7394193410873415 3.0289838314056401 -0.01517406804487109 -0.55274447798728932 2.5292487144470219 0.1636808440089226 -0.49669332802295679 -0.24391310662031171 0.54858131706714641 -0.88376852869987477 -0.54818195104598988 -0.61229014396667469 0.71872115135192882 -0.49220646917819971 2.6618564128875737 -0.55460780858993519 -0.34933243691921229 -0.47266849875450129 1.0000000180025095e-35 -0.11025620251893996 -1.1781254410743711 1.0890186429023745 0.36575977504253393
decision_type=2 2 2 2 2 2 2 2 2 2 2 2 2 2 2 2 2 2 2 2 2 2 2 2 2 2 2 2 2 2 2 2 2 2 2 2 2 2 2 2 2 2 2 2 2 2 2 2 2 2 2 2 2 2 2 2 2 2 2 2 2 2
left_child=2 6 4 5 8 11 9 10 40 19 12 20 17 28 26 -9 22 24 56 35 59 52 46 39 58 -14 38 53 41 31 -26 -19 -31 34 -21 -2 -37 57 -6 -16 48 49 -43 -12 -18 -38 -7 -48 -1 -10 -23 -52 -17 -5 -11 -20 -13 -24 -3 -4 -61 -8
right_child=1 7 3 27 14 16 61 15 13 54 43 18 25 -15 23 21 44 29 55 33 -22 50 37 -25 30 -27 -28 -29 -30 32 -32 -33 -34 -35 -36 36 45 -39 -40 -41 -42 42 -44 -45 -46 -47 47 -49 -50 -51 51 -53 -54 -55 -56 -57 -58 -59 -60 60 -62 -63
leaf_value=-0.0066624899888835243 0.15106370578613029 0.26809563503352596 0.083780561656539451 -0.024893935378587872 -0.047561199897646796 -0.0028598078234362578 -0.045324781889491295 0.021915715773761866 -0.0066230268766258498 -0.14346454315999066 0.10757828076202527 -0.054635830692485454 0.031818258249541882 -0.072353355407853578 -0.080551253627551764 0.10263713426892368 -0.12694547341498172 0.22637137887807379 0.11957210341995324 0.10436644621824714 0.024936682120204941 0.15652985534678387 0.10056794012965678 -0.13448360854771199 0.19082475504507276 0.14991573350682438 -0.096043384171834528 -0.084610062131978706 0.027904776772097947 0.1957411856906178 0.12376733088376005 0.12765289391869697 0.09913013346495074 -0.028592852395935682 -0.021351490402635384 0.11706726562400871 -0.0011981364286640052 0.0022814805420493583 -0.12954288541385858 -0.14020439816612107 -0.13223295469014751 0.022229765030934295 -0.021961172995261475 0.015112413615642604 -0.032532361376380513 0.084348975380765939 -0.046814340974657892 0.034973530730217778 -0.065878038754967505 -0.041583606782243626 0.095963497482986382 0.015778536688780483 0.20339285992904391 -0.070002730953283271 -0.031876592332360253 0.039278622482202687 0.0069586890720420213 0.016377006375416402 0.17483936635976238 0.041163140560797791 0.0909154979761604 -0.10299742991437127
leaf_weight=169 91 194 558 1370 1366 831 316 255 638 80 334 144 134 592 1012 85 128 158 95 125 2072 80 139 683 866 97 587 348 364 94 198 139 407 287 113 142 218 1340 106 216 133 589 861 91 138 126 911 113 2118 1441 264 151 141 324 91 582 3276 157 87 1344 247 284
leaf_count=169 91 194 558 1370 1366 831 316 255 638 80 334 144 134 592 1012 85 128 158 95 125 2072 80 139 683 866 97 587 348 364 94 198 139 407 287 113 142 218 1340 106 216 133 589 861 91 138 126 911 113 2118 1441 264 151 141 324 91 582 3276 157 87 1344 247 284
internal_value=0 0.087481 -0.020119 0.00686647 -0.0551494 0.0151715 -0.00789577 0.134803 -0.0377881 0.0226213 0.15204 0.0270983 0.163534 -0.0228875 -0.0853429 0.085355 -0.0112331 0.172373 0.0119999 0.0392021 0.0417514 0.107779 -0.00614121 -0.106588 0.191118 0.081474 -0.0656184 -0.0422398 -0.0153624 0.140754 0.178364 0.180245 0.117302 0.00461318 0.0446719 0.0706589 0.0555654 0.0119976 -0.0534766 -0.0910586 -0.0653994 -0.0198273 -0.00400677 0.0877997 -0.0780137 0.0301369 -0.022141 -0.0377815 -0.0615049 -0.0308582 0.0813495 0.0668106 0.165582 -0.0335282 -0.084164 0.0505692 0.00436225 0.0559501 0.239313 0.0579594 0.0488955 -0.0726441
internal_weight=0 5648 24992 14117 10875 12075 1873 3775 6905 1273 2799 8318 2374 4485 3970 976 3757 2143 4097 1102 4221 721 3491 1911 1345 231 2059 2042 3893 798 1064 297 501 525 238 577 486 1636 1472 1228 2420 3529 1450 425 266 344 1855 1024 2287 2079 495 415 226 1694 171 677 3420 296 281 2149 1591 600
internal_count=30640 5648 24992 14117 10875 12075 1873 3775 6905 1273 2799 8318 2374 4485 3970 976 3757 2143 4097 1102 4221 721 3491 1911 1345 231 2059 2042 3893 798 1064 297 501 525 238 577 486 1636 1472 1228 2420 3529 1450 425 266 344 1855 1024 2287 2079 495 415 226 1694 171 677 3420 296 281 2149 1591 600
is_linear=0
shrinkage=0.05


Tree=9
num_leaves=63
num_cat=0
split_feature=196 9 13 160 160 142 12 9 9 13 161 160 20 161 160 112 166 165 160 160 66 161 161 162 166 141 138 112 101 49 85 9 112 156 164 112 46 111 165 159 105 101 139 161 11 4 68 53 112 164 16 112 135 63 88 160 163 159 115 63 83 137
split_gain=19999.9 8927.41 8721.59 2377.95 1550.48 1501.26 1183.84 1183.28 1056.92 869.272 866.901 835.614 725.856 722.877 621.498 519.519 459.747 458.567 452.411 421.519 381.44 378.804 375.931 345.638 342.684 333.898 330.258 324.39 309.506 301.617 305.578 340.074 299.243 297.989 293.079 288.49 281.121 279.569 272.144 268.825 271.214 261.887 261.728 250.313 248.045 229.087 228.683 222.178 299.317 298.767 222.149 250.484 218.101 217.816 216.983 299.794 207.622 206.087 253.354 205.062 204.156 203.312
threshold=1.0000000180025095e-35 0.25378701090812689 -0.49622072279453272 0.047616785392165191 -0.033645125105977051 1.1403967738151553 1.0164374113082888 -0.37541945278644556 1.7799565196037295 -0.19428002089262006 0.050154922530055053 1.1946947574615481 -0.044315075501799576 0.79209348559379589 1.0184617638587954 2.2464567422866826 -0.64781430363655079 -0.015836496837437149 1.0429036617279055 -0.74396368861198414 -0.1120733544230461 0.76892486214637767 -0.48798461258411402 0.53607985377311718 -0.65747493505477894 -1.3551465868949888 -0.64481583237647999 0.49175961315631872 1.064890503883362 1.1755089163780215 -0.23148296773433683 -0.57699337601661671 -0.7617141306400298 0.18711802363395694 -0.63729569315910328 0.4186383336782456 -0.025961116887629029 1.1304680705070498 0.55817651748657238 0.61505416035652172 0.14383064955472949 -1.1289138197898863 0.64011329412460338 1.7912755608558657 -0.54147255420684803 -1.1770501136779783 -0.025946834124624726 0.13346802443265918 -1.0633872747421262 0.28685526549816137 -1.8747565746307371 -0.11176937073469161 0.032304539345204837 -0.01968277711421251 -1.3438150286674497 -0.069177594035863862 -0.098118070513010011 0.63433673977851879 -0.60393312573432911 0.29734450578689581 1.0420363545417788 0.14139831066131595
decision_type=2 2 2 2 2 2 2 2 2 2 2 2 2 2 2 2 2 2 2 2 2 2 2 2 2 2 2 2 2 2 2 2 2 2 2 2 2 2 2 2 2 2 2 2 2 2 2 2 2 2 2 2 2 2 2 2 2 2 2 2 2 2
left_child=2 4 5 9 10 6 14 18 13 43 20 12 42 32 22 19 53 39 29 24 26 34 54 -9 25 -11 -2 -13 47 30 31 -6 59 -18 -14 60 52 50 -15 -7 -41 -24 -5 61 -38 -21 -43 49 -49 -22 -8 -52 -34 -12 -1 -56 -47 58 -28 -3 -20 -4
right_child=1 8 3 11 7 17 37 23 -10 15 16 27 21 38 -16 -17 33 -19 35 45 28 -23 41 -25 -26 -27 57 -29 -30 -31 -32 -33 36 -35 -36 -37 44 -39 -40 40 -42 46 -44 -45 -46 56 -48 48 -50 -51 51 -53 -54 -55 55 -57 -58 -59 -60 -61 -62 -63
leaf_value=-0.069922946354013263 0.21693164653336194 0.15518684307418931 0.0064559911390169554 0.022201176557169178 0.16207177057518787 -0.094810234376651481 -0.14027662458469514 0.065491049936809848 -0.069025507475777334 0.073131205193513515 0.014558581855257097 -0.03517800749363386 0.057672119113709001 -0.020729188774307038 -0.088137977222779829 -0.070254046792529307 0.098175689001237187 -0.11609288787630029 0.12631936177957334 -0.015022195045630196 0.33663211304065693 -0.060854601424302247 -0.079966229871549763 -0.010286642023358342 0.060467151532125868 -0.018010762548185968 0.17119814312409865 -0.083761419556159622 0.12089309471833226 0.19860754856415513 0.15194996027002181 0.04212881076083002 0.027241647401343817 0.17906436576206411 -0.019561255143114117 0.017033135484510808 -0.037031593986803078 -0.14306313421658576 -0.12793231260288968 0.0060488656622879229 -0.089048416402425862 -0.01506984038933549 -0.029176655972658103 -0.092254516581112458 0.0489911853619713 0.0392530961786293 -0.045670069925503723 0.28385832775180003 0.17381157608142939 0.20855313994704341 -0.053104399703889742 -0.088472205972567289 0.13234969920829809 0.11800259831320779 0.0035457892414007836 -0.046345800993936363 0.016045888053818607 0.20046348995877983 0.085505831041183603 0.047808452231024097 0.041092154824082905 -0.028701179188475069
leaf_weight=149 159 84 1570 1736 91 339 115 495 577 149 140 1252 130 213 491 126 220 1180 282 361 87 566 364 216 1708 308 136 474 84 190 466 169 120 238 2192 124 213 151 82 194 122 951 289 81 138 1769 1709 82 258 98 1131 901 84 80 1406 383 2120 92 238 95 94 557
leaf_count=149 159 84 1570 1736 91 339 115 495 577 149 140 1252 130 213 491 126 220 1180 282 361 87 566 364 216 1708 308 136 474 84 190 466 169 120 238 2192 124 213 151 82 194 122 951 289 81 138 1769 1709 82 258 98 1131 901 84 80 1406 383 2120 92 238 95 94 557
internal_value=0 0.0848501 -0.0193578 0.00396319 0.124499 -0.0567941 -0.0471642 0.095113 -0.0148626 0.0210853 0.15718 -0.0185998 -0.00808418 0.0155075 -0.0344763 0.0302421 0.11171 -0.0974634 0.12154 0.0322178 0.182147 -0.0241774 -0.0291637 0.0424647 0.0501772 0.0117037 0.154616 -0.0485271 0.210363 0.142433 0.127699 0.0841742 0.0420779 0.14025 -0.0152328 0.0832339 0.0239265 -0.0772666 -0.0505782 -0.0638817 -0.0306666 -0.0401817 0.0148652 -0.006039 -0.00319211 0.023067 -0.0347328 0.224643 0.200443 0.268961 -0.0726303 -0.0687927 0.0705896 0.0522338 -0.0119678 -0.0071345 0.0266042 0.133301 0.116717 0.0982847 0.105042 -0.00274922
internal_weight=0 5645 24974 15388 4039 9586 7751 2127 1606 8749 1912 6639 4913 1029 5453 6541 678 1835 1416 6415 1234 2888 4962 711 2165 457 625 1726 609 916 726 260 734 458 2322 500 555 2298 295 655 316 3024 2025 2208 351 4250 2660 525 340 185 2147 2032 204 220 1938 1789 3889 466 374 179 376 2127
internal_count=30619 5645 24974 15388 4039 9586 7751 2127 1606 8749 1912 6639 4913 1029 5453 6541 678 1835 1416 6415 1234 2888 4962 711 2165 457 625 1726 609 916 726 260 734 458 2322 500 555 2298 295 655 316 3024 2025 2208 351 4250 2660 525 340 185 2147 2032 204 220 1938 1789 3889 466 374 179 376 2127
is_linear=0
shrinkage=0.05


Tree=10
num_leaves=63
num_cat=0
split_feature=196 16 1 133 1 1 90 161 161 133 111 1 134 161 162 1 177 90 165 101 90 133 80 92 157 115 177 162 90 161 141 171 116 1 165 30 157 137 11 123 198 16 66 74 158 95 165 105 152 129 3 63 77 183 133 161 84 61 119 133 61 50
split_gain=18484.2 8392.26 7721.44 1977.75 1749.34 1219.41 1160.24 1140.34 971.048 755.133 744.093 699.475 688.521 554.031 534.538 459.6 440.05 418.276 411.059 381.313 376.28 372.707 357.917 355.003 345.506 359.53 332.711 326.407 315.156 302.122 300.156 278.876 265.985 258.106 255.786 251.555 303.197 250.639 247.369 244.387 237.019 235.796 234.74 288.668 234.209 286.08 258.521 226.27 269.306 218.091 213.721 212.617 212.239 212.183 211.82 207.609 199.94 195.863 194.045 185.732 233.062 208.504
threshold=1.0000000180025095e-35 -0.25839425623416895 0.70520451664924633 1.0210323929786684 1.0091429948806765 1.6743063330650332 0.36801300942897802 0.27447347342967993 0.92451500892639171 -0.46771891415119166 -0.015778774861246344 -0.61044716835021962 1.9155136942863467 -0.22552114725112912 0.25479969382286077 -0.79516673088073719 2.0067495107650761 0.76310858130455028 0.017401537857949737 1.1481630206108095 2.2956818342208867 0.71497198939323436 0.60215878486633312 0.13183724135160449 0.34516599774360662 -1.0248514413833616 -0.28546307981014246 0.97639545798301708 -1.1389344930648801 0.58221060037612926 -0.70901030302047718 0.49053320288658148 -0.20184360444545743 -0.39187592267990107 0.19758712500333789 0.52337610721588146 -1.2614601254463194 0.36617484688758856 -0.15744986385107038 0.79837319254875194 1.0000000180025095e-35 0.99918586015701305 -0.11207319796085356 0.14427122473716739 0.19440014660358432 -0.67821401357650746 -0.20170743018388745 0.17366087436676028 0.71941065788269054 -0.39749731123447413 0.60711646080017101 1.0417844057083132 -1.753416061401367 1.0000000180025095e-35 2.5292487144470219 -0.022748867049813267 -0.83008423447608937 -0.86764317750930775 1.8212578296661379 -0.90333566069602955 -1.6233507394790647 -0.019604916684329506
decision_type=2 2 2 2 2 2 2 2 2 2 2 2 2 2 2 2 2 2 2 2 2 2 2 2 2 2 2 2 2 2 2 2 2 2 2 2 2 2 2 2 2 2 2 2 2 2 2 2 2 2 2 2 2 2 2 2 2 2 2 2 2 2
left_child=1 4 6 7 8 12 10 9 14 19 13 37 16 24 28 56 22 30 57 40 38 31 35 50 25 -2 -17 44 -1 54 52 34 -27 51 -13 36 -4 -8 -9 -28 41 -3 43 -26 -12 -46 -47 48 -40 -16 53 -21 -6 -15 -5 -37 -11 -10 -51 60 -30 -61
right_child=2 3 5 29 17 -7 11 20 18 15 27 21 -14 23 49 26 -18 -19 -20 33 -22 -23 -24 -25 42 32 39 -29 59 -31 -32 -33 -34 -35 -36 55 -38 -39 47 -41 -42 -43 -44 -45 45 46 -48 -49 -50 58 -52 -53 -54 -55 -56 -57 -58 -59 -60 61 -62 -63
leaf_value=0.031740831305275989 0.24027958925970663 0.031715960558461619 0.13792222409471297 -0.017708544189200922 -0.099381082819112759 -0.05997969824575157 0.16925798269921685 -0.02442521003884629 0.0045526995852219762 -0.029755720293248911 0.091677230868155102 0.069354923725727921 -0.10341753298446427 0.15718871329417539 -0.024025281501891919 0.0099198107462774906 -0.011672660560931991 -0.11437466607158005 -0.10029565535643266 0.13662991584847048 -0.070460412550962623 -0.034076498775728686 -0.0090728876413050333 0.16833316457649425 0.1946365723712461 0.17331397562821635 -0.01209646161091963 0.028891844567417287 -0.081685058540843278 -0.072764783106053499 -0.08480088783977148 0.14235756657308904 0.10138625086271461 0.032986740278137139 -0.027305499322937424 0.18576732232385362 0.036171712540636308 0.092075403529053704 0.0057125983464153601 -0.075226797807671053 0.0030104724021656004 0.064068627892315655 0.14688047170550447 0.29490429559839887 0.19578292142826026 0.19137396002278356 0.097416459620341733 -0.015666074569315111 0.066439489916085476 -0.058066339739420596 0.027242335705155142 0.047430337487550191 -0.035288340294720631 0.070431170088960451 -0.062994176234013322 0.071605631368660314 0.03455639431024049 -0.062644714386602934 -0.13699353806580342 0.049628746647355601 0.0037743888614539703 -0.031517064642631758
leaf_weight=269 116 2134 91 1216 160 618 171 1110 153 129 506 226 94 142 492 2337 323 765 781 217 250 137 160 259 153 305 704 117 88 480 1564 84 224 173 98 80 375 276 656 196 501 766 84 138 158 93 349 670 253 1281 95 97 673 141 328 80 1879 371 83 81 844 3260
leaf_count=269 116 2134 91 1216 160 618 171 1110 153 129 506 226 94 142 492 2337 323 765 781 217 250 137 160 259 153 305 704 117 88 480 1564 84 224 173 98 80 375 276 656 196 501 766 84 138 158 93 349 670 253 1281 95 97 673 141 328 80 1879 371 83 81 844 3260
internal_value=0 -0.0178301 0.082011 0.00762294 -0.0508526 -0.00289701 0.121944 0.015292 -0.0379964 0.0240096 0.13801 0.0752847 0.0264257 0.159857 -0.0299767 0.0116295 0.0374441 -0.0821681 -0.0773055 0.0407087 -0.0117963 0.037237 0.0576335 0.123207 0.182725 0.160448 -2.64138e-05 0.108396 -0.0207355 -0.0381148 -0.0718829 0.0611976 0.142891 0.0820937 0.0401033 0.0746898 0.0560775 0.121644 -0.00633795 -0.0258572 0.0347789 0.0402652 0.220975 0.242288 0.116799 0.137957 0.117236 0.00637454 0.0226255 -0.0525865 0.0922378 0.109114 -0.0476155 0.114021 -0.0273355 0.128798 0.030421 -0.0430174 -0.0628825 -0.0240409 -0.00429728 -0.0295468
internal_weight=0 24961 5693 14096 10865 1821 3872 12072 7703 9133 2880 992 1203 1657 6398 5245 1109 3162 1305 3888 2939 545 786 637 1020 645 3237 1223 4542 2024 2397 408 529 487 324 626 466 447 2689 900 3401 2900 375 291 1106 600 442 1579 909 1856 378 314 833 283 1544 160 2008 524 1364 4273 932 3341
internal_count=30654 24961 5693 14096 10865 1821 3872 12072 7703 9133 2880 992 1203 1657 6398 5245 1109 3162 1305 3888 2939 545 786 637 1020 645 3237 1223 4542 2024 2397 408 529 487 324 626 466 447 2689 900 3401 2900 375 291 1106 600 442 1579 909 1856 378 314 833 283 1544 160 2008 524 1364 4273 932 3341
is_linear=0
shrinkage=0.05


Tree=11
num_leaves=63
num_cat=0
split_feature=177 1 13 160 142 160 17 1 160 1 1 90 160 190 90 16 112 138 142 161 162 157 90 177 162 182 162 110 16 57 90 164 97 161 71 90 139 111 160 118 105 113 16 119 22 112 151 54 141 161 177 164 158 25 105 92 54 158 53 4 177 111
split_gain=15454.8 7405.15 7230.25 1785.15 1747.98 1252.81 1015.49 991.518 787.592 634.456 614.341 596.053 544.025 516.843 472.888 431.438 429.213 422.492 421.213 412.093 385.333 375.708 434.539 341.287 320.016 319.053 390.487 303.082 298.436 286.782 278.174 359.58 271.579 264.24 272.242 259.454 256.568 255.459 252.122 247.669 245.87 241.109 239.92 230.244 222.927 215.958 207.099 204.246 220.504 201.065 200.545 208.623 200.082 197.679 196.346 190.656 190.077 230.638 188.549 185.295 185.158 177.842
threshold=1.3851941823959353 0.85753884911537182 -0.33742311596870417 0.74509701132774364 0.96909138560295116 0.97539621591568004 -0.35526816546916956 -0.32058335840702051 -0.57909709215164173 1.5104752182960512 -0.21065732836723325 0.45865927636623388 -0.56489229202270497 1.0000000180025095e-35 1.2107124924659731 0.78761139512062084 0.16831018030643466 0.35461296141147619 1.6479172110557558 0.76892486214637767 0.271621584892273 0.17896329611539843 0.79217663407325756 -0.35677610337734217 0.86052981019020092 0.27993762353435164 0.061815394088625915 -0.82496327161788929 -1.5639420747756956 0.020956873893737796 -1.0088934302330015 0.12589174509048465 -0.87661859393119801 -0.51096072793006886 -0.24867358058691022 0.91877546906471264 -1.0067756772041319 -1.0011483430862425 2.5855852365493779 -0.76871997117996205 -1.6161459684371946 0.61707493662834179 -1.5955599546432493 0.48434624075889593 -0.11701878905296324 -0.34217014908790583 0.36438362300395971 0.63107097148895275 -1.3798184990882871 0.60746672749519359 -0.28546307981014246 0.3208692222833634 0.5978565812110902 1.3566159605979922 -0.35795429348945612 -0.059879316017031663 -0.39068970084190363 0.012033687904477121 0.11451293155550958 1.0000000180025095e-35 1.8265203833580019 -0.21575444936752317
decision_type=2 2 2 2 2 2 2 2 2 2 2 2 2 2 2 2 2 2 2 2 2 2 2 2 2 2 2 2 2 2 2 2 2 2 2 2 2 2 2 2 2 2 2 2 2 2 2 2 2 2 2 2 2 2 2 2 2 2 2 2 2 2
left_child=2 5 4 8 6 7 28 17 21 14 -7 13 30 25 33 19 38 27 20 50 42 22 40 -17 -14 26 -9 52 -1 -27 31 -8 -29 -3 46 59 -11 -38 -5 -34 -4 -18 -6 -12 -15 53 54 48 -23 -39 51 -10 -2 61 -35 -49 57 -13 -33 60 -19 -30
right_child=1 9 3 16 18 10 12 11 15 36 43 56 24 44 -16 23 41 35 -20 -21 -22 47 -24 -25 -26 29 -28 32 45 -31 -32 58 39 34 -36 -37 37 49 -40 -41 -42 -43 -44 -45 -46 -47 -48 55 -50 -51 -52 -53 -54 -55 -56 -57 -58 -59 -60 -61 -62 -63
leaf_value=-0.087899091323492551 0.11754090470170582 0.08090614752333955 0.10237016247361751 -0.0056827006163872214 -0.1038107085365893 0.084108880583312284 -0.020111656633243366 0.14123622645052028 0.017572383077828119 0.017258476395075766 0.055228388942914243 -0.035875253544066669 -0.029581422857050552 -0.0087517475361718992 -0.073889511821895584 0.034743119179324794 -0.041021958768898109 0.11145157627569538 -0.10988100079815014 -0.042283778838225664 -0.098327674614176644 0.090367275133750674 -0.058676688504287727 0.00024161861818880814 -0.079635822718434987 0.23550933094308443 0.060337619104553888 0.26088686526402255 -0.010231442671525624 0.12086612523801904 -0.0099856999230010096 0.035953649192431381 0.2301594705620226 0.021323318526291643 -0.028246312340991054 0.049963258110864633 0.0079758245787889866 -0.053578965182201288 -0.056952607614873633 0.15710878865164191 0.020992839830867593 -0.09959457884956395 -0.040388251856426166 -0.048310369619998191 0.089936184189391186 -0.063894270067010775 -0.023093383560205967 0.050676395782378897 0.035289106112657613 -0.11882872686407771 -0.016715767004238619 -0.021940939891535841 0.18755593790946479 -0.092946245232311236 0.11977556110659436 0.11953540192932505 0.098505716074197641 0.06530933728576091 0.14205282568070568 0.086072605180782913 0.20680672102475472 -0.053189993624128178
leaf_weight=660 409 192 99 1432 176 539 131 399 1948 126 82 127 3358 106 127 1844 637 97 860 592 644 206 167 1173 353 115 239 100 626 105 1870 82 148 99 230 134 112 361 288 555 1477 243 981 155 124 1307 80 229 1550 176 922 403 137 127 104 180 80 101 86 133 109 392
leaf_count=660 409 192 99 1432 176 539 131 399 1948 126 82 127 3358 106 127 1844 637 97 860 592 644 206 167 1173 353 115 239 100 626 105 1870 82 148 99 230 134 112 361 288 555 1477 243 981 155 124 1307 80 229 1550 176 922 403 137 127 104 180 80 101 86 133 109 392
internal_value=0 0.0751921 -0.0166824 0.00838023 -0.0454811 0.111659 -0.034945 0.125412 0.0173423 -0.0154405 0.054612 0.0936825 -0.022719 0.111067 0.0148759 0.00716159 -0.0288096 0.149714 -0.0810802 -0.00389808 -0.0673193 0.0352686 0.0179844 0.0213312 -0.0343461 0.128912 0.110953 0.163985 -0.0580423 0.180896 -0.00282299 0.0419455 0.183567 0.0308816 0.012137 0.108975 -0.0479909 -0.0606671 -0.0142731 0.172526 0.0261141 -0.0572111 -0.0500484 -0.0124576 0.0444482 -0.0500006 0.0449735 0.04918 0.0417581 -0.0749918 0.00304444 0.0107964 0.135149 -0.0341325 0.0718207 0.0810151 0.0322406 0.00893481 0.0903483 0.132264 0.162007 -0.0267819
internal_weight=0 5601 25043 13390 11653 3994 8992 3218 10790 1607 776 1396 5880 1088 832 6882 2600 1822 2661 3865 1801 3908 1743 3017 3711 858 638 1349 3112 220 2169 299 803 705 513 473 775 649 1720 703 1576 880 1157 237 230 2452 283 2165 1756 537 3273 2351 546 1145 203 409 308 228 168 339 206 1018
internal_count=30644 5601 25043 13390 11653 3994 8992 3218 10790 1607 776 1396 5880 1088 832 6882 2600 1822 2661 3865 1801 3908 1743 3017 3711 858 638 1349 3112 220 2169 299 803 705 513 473 775 649 1720 703 1576 880 1157 237 230 2452 283 2165 1756 537 3273 2351 546 1145 203 409 308 228 168 339 206 1018
is_linear=0
shrinkage=0.05


Tree=12
num_leaves=63
num_cat=0
split_feature=176 9 13 11 160 160 161 142 161 111 160 10 90 90 10 9 97 109 83 142 90 122 160 85 166 131 177 162 152 11 11 159 77 117 105 142 137 166 136 161 167 9 166 111 133 76 164 99 58 58 177 121 187 158 134 142 98 0 165 95 141 158
split_gain=13988.7 6218.29 6148.2 1808.18 1654.54 1331.13 1226.62 882.828 872.54 676.719 654.095 626.546 540.134 539.108 477.839 432.578 420.592 478.59 401.748 398.837 395.357 372.733 362.59 341.275 378.528 338.415 333.288 330.988 381.481 330 293.312 296.161 284.732 283.491 278.677 275.871 270.235 252.925 254.969 251.583 247.135 305.735 238.593 238.124 233.177 230.425 216.459 209.242 207.898 257.399 206.431 202.486 202.209 200.898 199.234 196.367 216.028 195.639 194.533 191.994 175.377 174.863
threshold=0.73868209123611461 0.069986160844564452 -0.2254977077245712 -0.51352989673614491 -0.089928157627582536 0.97539621591568004 0.87939468026161205 0.72296017408370983 0.093136336654424681 1.00907838344574 1.1946947574615481 -0.24928126484155652 0.85375487804412853 1.0828567743301394 -0.46679772436618799 1.3953190445899966 -0.86378616094589222 -0.75602898001670826 -0.22077003866434095 -0.33343525230884546 -0.56943079829215992 -0.97829574346542347 -0.74396368861198414 0.49015960097312933 -0.64781430363655079 0.23011049628257754 -0.37923660874366755 0.19124521315097812 -0.0079669880215078575 -0.54537788033485401 -0.59224167466163624 0.57589206099510204 -0.59920927882194508 0.096697375178337111 0.17366087436676028 0.85860842466354381 0.0094981659203767794 -0.58985039591789235 0.61564403772354137 2.9500650167465214 -0.18368235975503919 -0.45820562541484827 0.1636808440089226 2.8448199033737187 -0.69057172536849964 1.0000000180025095e-35 0.015849944204092029 -1.0884807705879209 -1.2385994791984556 0.23580448329448703 1.8368551731109621 0.80390459299087536 0.15237903955858204 0.079063102602958693 2.525073885917664 -1.2874276638031004 -0.71921539306640614 0.32752521336078649 0.47985211014747625 -0.78254443407058705 -0.10658297687768935 0.97831141948699962
decision_type=2 2 2 2 2 2 2 2 2 2 2 2 2 2 2 2 2 2 2 2 2 2 2 2 2 2 2 2 2 2 2 2 2 2 2 2 2 2 2 2 2 2 2 2 2 2 2 2 2 2 2 2 2 2 2 2 2 2 2 2 2 2
left_child=2 5 3 13 12 8 9 15 16 20 19 23 22 21 -7 18 17 -2 57 42 48 -1 37 24 -10 40 46 28 32 58 -23 -32 -20 -19 -26 43 -33 47 -39 -8 41 -18 -6 -12 51 -24 -21 -4 -5 -50 -31 -22 -13 -11 -14 -44 -57 -3 -9 -27 -61 -28
right_child=1 7 4 6 10 14 39 29 11 53 35 52 54 -15 -16 -17 25 33 27 26 44 30 45 -25 34 59 61 -29 -30 50 31 36 -34 -35 -36 -37 -38 38 -40 -41 -42 -43 55 -45 -46 -47 -48 -49 49 -51 -52 -53 -54 -55 -56 56 -58 -59 -60 60 -62 -63
leaf_value=0.030966522342053122 0.12044630337695093 0.053335789585726358 0.088730817278750873 -0.046771204609180966 0.002336462781040462 0.082657390104563466 -0.061215756423632695 -0.045451784419445737 0.024702039545238589 -0.08751256518664588 -0.018058239107360066 -0.0036755029732449258 -0.0065255438601366919 -0.11217846478235341 0.0020056233577331094 -0.024197243344358476 0.13572555852675536 0.31075199063351094 0.017969241795826717 0.021851398114388892 -0.0022452647600906465 -0.10118641203564052 0.0061518463450780545 0.18646015769958643 0.14155992648339535 0.20928468778036902 -0.043563450854627886 -0.039380803025955424 -0.03884720722285618 0.057213204372825122 -0.077646621569837343 -0.023971181474981028 0.1360423016939297 0.19440857191903615 0.067007096191111101 -0.089894591951898625 -0.069206109580916525 0.048165481321452076 0.097076761558216873 -0.1204321973482691 0.1581049356172706 0.059185364191937651 0.0832433463465828 -0.072654170600518625 -0.03234074480021068 0.032949461850085682 -0.017308792291640337 0.0036296774027792245 0.018677714253070809 -0.016344359911373063 -0.034335448892563208 -0.071965820705938086 0.08511108449688945 -0.036324061407138536 -0.088750990406609026 -0.012235498702237054 0.046488197811516419 0.13859367523094998 -0.11132431886724131 0.18856927369124743 0.12833006166293878 -0.0018588946529088041
leaf_weight=105 154 134 87 210 1248 426 1358 446 147 430 979 201 451 637 323 290 216 80 88 758 1317 467 1335 123 354 129 894 157 85 111 1067 808 122 156 195 221 559 1252 339 207 173 331 179 251 2972 2012 660 424 1370 850 138 113 94 347 88 252 413 136 150 159 519 350
leaf_count=105 154 134 87 210 1248 426 1358 446 147 430 979 201 451 637 323 290 216 80 88 758 1317 467 1335 123 354 129 894 157 85 111 1067 808 122 156 195 221 559 1252 339 207 173 331 179 251 2972 2012 660 424 1370 850 138 113 94 347 88 252 413 136 150 159 519 350
internal_value=0 0.070789 -0.0164012 -0.0405807 0.00901549 0.107596 -0.0287448 -0.00413258 0.122347 -0.0204517 -0.00907739 0.0871297 0.0277647 -0.0703836 0.0478886 0.0273654 0.142804 0.189206 0.0480836 -0.000107516 -0.0154216 -0.0615218 0.032488 0.109634 0.0960252 0.130938 -0.0129469 0.0192352 0.0504506 -0.0418603 -0.064872 -0.0578986 0.08662 0.233983 0.115106 -0.0384605 -0.0424762 0.0487653 0.0585958 -0.0690586 0.105964 0.0894381 0.0162276 -0.0292084 -0.024358 0.0222628 0.00362105 0.0181428 0.00076514 0.00526598 0.00646191 -0.00776279 0.0246181 -0.0646664 -0.0199734 0.0367594 0.024229 0.0963344 -0.0620547 0.153198 0.14249 -0.031835
internal_weight=0 5637 25010 12817 12193 3780 9174 1857 3031 7609 6205 1114 5988 3643 749 1012 1917 390 722 4754 6832 3006 5449 819 696 1527 2662 452 295 845 2901 2434 210 236 549 1451 1367 2102 1591 1565 720 547 2092 1230 4402 3347 1418 511 2430 2220 249 1430 295 777 539 844 665 270 596 807 678 1244
internal_count=30647 5637 25010 12817 12193 3780 9174 1857 3031 7609 6205 1114 5988 3643 749 1012 1917 390 722 4754 6832 3006 5449 819 696 1527 2662 452 295 845 2901 2434 210 236 549 1451 1367 2102 1591 1565 720 547 2092 1230 4402 3347 1418 511 2430 2220 249 1430 295 777 539 844 665 270 596 807 678 1244
is_linear=0
shrinkage=0.05


Tree=13
num_leaves=63
num_cat=0
split_feature=196 1 11 161 1 111 12 133 161 133 177 162 120 166 1 165 11 118 48 1 165 140 133 131 198 23 48 165 98 2 167 23 137 99 10 158 178 1 98 189 162 94 23 159 131 112 85 55 165 131 97 96 133 25 165 50 177 7 73 141 177 161
split_gain=12829.2 6100.74 5941.77 1828.53 1020.8 955.777 742.725 741.451 720.837 639.119 574.356 550.16 536.494 573.854 495.835 395.456 395.237 342.413 330.231 329.293 318.976 340.737 313.312 306.227 297.489 292.386 289.396 281.325 265.625 264.788 273.614 260.867 272.358 255.617 247.58 247 260.758 239.344 236.004 230.501 222.423 256.894 218.988 244.81 216.101 233.159 262.309 213.365 208.937 225.284 379.205 206.852 204.152 217.708 202.76 198.073 196.173 192.353 189.585 185.259 178.746 176.982
threshold=1.0000000180025095e-35 0.45828758180141455 -0.46781650185585016 0.014557579066604378 1.4101665616035464 -0.28142298758029932 -0.4455475509166717 1.0210323929786684 0.39017015695571905 0.8652506172657014 2.0171893835067753 -0.044278157874941819 -1.2191276550292967 -0.84102740883827198 -0.31633692979812617 0.25413027405738836 -0.57416820526123036 -0.15524883568286893 -0.022645425982773301 0.13109300285577777 -0.19696575403213498 0.62474709749221813 -0.54290604591369618 1.1016288399696352 1.0000000180025095e-35 -2.1333225965499873 -0.02264554891735315 -0.011905793100595473 -1.6787583231925962 -0.023059080354869362 0.017542107030749324 0.031976450234651572 1.2647938728332522 -0.14548047631978986 -0.31162559986114496 -0.081060640513896928 -0.19360292702913282 -0.85570126771926869 0.26958793401718145 1.0000000180025095e-35 0.12671732902526858 -1.1947242617607114 1.3077066540718081 0.60532489418983471 0.075061451643705382 0.34658442437648779 0.57636737823486339 0.55925211310386669 0.298062413930893 -0.64541393518447865 -0.17596783488988874 0.44963811337947851 -0.79044315218925465 -0.26906077563762659 -0.21300428360700605 -0.019604659639298912 1.8368551731109621 0.54858131706714641 -0.44357955455780024 1.9772616028785708 -0.064516030251979814 0.95432597398757946
decision_type=2 2 2 2 2 2 2 2 2 2 2 2 2 2 2 2 2 2 2 2 2 2 2 2 2 2 2 2 2 2 2 2 2 2 2 2 2 2 2 2 2 2 2 2 2 2 2 2 2 2 2 2 2 2 2 2 2 2 2 2 2 2
left_child=2 5 8 6 11 12 7 22 16 14 28 20 -2 -14 25 -10 -1 29 48 -19 -3 35 -4 60 26 -5 -8 58 -7 -15 -31 -12 33 -33 -26 36 -22 -11 51 57 41 -28 43 52 55 46 -46 -35 49 -13 -51 -6 -18 -54 -47 -30 -20 -27 -16 -39 -24 -29
right_child=1 4 3 9 38 10 24 -9 15 37 31 18 13 17 27 -17 42 19 56 -21 21 -23 23 -25 34 39 40 61 44 30 -32 32 -34 47 -36 -37 -38 59 -40 -41 -42 -43 -44 -45 45 54 -48 -49 -50 50 -52 -53 53 -55 -56 -57 -58 -59 -60 -61 -62 -63
leaf_value=-0.075936203850720391 0.20741239956995075 0.13888850189229804 0.043352343733618161 -0.079117095672820562 0.038115452721139184 0.18904665494976491 0.093643315702174712 -0.021269407333876608 -0.062391628335399164 -0.015831929230541889 -0.013605215179799882 -0.013043985269210896 0.025638719641107449 0.08037894419808482 0.041120407688489236 -0.10518107581030411 -0.021252352231130027 0.12698492388065735 0.015008437764146398 0.028510053423622502 -0.0052121539337168683 0.11464330503627557 0.016302472170183886 0.049723715423655196 0.0088171560292811309 -0.0066150408813201826 0.050003388772643036 -0.028995996624167897 0.10329442924683192 0.15996015029857716 0.25668592763719433 0.02726163245920666 -0.016488676705560729 0.16848088163098787 -0.053614996031475938 -0.046134458035863309 0.10837674318156781 -0.054479625686999947 -0.057917951557706106 0.040067361206684617 -0.016628757805239685 0.0020721502809701205 -0.087864216328526784 -0.016286332153902579 0.15085082756596901 0.12774987248837896 0.085189139160451358 0.06573104901703529 -0.023201667483518009 0.16703146475735825 0.023368564759838593 -0.043339621559656441 -0.024111226700700872 -0.066073883649632834 0.046171753448707845 0.030397169781743606 -0.073020828796204459 0.039542993257224206 -0.017738832430451143 -0.11401697169127981 -0.027953156203569092 -0.063924392237259584
leaf_weight=801 236 122 2162 105 150 83 83 869 1423 359 151 86 130 82 153 872 677 467 98 104 104 131 2830 684 234 1798 323 960 175 403 90 124 85 104 493 100 98 905 592 414 1386 2076 201 1231 411 118 243 99 129 80 108 162 431 1098 216 200 178 258 1283 153 248 584
leaf_count=801 236 122 2162 105 150 83 83 869 1423 359 151 86 130 82 153 872 677 467 98 104 104 131 2830 684 234 1798 323 960 175 403 90 124 85 104 493 100 98 905 592 414 1386 2076 201 1231 411 118 243 99 129 80 108 162 431 1098 216 200 178 258 1283 153 248 584
internal_value=0 0.0676125 -0.0157279 -0.000992773 0.000987303 0.108066 0.0113533 0.0218553 -0.0559013 -0.0211593 0.0854514 0.0305594 0.138102 0.125264 -0.0135118 -0.0786558 -0.0441344 0.136558 0.000367042 0.109066 0.0674818 0.0473236 0.0281824 0.0194621 -0.00417134 0.00255649 0.00134322 -0.0273976 0.102136 0.163826 0.177677 0.0425804 0.0631832 0.083907 -0.0335146 0.0180772 0.0498969 -0.0511331 -0.0393733 0.00603354 -0.000681893 0.00852948 -0.0371292 -0.0341582 0.096826 0.109103 0.126478 0.118453 0.0292283 0.0539302 0.0845846 -0.00416284 -0.0441277 -0.0542509 0.0750373 0.0644477 -0.0417518 -0.000818763 -0.0114617 -0.0631042 0.0127343 -0.0422138
internal_weight=0 5659 25094 18360 2138 3521 11388 6793 6734 6972 2009 1234 1512 1276 5555 2295 4439 1146 679 571 555 433 5924 3762 4595 2575 3868 2980 1446 575 493 563 412 327 727 302 202 1417 904 2470 3785 2399 3638 3437 1363 988 654 203 403 274 188 312 2206 1529 334 375 276 2056 1436 1058 3078 1544
internal_count=30753 5659 25094 18360 2138 3521 11388 6793 6734 6972 2009 1234 1512 1276 5555 2295 4439 1146 679 571 555 433 5924 3762 4595 2575 3868 2980 1446 575 493 563 412 327 727 302 202 1417 904 2470 3785 2399 3638 3437 1363 988 654 203 403 274 188 312 2206 1529 334 375 276 2056 1436 1058 3078 1544
is_linear=0
shrinkage=0.05


Tree=14
num_leaves=63
num_cat=0
split_feature=196 10 15 161 16 89 20 142 16 142 177 154 111 162 138 161 154 189 10 79 176 118 164 178 90 128 177 89 34 102 166 111 65 41 96 95 111 89 25 89 177 156 10 111 146 144 153 16 120 65 161 144 39 26 26 130 3 106 98 178 155 20
split_gain=11972 5246.92 5245.78 1772.78 1092.21 852.234 753.665 721.28 688.925 545.58 483.365 475.249 443.58 441.967 425.291 413.487 468.132 403.438 382.842 381.296 372.611 335.435 327.994 326.159 320.947 359.038 312.166 309.31 308.27 390.477 291.481 286.512 271.845 266.212 259.24 259.086 248.807 244.909 229.589 229.175 228.197 250.734 219.465 219.447 237.071 231.891 211.218 210.668 210.65 209.28 205.897 196.905 195.365 190.71 188.108 186.099 181.108 199.206 173.013 179.592 172.483 196.075
threshold=1.0000000180025095e-35 0.27444708347320562 0.71476462483406078 -0.045346759259700768 0.73522850871086132 -0.34614433348178858 -0.10006724298000334 1.1403967738151553 0.48441942036151892 0.71189185976982128 2.1113947629928593 1.0245485305786135 0.082050800323486342 0.53607985377311718 -1.0560673475265501 2.5564303398132329 0.76043978333473217 1.0000000180025095e-35 1.7495106458663943 -0.25746254622936243 -0.56070637702941883 0.088791746646165862 0.29118682444095617 -1.5483604073524473 -0.26651139557361597 0.025158720090985302 -0.31085227429866785 1.1370425224304201 0.48659332096576696 0.41941179335117346 -0.32901263236999506 -1.1772077083587644 -1.3688110113143919 -0.23715555667877194 -0.87191370129585255 0.40302681922912603 -0.55249246954917897 0.72105437517166149 -0.82735264301300038 -0.56775251030921925 -0.13570501655340192 0.34093928337097174 -0.24928126484155652 -0.039774885401129716 1.0858139991760256 -0.98241031169891346 -0.30961365997791285 -1.6366913914680479 0.59895142912864696 -0.79230907559394825 -0.88306272029876698 0.40278750658035284 0.062021225690841682 -0.022426736541092392 -0.022426773793995377 -1.6224013566970823 -0.27619168162345881 -0.62474459409713734 1.8147548437118532 -0.18504104763269422 -1.0585864782333372 -0.48003306984901423
decision_type=2 2 2 2 2 2 2 2 2 2 2 2 2 2 2 2 2 2 2 2 2 2 2 2 2 2 2 2 2 2 2 2 2 2 2 2 2 2 2 2 2 2 2 2 2 2 2 2 2 2 2 2 2 2 2 2 2 2 2 2 2 2
left_child=2 4 3 6 5 14 11 17 15 18 43 50 31 24 -2 16 26 39 19 32 -10 -9 -12 -16 25 52 46 47 29 -25 54 38 -3 -32 -11 -30 -24 58 -8 60 41 55 -33 44 45 -6 -5 -19 -44 -34 -1 -15 -7 -40 -26 -14 -21 -58 59 -22 -4 -62
right_child=1 9 7 8 10 13 12 21 20 34 22 -13 40 51 23 -17 -18 27 -20 56 37 -23 36 28 30 -27 -28 -29 35 -31 33 42 49 -35 -36 -37 -38 -39 53 -41 -42 -43 48 -45 -46 -47 -48 -49 -50 -51 -52 -53 -54 -55 -56 -57 57 -59 -60 -61 61 -63
leaf_value=0.061794623443536478 0.19424742493297298 0.005553141009134256 -0.088445127407759228 -0.031946053432363064 0.21010800124721785 0.0060151252782554496 0.1261146199706803 -0.058526932745868954 0.03089868842106527 0.021995107230427021 0.13099744835583468 -0.0011849509228974093 0.062449293192316541 -0.037442878018269579 0.02004541563663742 -0.089519779032469285 -0.082917705562304933 -0.067324536972604015 -0.038404259987172132 0.052037524579322848 0.023341072345292452 -0.10634213778836628 0.11966116058341843 0.11786051945049886 0.032144566270891413 0.16846814135675536 -0.042828003456893811 -0.1179010930252664 0.21998647410483951 0.028026841083465173 0.0019203247628017759 0.015619063694592015 0.17438607971557166 0.11334046919988315 -0.055238393860627448 0.098099194035473555 0.016161580955066372 -0.03348200456129595 0.0088355000028349975 -0.064611216267600816 -0.05542587681242566 -0.052588154666938516 -0.0032013440011479282 0.11942581539819877 0.23955760781384378 0.13297434537824121 -0.0003193454906672744 -0.016886320940850401 -0.082931618800092921 0.068666821084138394 0.031924979229579827 0.040995067761793881 0.095153414579757886 0.097348963298020119 -0.054448211042691957 -0.0061274246671760482 0.027132206032800078 -0.075208568526870814 -0.065097968329806896 -0.010291331155110347 -0.046896526107303063 -0.0002449878230711033
leaf_weight=811 123 83 138 833 123 93 83 713 675 131 194 901 105 192 125 299 359 234 223 106 676 758 82 379 177 121 1273 89 97 178 80 2967 82 163 633 80 199 815 228 2080 304 285 1392 682 82 482 1442 1798 88 110 2006 137 182 83 97 1684 86 106 97 961 574 371
leaf_count=811 123 83 138 833 123 93 83 713 675 131 194 901 105 192 125 299 359 234 223 106 676 758 82 379 177 121 1273 89 97 178 80 2967 82 163 633 80 199 815 228 2080 304 285 1392 682 82 482 1442 1798 88 110 2006 137 182 83 97 1684 86 106 97 961 574 371
internal_value=0 0.0661504 -0.0145301 -0.00067361 0.0960462 0.0724439 0.0121294 -0.0522048 -0.0195203 -0.0118066 0.124504 0.0304184 0.00270906 0.0449095 0.107255 -0.03285 -0.0285096 -0.0435808 0.0171567 0.0387915 -0.00212853 -0.0831749 0.0809904 0.094772 0.0628129 0.0966901 -0.0230008 -0.0267026 0.107487 0.0891716 0.0368411 0.0113963 0.0812388 0.0766954 -0.0419878 0.165011 0.0464139 -0.0108773 0.0522588 -0.0548959 -0.0149736 -0.00903942 0.00777371 0.139591 0.159582 0.148696 -0.0119027 -0.0227001 -0.00795072 0.113911 0.040528 -0.00476254 0.0650398 0.0324978 0.00146254 -0.00209646 -0.000376937 -0.0293521 -0.000248609 0.00359471 -0.0362279 -0.0285887
internal_weight=0 5628 25122 18367 4068 2224 10937 6755 7430 1560 1844 3718 7219 1242 982 4206 3907 5284 796 573 3224 1471 475 859 913 396 3548 2121 734 557 517 4841 275 243 764 177 281 2549 394 3163 2378 2074 4447 1369 687 605 2275 2032 1480 192 2817 329 275 311 274 1789 298 192 1734 1637 1083 945
internal_count=30750 5628 25122 18367 4068 2224 10937 6755 7430 1560 1844 3718 7219 1242 982 4206 3907 5284 796 573 3224 1471 475 859 913 396 3548 2121 734 557 517 4841 275 243 764 177 281 2549 394 3163 2378 2074 4447 1369 687 605 2275 2032 1480 192 2817 329 275 311 274 1789 298 192 1734 1637 1083 945
is_linear=0
shrinkage=0.05


Tree=15
num_leaves=63
num_cat=0
split_feature=196 13 1 160 1 160 161 161 10 177 1 149 162 90 160 137 161 154 46 177 90 133 136 161 1 160 138 90 171 1 49 119 118 158 1 154 1 98 136 170 138 189 1 120 27 139 167 16 76 140 11 39 136 89 25 138 114 98 160 91 56 160
split_gain=10767.9 5070.82 4921.35 1449.54 1293.43 1060.24 950.914 664.884 630.993 606.765 510.234 457.622 469.178 405.876 390.436 374.372 366.006 335.306 333.192 307.907 284.51 278.086 263.714 254.693 236.119 234.565 233.348 231.092 224.188 247.736 285.453 223.784 216.172 210.027 209.421 206.148 198.799 320.075 197.983 200.85 195.825 194.203 193.268 192.402 192.332 190.787 189.719 185.425 183.475 192.695 181.313 180.719 179.242 178.118 176.871 172.642 169.385 168.467 166.743 160.484 150.521 149.593
threshold=1.0000000180025095e-35 -0.33742311596870417 0.85753884911537182 1.0924106836318972 1.1333976387977602 1.3077570199966433 -0.27013824880123133 -0.53821593523025502 -0.30282193422317499 1.9835239648818972 1.4101665616035464 -1.2097133398056028 0.53607985377311718 -0.79416161775588978 1.0184617638587954 -0.97776708006858815 0.97293451428413402 -1.9260809421539304 -0.025961124338209626 1.8136023879051211 1.0675578713417055 0.90378260612487804 0.73766064643859874 -0.5304766297340392 -0.21256493777036664 -0.71338823437690724 0.2518968284130097 -1.1569108963012693 1.6055583953857424 -1.4172815680503843 -1.3678684234619138 -0.79378232359886158 -0.067428372800350175 0.66048243641853344 -0.39187592267990107 0.22163273394107821 -0.66768851876258839 0.097146652638912215 0.18666097521781924 -0.41474352777004236 -0.62273848056793202 1.0000000180025095e-35 0.70520451664924633 0.048643331974744804 1.030427932739258 0.038240611553192146 0.71703663468360912 -1.8747565746307371 -0.62458619475364674 0.076527178287506117 0.59570083022117626 -1.2241312861442564 -0.89213046431541432 -0.85516247153282154 0.66900086402893078 -0.63434255123138417 -1.194845378398895 0.35757724940776831 3.0154893398284917 1.7994771599769595 0.050756596028804786 -0.53677308559417714
decision_type=2 2 2 2 2 2 2 2 2 2 2 2 2 2 2 2 2 2 2 2 2 2 2 2 2 2 2 2 2 2 2 2 2 2 2 2 2 2 2 2 2 2 2 2 2 2 2 2 2 2 2 2 2 2 2 2 2 2 2 2 2 2
left_child=1 4 5 7 6 8 21 25 13 10 15 -10 18 31 17 -4 22 -8 61 -20 47 27 36 -17 60 34 58 41 29 32 -31 -2 -15 35 -3 -33 -9 -38 39 -29 -24 -1 55 -11 -18 -43 -25 -6 -36 -50 56 -40 54 -49 -12 -19 -27 -54 -5 -58 -7 -13
right_child=2 3 9 26 20 24 14 16 11 43 52 12 -14 28 -16 23 44 42 19 -21 -22 -23 40 46 -26 50 -28 38 -30 30 -32 33 -34 -35 48 -37 37 -39 51 -41 -42 45 -44 -45 -46 -47 -48 53 49 -51 -52 -53 57 -55 -56 -57 59 -59 -60 -61 -62 -63
